<?xml version="1.0"?>
<MethodSetup Method="MLP::MLP_k_inf">
  <GeneralInfo>
    <Info name="TMVA Release" value="4.2.1 [262657]"/>
    <Info name="ROOT Release" value="6.06/02 [394754]"/>
    <Info name="Creator" value="mouginot"/>
    <Info name="Date" value="Tue Jul 11 10:42:27 2017"/>
    <Info name="Host" value="Linux kermit 4.4.0-71-generic #92-Ubuntu SMP Fri Mar 24 12:59:01 UTC 2017 x86_64 x86_64 x86_64 GNU/Linux"/>
    <Info name="Dir" value="/home/mouginot/work/MODEL/MODEL_DATA/MOX_TRU_MODELS/PWR_TRU/EQM_10"/>
    <Info name="Training events" value="400"/>
    <Info name="TrainingTime" value="1.07574212e+02"/>
    <Info name="AnalysisType" value="Regression"/>
  </GeneralInfo>
  <Options>
    <Option name="NCycles" modified="Yes">16000</Option>
    <Option name="HiddenLayers" modified="Yes">18,21,9</Option>
    <Option name="NeuronType" modified="Yes">sigmoid</Option>
    <Option name="RandomSeed" modified="No">1</Option>
    <Option name="EstimatorType" modified="No">MSE</Option>
    <Option name="NeuronInputType" modified="No">sum</Option>
    <Option name="V" modified="Yes">True</Option>
    <Option name="VerbosityLevel" modified="No">Verbose</Option>
    <Option name="VarTransform" modified="Yes">Norm</Option>
    <Option name="H" modified="Yes">False</Option>
    <Option name="CreateMVAPdfs" modified="No">False</Option>
    <Option name="IgnoreNegWeightsInTraining" modified="No">False</Option>
    <Option name="TrainingMethod" modified="Yes">BFGS</Option>
    <Option name="LearningRate" modified="Yes">1.000000e-01</Option>
    <Option name="DecayRate" modified="No">1.000000e-02</Option>
    <Option name="TestRate" modified="Yes">6</Option>
    <Option name="EpochMonitoring" modified="No">False</Option>
    <Option name="Sampling" modified="Yes">5.000000e-01</Option>
    <Option name="SamplingEpoch" modified="Yes">8.000000e-01</Option>
    <Option name="SamplingImportance" modified="No">1.000000e+00</Option>
    <Option name="SamplingTraining" modified="No">True</Option>
    <Option name="SamplingTesting" modified="No">False</Option>
    <Option name="ResetStep" modified="No">50</Option>
    <Option name="Tau" modified="No">3.000000e+00</Option>
    <Option name="BPMode" modified="No">sequential</Option>
    <Option name="BatchSize" modified="No">-1</Option>
    <Option name="ConvergenceImprove" modified="Yes">1.000000e-06</Option>
    <Option name="ConvergenceTests" modified="Yes">15</Option>
    <Option name="UseRegulator" modified="Yes">False</Option>
    <Option name="UpdateLimit" modified="No">10000</Option>
    <Option name="CalculateErrors" modified="No">False</Option>
    <Option name="WeightRange" modified="No">1.000000e+00</Option>
  </Options>
  <Variables NVar="17">
    <Variable VarIndex="0" Expression="235U" Label="235U" Title="235U" Unit="IsotopicFraction" Internal="235U" Type="F" Min="7.50372070e-04" Max="1.74395740e-02"/>
    <Variable VarIndex="1" Expression="238U" Label="238U" Title="238U" Unit="IsotopicFraction" Internal="238U" Type="F" Min="7.97709286e-01" Max="9.44408298e-01"/>
    <Variable VarIndex="2" Expression="237Np" Label="237Np" Title="237Np" Unit="IsotopicFraction" Internal="237Np" Type="F" Min="1.43288207e-06" Max="9.93975264e-05"/>
    <Variable VarIndex="3" Expression="238Pu" Label="238Pu" Title="238Pu" Unit="IsotopicFraction" Internal="238Pu" Type="F" Min="2.03323172e-04" Max="2.53091496e-03"/>
    <Variable VarIndex="4" Expression="239Pu" Label="239Pu" Title="239Pu" Unit="IsotopicFraction" Internal="239Pu" Type="F" Min="4.13255468e-02" Max="1.68502972e-01"/>
    <Variable VarIndex="5" Expression="240Pu" Label="240Pu" Title="240Pu" Unit="IsotopicFraction" Internal="240Pu" Type="F" Min="1.66836276e-03" Max="2.75085643e-02"/>
    <Variable VarIndex="6" Expression="241Pu" Label="241Pu" Title="241Pu" Unit="IsotopicFraction" Internal="241Pu" Type="F" Min="4.37216886e-06" Max="3.91485076e-03"/>
    <Variable VarIndex="7" Expression="242Pu" Label="242Pu" Title="242Pu" Unit="IsotopicFraction" Internal="242Pu" Type="F" Min="4.49798536e-05" Max="1.62482192e-03"/>
    <Variable VarIndex="8" Expression="241Am" Label="241Am" Title="241Am" Unit="IsotopicFraction" Internal="241Am" Type="F" Min="5.33076272e-05" Max="3.00545711e-03"/>
    <Variable VarIndex="9" Expression="242Amm" Label="242Amm" Title="242Amm" Unit="IsotopicFraction" Internal="242Amm" Type="F" Min="3.12370015e-04" Max="8.82570632e-03"/>
    <Variable VarIndex="10" Expression="243Am" Label="243Am" Title="243Am" Unit="IsotopicFraction" Internal="243Am" Type="F" Min="4.09292049e-08" Max="1.66711543e-04"/>
    <Variable VarIndex="11" Expression="242Cm" Label="242Cm" Title="242Cm" Unit="IsotopicFraction" Internal="242Cm" Type="F" Min="5.66110032e-07" Max="1.07759071e-04"/>
    <Variable VarIndex="12" Expression="243Cm" Label="243Cm" Title="243Cm" Unit="IsotopicFraction" Internal="243Cm" Type="F" Min="1.16539177e-05" Max="1.45540078e-04"/>
    <Variable VarIndex="13" Expression="244Cm" Label="244Cm" Title="244Cm" Unit="IsotopicFraction" Internal="244Cm" Type="F" Min="3.70342991e-06" Max="1.52528228e-04"/>
    <Variable VarIndex="14" Expression="245Cm" Label="245Cm" Title="245Cm" Unit="IsotopicFraction" Internal="245Cm" Type="F" Min="7.27667884e-06" Max="1.02195962e-04"/>
    <Variable VarIndex="15" Expression="246Cm" Label="246Cm" Title="246Cm" Unit="IsotopicFraction" Internal="246Cm" Type="F" Min="8.97252846e-07" Max="1.50454798e-04"/>
    <Variable VarIndex="16" Expression="Time" Label="Time" Title="Time" Unit="seconds" Internal="Time" Type="F" Min="0.00000000e+00" Max="1.89328320e+08"/>
  </Variables>
  <Spectators NSpec="0"/>
  <Classes NClass="1">
    <Class Name="Regression" Index="0"/>
  </Classes>
  <Targets NTrgt="1">
    <Target TargetIndex="0" Expression="k_inf" Label="k_inf" Title="k_inf" Unit="" Internal="k_inf" Type="F" Min="8.51915002e-01" Max="1.61748004e+00"/>
  </Targets>
  <Transformations NTransformations="1">
    <Transform Name="Normalize">
      <Selection>
        <Input NInputs="18">
          <Input Type="Variable" Label="235U" Expression="235U"/>
          <Input Type="Variable" Label="238U" Expression="238U"/>
          <Input Type="Variable" Label="237Np" Expression="237Np"/>
          <Input Type="Variable" Label="238Pu" Expression="238Pu"/>
          <Input Type="Variable" Label="239Pu" Expression="239Pu"/>
          <Input Type="Variable" Label="240Pu" Expression="240Pu"/>
          <Input Type="Variable" Label="241Pu" Expression="241Pu"/>
          <Input Type="Variable" Label="242Pu" Expression="242Pu"/>
          <Input Type="Variable" Label="241Am" Expression="241Am"/>
          <Input Type="Variable" Label="242Amm" Expression="242Amm"/>
          <Input Type="Variable" Label="243Am" Expression="243Am"/>
          <Input Type="Variable" Label="242Cm" Expression="242Cm"/>
          <Input Type="Variable" Label="243Cm" Expression="243Cm"/>
          <Input Type="Variable" Label="244Cm" Expression="244Cm"/>
          <Input Type="Variable" Label="245Cm" Expression="245Cm"/>
          <Input Type="Variable" Label="246Cm" Expression="246Cm"/>
          <Input Type="Variable" Label="Time" Expression="Time"/>
          <Input Type="Target" Label="k_inf" Expression="k_inf"/>
        </Input>
        <Output NOutputs="18">
          <Output Type="Variable" Label="235U" Expression="235U"/>
          <Output Type="Variable" Label="238U" Expression="238U"/>
          <Output Type="Variable" Label="237Np" Expression="237Np"/>
          <Output Type="Variable" Label="238Pu" Expression="238Pu"/>
          <Output Type="Variable" Label="239Pu" Expression="239Pu"/>
          <Output Type="Variable" Label="240Pu" Expression="240Pu"/>
          <Output Type="Variable" Label="241Pu" Expression="241Pu"/>
          <Output Type="Variable" Label="242Pu" Expression="242Pu"/>
          <Output Type="Variable" Label="241Am" Expression="241Am"/>
          <Output Type="Variable" Label="242Amm" Expression="242Amm"/>
          <Output Type="Variable" Label="243Am" Expression="243Am"/>
          <Output Type="Variable" Label="242Cm" Expression="242Cm"/>
          <Output Type="Variable" Label="243Cm" Expression="243Cm"/>
          <Output Type="Variable" Label="244Cm" Expression="244Cm"/>
          <Output Type="Variable" Label="245Cm" Expression="245Cm"/>
          <Output Type="Variable" Label="246Cm" Expression="246Cm"/>
          <Output Type="Variable" Label="Time" Expression="Time"/>
          <Output Type="Target" Label="k_inf" Expression="k_inf"/>
        </Output>
      </Selection>
      <Class ClassIndex="0">
        <Ranges>
          <Range Index="0" Min="7.5037206988781691e-04" Max="1.7439574003219604e-02"/>
          <Range Index="1" Min="7.9770928621292114e-01" Max="9.4440829753875732e-01"/>
          <Range Index="2" Min="1.4328820725495461e-06" Max="9.9397526355460286e-05"/>
          <Range Index="3" Min="2.0332317217253149e-04" Max="2.5309149641543627e-03"/>
          <Range Index="4" Min="4.1325546801090240e-02" Max="1.6850297152996063e-01"/>
          <Range Index="5" Min="1.6683627618476748e-03" Max="2.7508564293384552e-02"/>
          <Range Index="6" Min="4.3721688598452602e-06" Max="3.9148507639765739e-03"/>
          <Range Index="7" Min="4.4979853555560112e-05" Max="1.6248219180852175e-03"/>
          <Range Index="8" Min="5.3307627240428701e-05" Max="3.0054571107029915e-03"/>
          <Range Index="9" Min="3.1237001530826092e-04" Max="8.8257063180208206e-03"/>
          <Range Index="10" Min="4.0929204914164075e-08" Max="1.6671154298819602e-04"/>
          <Range Index="11" Min="5.6611003174111829e-07" Max="1.0775907139759511e-04"/>
          <Range Index="12" Min="1.1653917681542225e-05" Max="1.4554007793776691e-04"/>
          <Range Index="13" Min="3.7034299111837754e-06" Max="1.5252822777256370e-04"/>
          <Range Index="14" Min="7.2766788434819318e-06" Max="1.0219596151728183e-04"/>
          <Range Index="15" Min="8.9725284624364576e-07" Max="1.5045479813124985e-04"/>
          <Range Index="16" Min="0.0000000000000000e+00" Max="1.8932832000000000e+08"/>
          <Range Index="17" Min="8.5191500186920166e-01" Max="1.6174800395965576e+00"/>
        </Ranges>
      </Class>
    </Transform>
  </Transformations>
  <MVAPdfs/>
  <Weights>
    <Layout NLayers="5">
      <Layer Index="0" NNeurons="18">
        <Neuron NSynapses="18">
          -9.2677369056656189e-01 1.8910862007331024e+00 7.8738997027876334e-01 1.5375329850175077e+00 -1.7600154122911413e+00 -1.7889471423457950e+00 -3.2233662509959954e-01 1.2803782237175150e+00 -1.1467911210832626e+00 -9.6327960305396776e-01 -2.1805311922393780e+00 -3.3615940045565612e-01 -1.1538992091431182e+00 -3.5311066684664633e-01 -8.5540495330359778e-01 9.7427143816934836e-01 -4.0976261097333067e-01 1.7326178182611749e+00 
        </Neuron>
        <Neuron NSynapses="18">
          5.1329094842770907e-02 1.4108179419882241e+00 -7.5366719032623555e-02 -8.1685379631433008e-01 7.7533346294216732e-01 -6.2323992055382964e-02 -1.1396147658964682e+00 1.0539360364808147e-01 1.5812207176392366e+00 -9.5805529832904657e-01 -1.8685577363252956e+00 1.2064356177827068e-01 5.9123214994258344e-01 1.7220752106980242e+00 -5.4585885545251944e-01 -3.3031369329924065e-01 2.6640228136558347e-01 -2.2240269893733838e-01 
        </Neuron>
        <Neuron NSynapses="18">
          -1.8206073229274518e+00 1.8459003248498800e+00 -1.2087898567472979e+00 9.8265848210253803e-01 1.0811655165291709e+00 9.5047835767609545e-01 1.9547200526013935e+00 8.9270484960308716e-01 -5.5554268908154381e-01 -1.7388685937847548e+00 8.3704536533288421e-01 4.6934671371593371e-02 1.5593957480395100e+00 1.4580531454543366e+00 1.5173089308258769e+00 1.4805798569502449e+00 -1.6241571015069960e+00 1.3456374236635491e+00 
        </Neuron>
        <Neuron NSynapses="18">
          -9.1319659766556360e-01 -1.1308381554333513e+00 -1.6146997219102202e+00 -1.8145504339857188e+00 1.4885390625097357e+00 1.1198163189314634e+00 -2.1661645998137478e+00 1.2922331680766996e-01 -5.5930113381228885e-01 6.6590612255331172e-01 2.3104911042116987e+00 -2.3187045484349300e-01 1.9965073140250314e-01 -1.4478510905231841e+00 7.0292287599291081e-01 -1.1008818606826027e+00 -8.3423726134836118e-01 -1.5053267511120922e+00 
        </Neuron>
        <Neuron NSynapses="18">
          9.5041276801459673e-01 1.1540266120663292e+00 1.1420988088802979e+00 -2.5779580857384932e-01 -1.9060629237287463e+00 -1.7269150816733640e+00 9.8528725630646374e-01 2.3450838730379281e-01 1.8046101740885667e+00 4.2950113187306360e-01 1.0295374525269370e+00 -6.6351332598869706e-01 -8.1086355773171070e-01 -2.6704515956000385e-01 1.4521581074093290e+00 -9.0167535486202743e-01 -1.6398694883793101e+00 -1.7543394754073198e+00 
        </Neuron>
        <Neuron NSynapses="18">
          1.5227987176079488e-01 -3.1558101532492572e-01 1.6531113431857445e+00 -1.6443205039253506e+00 -1.2238308414582399e+00 1.7214231626334187e+00 -9.9364695950524284e-01 -1.1284889885987959e+00 -1.3226325887998940e+00 1.0307259299881183e-01 -1.8733609799049977e+00 -1.3414617569948961e+00 7.5245462165587063e-01 1.6059177872113954e+00 -1.3102595118581883e+00 1.3874923502932632e+00 -9.2172623093037187e-01 -8.6887418182898590e-01 
        </Neuron>
        <Neuron NSynapses="18">
          4.5282862117754863e-01 3.4430665121264253e-01 -1.5150368936582692e+00 4.9841928045850864e-01 5.1591227849310795e-01 8.0302431685717865e-02 -1.1568220519969854e+00 2.1404051816301339e+00 -7.2073450453109297e-02 -1.2345694456292278e+00 4.1737882667044834e-01 -3.1271950576776913e-01 -1.7118552962911748e+00 1.9803449263253206e-01 -2.8723319195715558e-01 1.9211864311517117e+00 6.5419170691153095e-01 -7.8474396154631310e-02 
        </Neuron>
        <Neuron NSynapses="18">
          -5.5223826226722050e-01 1.8154906885947680e-01 -1.7130906420447458e+00 1.0613011782080752e+00 -1.7307994414310940e-01 -1.9742762753970817e+00 7.9006173628713539e-01 -1.3853940509686156e+00 -9.2560728016158181e-02 8.7208666874546825e-01 1.6486255081059957e+00 -1.5079047597742770e+00 3.7527173678416120e-01 1.5891701978493400e+00 1.5275398964220208e+00 5.6613714436477158e-01 -1.4971990164923619e+00 -2.6724634625694699e-01 
        </Neuron>
        <Neuron NSynapses="18">
          -1.6427013702468267e+00 1.6154684858607293e+00 1.5164429228992800e+00 -3.7830092558192663e-01 -6.3729914145141220e-01 -3.2180145034065882e-01 -1.0777221187902863e+00 9.5031983378849427e-01 1.3423177538093369e+00 -8.5044555436312086e-01 -1.0013005403796367e+00 8.3773130949908037e-01 9.6089861678015609e-01 6.8058989809004200e-01 7.7215519450697223e-01 -1.0006827466174828e+00 1.4322262049899128e+00 7.0093400542123863e-01 
        </Neuron>
        <Neuron NSynapses="18">
          4.5146232620050397e-01 3.1036516075884846e-01 7.7626632683546781e-01 -4.7931184926436843e-01 -6.0902697569159114e-01 1.0568432999194508e+00 -7.7788144482127131e-01 -6.5259991847335397e-01 1.6715707661171328e+00 1.0371098664619389e+00 -5.3844372780178595e-01 1.7917346684701052e+00 2.0610318057847943e+00 -2.0367512678052706e+00 4.8744800838611790e-01 1.3571463013847032e-01 4.9126704158046364e-01 -1.7517974786448600e+00 
        </Neuron>
        <Neuron NSynapses="18">
          -1.1576260466139996e+00 1.2377044781102156e+00 1.7053717752431001e+00 -1.7147755252439580e+00 -4.6257710893327048e-01 -4.3855662538463086e-01 6.1736168850227820e-02 1.8959393861550891e+00 -7.1349220302281935e-01 -7.8213860935571111e-01 -6.8723556398670649e-01 1.2138887124438584e+00 1.6262356169786716e+00 1.0665727773022433e+00 6.4711596419613560e-01 -5.2290758195159748e-01 -2.0860171683136239e+00 1.0266330232491179e+00 
        </Neuron>
        <Neuron NSynapses="18">
          1.2304418931982517e+00 -1.3229097480545315e+00 -9.2481327200330654e-01 2.9469019293104287e-01 5.0791142621167892e-02 -1.7467284658475271e+00 1.1579590235620933e+00 6.3871681019830706e-01 -1.0916742060644644e+00 -3.6336882645395757e-01 1.9871184664486026e+00 9.5104514440621324e-01 3.5227998223250873e-01 -1.1587168099735561e-01 -1.4778310907321839e+00 -9.1244510859891781e-01 1.5987372770015382e+00 1.1946794247868262e+00 
        </Neuron>
        <Neuron NSynapses="18">
          7.3289848137032654e-01 2.1959417780549523e-01 1.9096817231426997e+00 -1.4048995721534812e+00 -1.0592035709188063e+00 -4.4200037393892788e-01 -6.6680997001748599e-01 1.4730211405307310e+00 1.8039604426453337e+00 -1.5334949018159345e+00 3.0468624158583935e-01 4.2092125547639503e-01 -1.7019313383239163e+00 -8.2437077813228399e-01 1.8074842922966612e+00 4.3010877462206237e-01 1.0550367784008658e+00 -1.2197702811708979e+00 
        </Neuron>
        <Neuron NSynapses="18">
          2.1564665306698254e+00 -1.6314475052796109e+00 9.1157885876970313e-01 1.2303047066329138e-01 -1.3580615114254695e+00 -1.0123184090211419e+00 -2.2263820872676083e+00 -8.0847462971082851e-01 -2.1410195543419372e+00 -1.8089524764405267e+00 -1.5233037474997826e+00 2.6326129794481118e-01 -1.0183071654502545e+00 -1.8054128199547708e+00 1.4805875233700594e+00 -8.7836192733033513e-01 5.8329302606491558e-02 -1.0202205447182351e+00 
        </Neuron>
        <Neuron NSynapses="18">
          -2.2435124250199420e-01 1.8412070253823254e+00 1.5897491986475762e+00 -9.2546712709823153e-01 -1.7783040159326979e+00 -1.2111326190436480e+00 -7.0847014492705718e-01 -1.9210104964511650e+00 4.6638214261981120e-01 2.0346942364634196e-01 1.3621755277760110e+00 -1.6597916310865610e-01 1.7209132090293858e-01 -5.2031046778084333e-01 -2.4816360863750742e+00 1.1883100700520579e+00 1.2413030856564455e+00 -8.8387162534220509e-01 
        </Neuron>
        <Neuron NSynapses="18">
          -9.9772001813159616e-01 9.0466668734799294e-01 1.0063545314408486e+00 4.4171925414799723e-01 -7.0661493677591225e-01 -6.9129540276458457e-02 1.5370237923066772e+00 8.7639452822394148e-01 8.9267475458360634e-01 -7.1817884922233777e-01 3.8419487661041246e-01 -2.2210029715473042e-01 -1.5086230419545599e+00 -4.4909748069058114e-01 -1.3943691630996669e+00 -1.1876339218094250e+00 -1.4784121487227235e+00 1.6267105768853922e+00 
        </Neuron>
        <Neuron NSynapses="18">
          -2.5196893398927878e+00 1.1543374282881445e+00 -1.6884210995871440e+00 1.6609009216633992e+00 -9.5708087865362834e-01 6.0149721604301154e-01 1.7659383662328945e+00 -1.6301149536676860e+00 -1.5570695912665639e-01 1.3123687538412310e+00 -1.5689202979965144e+00 -2.6447775137677358e+00 -1.6552675049300845e+00 -1.3291600775495627e+00 1.5833587954174735e+00 -9.9069104629523619e-01 -1.2544801644990831e-03 -4.1301725824413521e-01 
        </Neuron>
        <Neuron NSynapses="18">
          -1.8154348154140436e+00 -1.5663044049733632e+00 -1.4559911578677673e+00 -1.3689723314358058e+00 9.3095524674368169e-01 -8.5151878178710749e-01 -1.7131797724091793e+00 1.0517537591568442e+00 4.9566125376923653e-01 -4.3517770810407169e-02 2.0634985904225527e+00 -3.3973360810470474e+00 1.4249902039382580e+00 8.3730817489185283e-01 -8.6250251780670861e-01 -1.0467249185940872e+00 1.0343846492554769e-01 -1.1367853656165365e+00 
        </Neuron>
      </Layer>
      <Layer Index="1" NNeurons="19">
        <Neuron NSynapses="21">
          2.0576089610576867e-01 1.7948856291781923e+00 1.4411863151971716e+00 1.5456627230134132e+00 -1.9174701763103188e+00 7.9088907996619751e-01 -1.9288901911082739e+00 6.0049846943965168e-01 -1.9987331963533705e+00 -2.2453396300922308e+00 3.0617912828093158e-01 1.2323204509441295e+00 2.6083827329503401e-01 8.7564178673179927e-01 2.7987278056185899e-01 -2.1633853221947624e-01 -1.0459012702116821e+00 -8.2416791780715593e-02 2.1347237324502837e+00 -1.5083600849346983e+00 2.5511283760271208e-01 
        </Neuron>
        <Neuron NSynapses="21">
          -1.4611321050930846e+00 -6.0421862878023058e-01 5.8232480536099104e-03 2.0374594122357037e-01 -9.0588933464044952e-01 1.0200586311813653e+00 1.7006507070326746e+00 7.7207064081504895e-01 1.2868052822597598e-01 -1.0744541790263156e+00 -1.5246310522853743e+00 -1.3837153412457204e+00 9.8361201745502602e-01 -7.5757161546365137e-01 -1.1415456981849179e+00 5.2547202505175417e-01 -1.7757889933401718e+00 -1.3262545363793534e+00 -1.7985773942997063e+00 8.5241479678683740e-01 -1.3747366360677644e+00 
        </Neuron>
        <Neuron NSynapses="21">
          -1.7481627950990508e+00 -5.6503740410177494e-01 -1.3505723779421015e+00 -1.6143494777504628e+00 1.5616272547603942e+00 -1.3927720053409505e+00 -1.2739306170922113e+00 1.6167778778498554e+00 1.1359917393816281e+00 -6.6662636750949480e-02 -9.4584393866999822e-02 1.4488964081774423e+00 1.7916012833161858e+00 1.6350755267281189e-01 -9.4605687387928739e-01 -6.8727764728965290e-01 -1.8049929393752633e+00 7.9195504084483082e-01 7.9002960475651929e-01 -3.7135229673729939e-02 1.2227925520409595e+00 
        </Neuron>
        <Neuron NSynapses="21">
          1.0829842161946268e+00 1.3814808568377879e+00 -1.2914241875512114e+00 1.5059964706670372e+00 1.1992644697374926e+00 -2.0670412398198152e+00 -1.9965922743873887e-01 -1.1232498643063533e+00 1.0098797469403895e+00 9.3837803500673089e-01 1.2568925980413690e+00 1.3545058587165779e+00 -5.6535669308961101e-01 2.0453552214371902e+00 1.7103575669196240e+00 2.0927152832635193e-01 -1.4100415694989459e+00 1.6034720156757156e+00 -1.6966196029662730e+00 6.5245775112351567e-01 1.6993032178744807e+00 
        </Neuron>
        <Neuron NSynapses="21">
          -2.1112330573581620e-01 -1.0577288677925372e+00 -1.2215902617913475e-01 -1.5209375750060457e+00 3.9900522274389189e-01 -2.1305934800904955e+00 1.0794949123594115e-01 1.1195984147836348e-01 1.6283297368958143e+00 1.1639909113653106e+00 1.7809482194668997e+00 -8.5853306490653836e-01 -4.4829733367972263e-01 3.7144752303726336e-01 1.8645723488949286e+00 -1.8995286381563288e+00 -1.7412519145215124e+00 -5.2280239307871779e-01 -8.3105934245847801e-01 -1.8382285691656681e+00 -1.3450373084550973e+00 
        </Neuron>
        <Neuron NSynapses="21">
          8.9914739168956703e-01 -4.1546152563481410e-02 -1.8635094737991176e+00 -2.0007848003284141e+00 -1.4294391356867275e-01 1.5021845477254290e+00 1.8400880694245285e+00 1.6892321894777220e+00 -1.1557987591721393e+00 -1.8033889214402958e+00 4.4802370288980022e-02 -9.8799633025218114e-01 -1.6165129050676170e+00 -4.6316086723165456e-01 2.1086514645553778e-02 -1.5027907462349215e+00 1.1697794823162841e+00 1.4115139063439046e+00 6.7621799811187377e-01 -6.8427407272697982e-01 -8.7031540978769706e-01 
        </Neuron>
        <Neuron NSynapses="21">
          2.0616682968505859e+00 -7.6078347066390029e-01 3.6782259036215603e-01 1.3650757735709245e+00 2.0863767940113469e+00 -1.0300210123179576e+00 1.4524768036134634e+00 -1.8399218702844813e+00 1.6256486464496918e+00 2.0027032652567032e+00 -1.1330168133485627e-01 -9.1070398931450836e-01 2.2580392259930537e-01 -7.2989272471628863e-01 1.1993383341969097e+00 3.0060085695634559e-01 -9.4699817092778571e-01 -1.3836688600903393e+00 -3.3879282043207387e-01 1.3035797920126082e+00 5.4788947658053044e-01 
        </Neuron>
        <Neuron NSynapses="21">
          -6.9290210909811401e-01 -2.0495308416894216e+00 1.7987846175438416e+00 1.4839775460943361e-01 -9.9592228963527207e-01 -4.1291074405826517e-01 -8.9942212484548512e-01 1.1509912280469010e+00 1.5319404024931667e+00 -8.3769170481037603e-01 -6.6344781660411634e-01 1.3898425284818183e+00 1.2067931254961448e+00 7.3481741861017649e-02 1.8099283878144540e-01 -1.2871172249463276e+00 -1.5225012601732477e+00 1.3864434693750154e+00 1.2160050888349064e-01 5.4948539953074604e-01 -1.8552910978609205e+00 
        </Neuron>
        <Neuron NSynapses="21">
          -1.8507610116055950e+00 -2.0222845254386552e+00 -4.7649030547747945e-01 -1.8630889188821411e+00 1.0854654866101532e+00 -4.4539041411290159e-01 1.8857922214229221e+00 7.2425069086737542e-02 -1.5459274298542329e+00 1.2435185190170801e+00 1.8295653330518735e+00 7.3394444081862897e-01 -4.7501730941508458e-01 -1.0400206105753607e+00 1.9016431023488412e+00 -1.6608207612598629e+00 2.1268498822282092e-01 -1.4969625693982340e+00 7.8149655263979900e-01 -1.0355920032248149e+00 2.7849767786966390e-01 
        </Neuron>
        <Neuron NSynapses="21">
          -6.7803592870417415e-02 4.9746865757968478e-01 -4.2379721380568125e-01 -8.9947881861605150e-01 1.1678099161469397e+00 3.8960754846802947e-01 1.0403409715650609e+00 1.3911315503008608e+00 -2.2085056957227942e+00 1.2847830710486585e+00 -1.8465955694326095e+00 7.3154244236232902e-01 1.2471025907345881e+00 8.3892761410652184e-01 1.6145039819518965e+00 1.4432674556213243e+00 -2.1662121500421079e+00 -4.4357802794123108e-01 -1.3160039019419525e+00 5.1246788452201564e-01 -1.7437527150694818e-01 
        </Neuron>
        <Neuron NSynapses="21">
          -1.3797357585069933e-01 -5.8091908244937029e-01 -4.4332375252576645e-01 -1.0620382265064350e+00 -5.5530459905807306e-01 -1.7713511255723702e+00 -1.3136142511131704e-01 -4.6450542560844188e-02 -9.6287039078492243e-01 -2.0539975994448567e+00 5.4073254531640780e-01 -1.6602038841025410e-01 -3.4503827432292800e-01 -1.4676562197622567e+00 1.9015126707100001e+00 -3.2019531859502731e-01 5.2589894859407793e-01 7.2991856614214201e-01 -1.7215808847723570e+00 -9.3310587988479310e-01 -3.5749919733387647e-01 
        </Neuron>
        <Neuron NSynapses="21">
          -2.2628598442351811e+00 -7.0599421534600459e-01 -1.2739260324612898e+00 1.1124057056055776e+00 -3.0712551483638104e+00 1.2523737677134694e+00 1.4574884389936758e+00 1.5691444049004923e+00 1.1537138527121020e+00 -3.8962946236956938e-02 1.9831247539419367e-01 -5.6700112777036382e-01 -1.9841969083300000e+00 -1.4297546256813263e+00 -7.9900620551408119e-01 1.3857043903927424e+00 -3.0508742810137662e-01 1.9036938427113497e-02 2.1923269287135887e+00 1.5546299149961786e+00 -1.2041608627370621e+00 
        </Neuron>
        <Neuron NSynapses="21">
          5.3864028474652415e-01 -1.8324204759253484e+00 1.1241006956883273e+00 -2.0338321761345215e+00 1.5511070316605127e-01 -4.0685275629154055e-01 1.2065601096274901e+00 -1.8626277119354311e+00 2.2319732043147039e-01 -1.7995425581214244e+00 7.9927461936521976e-02 1.3353701889317662e+00 -7.2002761205383825e-01 9.1260533745527977e-02 -1.7114734328463233e+00 1.0679757394879741e+00 -8.3134816986030613e-01 7.3497427946122429e-01 -1.3233553349360907e+00 -9.4531215363625176e-01 2.0846088985245066e+00 
        </Neuron>
        <Neuron NSynapses="21">
          -1.6470637186921719e+00 -1.5436015751085455e+00 -7.0645231886888737e-01 1.0182076956966473e+00 1.9009524184716440e+00 1.2501213344313462e+00 -1.6854344032130502e+00 6.0837918260653168e-01 5.8311919964670711e-01 4.7896095586707987e-01 -1.0433575645959667e+00 -1.8317931314412628e+00 -1.3864934873994469e-01 -5.2704252097339803e-02 1.6253567389773169e+00 -6.3839431321826889e-01 -4.3232816105434274e-01 -1.2434317571878004e+00 1.8253845627695555e+00 4.7686862537204416e-01 1.3983154323957678e+00 
        </Neuron>
        <Neuron NSynapses="21">
          -8.1264755637897135e-01 -1.4096230815201078e+00 1.7707136281910703e+00 1.1940573822894521e-01 1.5138478308869137e+00 -7.2057004138981265e-02 -7.6554932107618356e-01 -1.3628426712585424e+00 -1.7991001405809415e+00 -3.1409383972287447e-01 -1.1601510380105524e+00 -2.1757456396484232e-01 3.2603540457993345e-02 -4.0092804476886168e-01 9.2074555923050527e-01 -1.9718773160554899e+00 -1.1966927114090016e+00 2.4899970725399750e-01 -1.8139478890898380e+00 6.8143551466064356e-01 1.3546453664368645e+00 
        </Neuron>
        <Neuron NSynapses="21">
          -1.8722433784148298e+00 -5.8454492485743037e-01 -1.3467060572307152e+00 4.0311817937879796e-01 1.2954747511175491e-01 -1.3245628037260981e+00 -7.3289701729865864e-01 -1.3798897711287226e+00 1.7108629609850818e+00 1.3341581286841131e-01 1.2347550748808396e+00 4.5169169052431363e-01 -1.2948953475496370e+00 -1.4330991726977154e+00 -1.1890039625963593e+00 4.7545383129268870e-01 3.4428112262863630e-01 1.1888099055241337e-02 -7.7020225510129647e-01 7.3927393497233296e-01 9.4476666125371967e-03 
        </Neuron>
        <Neuron NSynapses="21">
          -1.4008821941486136e+00 1.7631093873165522e+00 8.5733603902226219e-01 -1.6396797943213477e+00 -8.9355171811049994e-01 -2.1326796648635686e+00 3.8054093181508535e-02 1.4778384369173347e+00 1.3442052917009979e+00 1.0422569747469808e+00 -1.7935898567479172e+00 -1.4044418581929257e+00 -7.9200800516977699e-01 3.1726949375479857e-01 1.5009437306322628e+00 -1.6902448458229975e+00 7.3101728680909528e-01 -4.7408772878082350e-01 3.8212481471847243e-01 -1.6272426086869929e+00 1.2305449048905872e+00 
        </Neuron>
        <Neuron NSynapses="21">
          6.6469741569385754e-01 1.5889634073876033e+00 -1.1306240457326502e+00 1.0765214249323394e+00 5.3670746377579392e-01 1.1117553485313749e+00 -8.3196360336653041e-01 -1.5766467613584387e+00 -1.4815749944429446e+00 7.0660986173834062e-01 1.0434790694903917e+00 6.8072977614034946e-01 8.6795109706931228e-01 3.3694070496653011e-01 -3.7040594952428879e-01 1.1925265466738688e+00 5.3562568886059825e-01 -1.8658056877855784e+00 8.7968205514546349e-01 1.2147635673941830e+00 1.9247305082359796e+00 
        </Neuron>
        <Neuron NSynapses="21">
          1.0861822889475414e+00 -1.0080813053487474e+00 -9.4129027716679181e-01 -9.6189675667612295e-01 -7.6506441940212377e-01 -1.2526100472858750e+00 7.0060955449243978e-01 8.9864961918125419e-01 -7.0490903046582243e-01 8.3112313741418742e-01 1.4021832312988547e+00 -3.7217655391224658e-01 -2.2520906407522315e-01 3.7638936940431206e-01 1.1473942188268051e+00 -1.8469401063107311e+00 1.4128559603666568e+00 -7.2069986848652706e-02 -9.9644065096094181e-01 1.7943682217632877e+00 -1.4274341373131494e+00 
        </Neuron>
      </Layer>
      <Layer Index="2" NNeurons="22">
        <Neuron NSynapses="9">
          -6.4447952970191080e-01 1.5215858645487514e+00 4.2742526796663027e-01 2.0992031170100367e-01 1.6857871095840068e-01 1.9042783259425089e+00 2.0497245930771686e+00 9.2541008029670435e-01 -1.1923966412505689e+00 
        </Neuron>
        <Neuron NSynapses="9">
          1.7761108847363343e+00 1.9206826771625856e+00 -4.7556833431110904e-02 6.5275180625189766e-01 -1.1923506292637298e-02 1.2496803324645280e+00 -1.5911616067379435e+00 -2.9315616961289426e-01 -6.2193212438679479e-01 
        </Neuron>
        <Neuron NSynapses="9">
          1.8425309436141013e+00 -1.8589148428433169e+00 -1.3229238637300866e-01 -1.3384287695049917e+00 3.3016241882752495e-01 1.0013830671422981e+00 1.5463816151296317e+00 -2.5743388601179449e+00 -7.0999424805956568e-01 
        </Neuron>
        <Neuron NSynapses="9">
          -5.2785528805050308e-01 8.1785791041818723e-01 1.3031073798546062e+00 1.1081643465521203e+00 4.8170362480320605e-01 -8.2958084497416970e-02 8.9782690540974641e-01 8.6378452657126029e-02 -1.2376952091074316e+00 
        </Neuron>
        <Neuron NSynapses="9">
          1.2717161560207908e+00 -6.2407029678342485e-01 -1.3966343991405458e-01 7.7767165078649048e-01 -1.1858183075517359e+00 1.9789321231618819e+00 -2.6714146727825780e-02 -2.7190795234991278e+00 -8.9739803213239133e-01 
        </Neuron>
        <Neuron NSynapses="9">
          -9.7258624686498929e-01 -1.1305399157933840e+00 -9.1608325852856620e-01 5.1224002162649485e-01 1.0059720865724491e+00 1.6859704556703163e+00 -1.3064473537959828e-01 -1.0048213198503140e+00 -1.7691466572964492e+00 
        </Neuron>
        <Neuron NSynapses="9">
          1.5089977625741486e+00 -3.5875305004765429e-01 -1.4330710481358633e-01 -1.1905880794807995e+00 9.7148164792076064e-01 1.2318375049141146e+00 -4.9062119391249226e-01 -5.1635331034935283e-01 -6.0602702400986301e-02 
        </Neuron>
        <Neuron NSynapses="9">
          -1.7237582348003928e+00 -1.5072015294945833e+00 4.4272546830689996e-01 -1.9243361392530578e+00 1.1535755139050599e+00 -1.2991100553307375e+00 -4.2667997027972676e-01 3.3830557500976566e-01 9.9198597897509477e-01 
        </Neuron>
        <Neuron NSynapses="9">
          1.2101552670456521e+00 -3.4856822992780417e-01 1.9618795341479851e+00 -2.6632842096341808e-03 -1.4901465559192215e+00 1.8279561291600119e+00 1.2904668507529207e+00 1.8872684414898406e+00 -9.3990973301144221e-01 
        </Neuron>
        <Neuron NSynapses="9">
          -1.7966298728089636e+00 4.4774601851793217e-02 4.5949745311110063e-01 -1.2629693827379034e+00 -4.7125402579820075e-01 -4.9832345382049281e-01 1.7438003881128039e+00 -2.1123858663502357e+00 -1.1136772218845832e+00 
        </Neuron>
        <Neuron NSynapses="9">
          1.7060811807227347e-01 -1.3309265324812856e+00 1.2478072382235017e+00 -1.8722971435482447e+00 -2.9432963452450028e-01 -3.0155499861049867e-01 -4.3052981080787714e-02 -8.6719420819471960e-01 1.2923419429627367e+00 
        </Neuron>
        <Neuron NSynapses="9">
          8.6423016969102973e-01 -1.9516401990319423e+00 1.2944151006843798e+00 -4.7120408832281735e-01 5.7281178776617259e-01 -1.5539495305459136e-01 1.1902876439065369e+00 3.4784605752031716e-01 -6.0139395835208576e-01 
        </Neuron>
        <Neuron NSynapses="9">
          1.7562181406791018e+00 1.2767564191219976e+00 -9.0081476984806508e-01 -1.9067318710295852e-01 1.3913851723702255e+00 1.3086686815278872e+00 7.2225779963539027e-01 5.2718482190140947e-01 -1.9420659529788598e+00 
        </Neuron>
        <Neuron NSynapses="9">
          -1.4712318177579284e+00 7.4907736240282785e-01 -1.7744611828399297e+00 4.7928169632954204e-01 -2.1204789816037866e+00 7.2872469522386796e-01 -1.7143911973285453e+00 -4.2468739781400033e-01 -1.7862445520553555e-01 
        </Neuron>
        <Neuron NSynapses="9">
          4.1568039583362076e-01 -1.9226680339520135e+00 -7.3254208669380194e-01 -1.9566637791584618e+00 1.4741577188862303e+00 1.0612117775308323e+00 2.1616140925894851e+00 -6.8936856825415826e-01 -4.5681164441966554e-01 
        </Neuron>
        <Neuron NSynapses="9">
          9.8817333408422303e-01 1.3315205654174642e+00 -1.8905607103486860e-01 1.9247142277560654e+00 -1.7332955834955566e-01 3.4293350337896733e-01 -7.6433317131646777e-02 6.8514155527232501e-01 -1.0533938051839288e-01 
        </Neuron>
        <Neuron NSynapses="9">
          -1.7565149861616007e+00 1.1423768164323211e+00 1.6412082512415189e+00 -4.6378409660231007e-01 8.5781614393806582e-01 1.6389902239693290e+00 1.8850299301585911e+00 -1.6966603508729861e+00 5.6947994799796631e-01 
        </Neuron>
        <Neuron NSynapses="9">
          1.1920404589903424e+00 -2.1157866219566905e+00 -1.3927952413190223e+00 6.5374200732466115e-01 5.8277769740005025e-01 7.8116063757690979e-01 -1.9593097496214595e+00 3.5390243671730265e-01 1.4497013188919641e-01 
        </Neuron>
        <Neuron NSynapses="9">
          -1.0986825304399841e+00 -1.9712239670993963e+00 -2.5829650013469219e-01 1.5944132419049961e+00 1.0914730977350309e+00 1.5896767154578102e+00 1.8207159399116997e+00 2.5162337860359258e+00 1.2947961649436213e-01 
        </Neuron>
        <Neuron NSynapses="9">
          1.6777734843537906e+00 4.0675547679720792e-01 -1.4578259672427070e+00 -1.5869010645401436e+00 -1.2640451490418521e+00 4.6777085810930136e-01 -1.1055776079992456e+00 1.4502377172940328e+00 5.0024057688690282e-01 
        </Neuron>
        <Neuron NSynapses="9">
          7.8051031674956650e-01 1.2000715569201248e+00 3.8340640099280218e-02 1.9733963552049352e+00 7.0434013233936144e-01 8.5786852595862406e-01 1.4232024990027106e+00 9.4112413341264300e-01 -9.2232784503238663e-01 
        </Neuron>
        <Neuron NSynapses="9">
          1.7594793688502726e+00 1.6211613771483981e+00 -5.7195866574824727e-01 2.2554473613682985e-01 -1.3591231253453115e+00 5.9799495825195537e-01 -1.0884071557899988e+00 -3.0851948773105076e-01 -1.5274610227395644e+00 
        </Neuron>
      </Layer>
      <Layer Index="3" NNeurons="10">
        <Neuron NSynapses="1">
          7.1712273846715624e-01 
        </Neuron>
        <Neuron NSynapses="1">
          -1.0266769353885696e+00 
        </Neuron>
        <Neuron NSynapses="1">
          1.1646270395219669e+00 
        </Neuron>
        <Neuron NSynapses="1">
          -1.3523715268933323e+00 
        </Neuron>
        <Neuron NSynapses="1">
          6.6205172540454638e-01 
        </Neuron>
        <Neuron NSynapses="1">
          -1.4406859540743318e+00 
        </Neuron>
        <Neuron NSynapses="1">
          1.1046502882704528e+00 
        </Neuron>
        <Neuron NSynapses="1">
          4.4889961147279580e+00 
        </Neuron>
        <Neuron NSynapses="1">
          3.2242294133000488e-01 
        </Neuron>
        <Neuron NSynapses="1">
          -1.2902798227666576e+00 
        </Neuron>
      </Layer>
      <Layer Index="4" NNeurons="1">
        <Neuron NSynapses="0"/>
      </Layer>
    </Layout>
  </Weights>
</MethodSetup>
