<?xml version="1.0"?>
<MethodSetup Method="MLP::MLP_k_inf">
  <GeneralInfo>
    <Info name="TMVA Release" value="4.2.1 [262657]"/>
    <Info name="ROOT Release" value="6.06/02 [394754]"/>
    <Info name="Creator" value="mouginot"/>
    <Info name="Date" value="Thu Jul 13 17:26:14 2017"/>
    <Info name="Host" value="Linux kermit 4.4.0-71-generic #92-Ubuntu SMP Fri Mar 24 12:59:01 UTC 2017 x86_64 x86_64 x86_64 GNU/Linux"/>
    <Info name="Dir" value="/home/mouginot/work/MODEL/MODEL_DATA/MOX_TRU_MODELS/PWR_TRU/EQM_10"/>
    <Info name="Training events" value="400"/>
    <Info name="TrainingTime" value="7.52095270e+01"/>
    <Info name="AnalysisType" value="Regression"/>
  </GeneralInfo>
  <Options>
    <Option name="NCycles" modified="Yes">160000</Option>
    <Option name="HiddenLayers" modified="Yes">18,21,9</Option>
    <Option name="NeuronType" modified="Yes">sigmoid</Option>
    <Option name="RandomSeed" modified="No">1</Option>
    <Option name="EstimatorType" modified="No">MSE</Option>
    <Option name="NeuronInputType" modified="No">sum</Option>
    <Option name="V" modified="Yes">True</Option>
    <Option name="VerbosityLevel" modified="No">Verbose</Option>
    <Option name="VarTransform" modified="Yes">Norm</Option>
    <Option name="H" modified="Yes">False</Option>
    <Option name="CreateMVAPdfs" modified="No">False</Option>
    <Option name="IgnoreNegWeightsInTraining" modified="No">False</Option>
    <Option name="TrainingMethod" modified="Yes">BFGS</Option>
    <Option name="LearningRate" modified="Yes">1.000000e-01</Option>
    <Option name="DecayRate" modified="No">1.000000e-02</Option>
    <Option name="TestRate" modified="Yes">6</Option>
    <Option name="EpochMonitoring" modified="No">False</Option>
    <Option name="Sampling" modified="Yes">5.000000e-01</Option>
    <Option name="SamplingEpoch" modified="Yes">1.000000e-01</Option>
    <Option name="SamplingImportance" modified="No">1.000000e+00</Option>
    <Option name="SamplingTraining" modified="No">True</Option>
    <Option name="SamplingTesting" modified="No">False</Option>
    <Option name="ResetStep" modified="No">50</Option>
    <Option name="Tau" modified="No">3.000000e+00</Option>
    <Option name="BPMode" modified="No">sequential</Option>
    <Option name="BatchSize" modified="No">-1</Option>
    <Option name="ConvergenceImprove" modified="Yes">1.000000e-06</Option>
    <Option name="ConvergenceTests" modified="Yes">15</Option>
    <Option name="UseRegulator" modified="Yes">False</Option>
    <Option name="UpdateLimit" modified="No">10000</Option>
    <Option name="CalculateErrors" modified="No">False</Option>
    <Option name="WeightRange" modified="No">1.000000e+00</Option>
  </Options>
  <Variables NVar="17">
    <Variable VarIndex="0" Expression="235U" Label="235U" Title="235U" Unit="IsotopicFraction" Internal="235U" Type="F" Min="7.50372070e-04" Max="1.74395740e-02"/>
    <Variable VarIndex="1" Expression="238U" Label="238U" Title="238U" Unit="IsotopicFraction" Internal="238U" Type="F" Min="7.97709286e-01" Max="9.44408298e-01"/>
    <Variable VarIndex="2" Expression="237Np" Label="237Np" Title="237Np" Unit="IsotopicFraction" Internal="237Np" Type="F" Min="1.43288207e-06" Max="9.93975264e-05"/>
    <Variable VarIndex="3" Expression="238Pu" Label="238Pu" Title="238Pu" Unit="IsotopicFraction" Internal="238Pu" Type="F" Min="2.03323172e-04" Max="2.53091496e-03"/>
    <Variable VarIndex="4" Expression="239Pu" Label="239Pu" Title="239Pu" Unit="IsotopicFraction" Internal="239Pu" Type="F" Min="4.13255468e-02" Max="1.68502972e-01"/>
    <Variable VarIndex="5" Expression="240Pu" Label="240Pu" Title="240Pu" Unit="IsotopicFraction" Internal="240Pu" Type="F" Min="1.66836276e-03" Max="2.75085643e-02"/>
    <Variable VarIndex="6" Expression="241Pu" Label="241Pu" Title="241Pu" Unit="IsotopicFraction" Internal="241Pu" Type="F" Min="4.37216886e-06" Max="3.91485076e-03"/>
    <Variable VarIndex="7" Expression="242Pu" Label="242Pu" Title="242Pu" Unit="IsotopicFraction" Internal="242Pu" Type="F" Min="4.49798536e-05" Max="1.62482192e-03"/>
    <Variable VarIndex="8" Expression="241Am" Label="241Am" Title="241Am" Unit="IsotopicFraction" Internal="241Am" Type="F" Min="5.33076272e-05" Max="3.00545711e-03"/>
    <Variable VarIndex="9" Expression="242Amm" Label="242Amm" Title="242Amm" Unit="IsotopicFraction" Internal="242Amm" Type="F" Min="3.12370015e-04" Max="8.82570632e-03"/>
    <Variable VarIndex="10" Expression="243Am" Label="243Am" Title="243Am" Unit="IsotopicFraction" Internal="243Am" Type="F" Min="4.09292049e-08" Max="1.66711543e-04"/>
    <Variable VarIndex="11" Expression="242Cm" Label="242Cm" Title="242Cm" Unit="IsotopicFraction" Internal="242Cm" Type="F" Min="5.66110032e-07" Max="1.07759071e-04"/>
    <Variable VarIndex="12" Expression="243Cm" Label="243Cm" Title="243Cm" Unit="IsotopicFraction" Internal="243Cm" Type="F" Min="1.16539177e-05" Max="1.45540078e-04"/>
    <Variable VarIndex="13" Expression="244Cm" Label="244Cm" Title="244Cm" Unit="IsotopicFraction" Internal="244Cm" Type="F" Min="3.70342991e-06" Max="1.52528228e-04"/>
    <Variable VarIndex="14" Expression="245Cm" Label="245Cm" Title="245Cm" Unit="IsotopicFraction" Internal="245Cm" Type="F" Min="7.27667884e-06" Max="1.02195962e-04"/>
    <Variable VarIndex="15" Expression="246Cm" Label="246Cm" Title="246Cm" Unit="IsotopicFraction" Internal="246Cm" Type="F" Min="8.97252846e-07" Max="1.50454798e-04"/>
    <Variable VarIndex="16" Expression="Time" Label="Time" Title="Time" Unit="seconds" Internal="Time" Type="F" Min="0.00000000e+00" Max="1.89328320e+08"/>
  </Variables>
  <Spectators NSpec="0"/>
  <Classes NClass="1">
    <Class Name="Regression" Index="0"/>
  </Classes>
  <Targets NTrgt="1">
    <Target TargetIndex="0" Expression="k_inf" Label="k_inf" Title="k_inf" Unit="" Internal="k_inf" Type="F" Min="8.51915002e-01" Max="1.61748004e+00"/>
  </Targets>
  <Transformations NTransformations="1">
    <Transform Name="Normalize">
      <Selection>
        <Input NInputs="18">
          <Input Type="Variable" Label="235U" Expression="235U"/>
          <Input Type="Variable" Label="238U" Expression="238U"/>
          <Input Type="Variable" Label="237Np" Expression="237Np"/>
          <Input Type="Variable" Label="238Pu" Expression="238Pu"/>
          <Input Type="Variable" Label="239Pu" Expression="239Pu"/>
          <Input Type="Variable" Label="240Pu" Expression="240Pu"/>
          <Input Type="Variable" Label="241Pu" Expression="241Pu"/>
          <Input Type="Variable" Label="242Pu" Expression="242Pu"/>
          <Input Type="Variable" Label="241Am" Expression="241Am"/>
          <Input Type="Variable" Label="242Amm" Expression="242Amm"/>
          <Input Type="Variable" Label="243Am" Expression="243Am"/>
          <Input Type="Variable" Label="242Cm" Expression="242Cm"/>
          <Input Type="Variable" Label="243Cm" Expression="243Cm"/>
          <Input Type="Variable" Label="244Cm" Expression="244Cm"/>
          <Input Type="Variable" Label="245Cm" Expression="245Cm"/>
          <Input Type="Variable" Label="246Cm" Expression="246Cm"/>
          <Input Type="Variable" Label="Time" Expression="Time"/>
          <Input Type="Target" Label="k_inf" Expression="k_inf"/>
        </Input>
        <Output NOutputs="18">
          <Output Type="Variable" Label="235U" Expression="235U"/>
          <Output Type="Variable" Label="238U" Expression="238U"/>
          <Output Type="Variable" Label="237Np" Expression="237Np"/>
          <Output Type="Variable" Label="238Pu" Expression="238Pu"/>
          <Output Type="Variable" Label="239Pu" Expression="239Pu"/>
          <Output Type="Variable" Label="240Pu" Expression="240Pu"/>
          <Output Type="Variable" Label="241Pu" Expression="241Pu"/>
          <Output Type="Variable" Label="242Pu" Expression="242Pu"/>
          <Output Type="Variable" Label="241Am" Expression="241Am"/>
          <Output Type="Variable" Label="242Amm" Expression="242Amm"/>
          <Output Type="Variable" Label="243Am" Expression="243Am"/>
          <Output Type="Variable" Label="242Cm" Expression="242Cm"/>
          <Output Type="Variable" Label="243Cm" Expression="243Cm"/>
          <Output Type="Variable" Label="244Cm" Expression="244Cm"/>
          <Output Type="Variable" Label="245Cm" Expression="245Cm"/>
          <Output Type="Variable" Label="246Cm" Expression="246Cm"/>
          <Output Type="Variable" Label="Time" Expression="Time"/>
          <Output Type="Target" Label="k_inf" Expression="k_inf"/>
        </Output>
      </Selection>
      <Class ClassIndex="0">
        <Ranges>
          <Range Index="0" Min="7.5037206988781691e-04" Max="1.7439574003219604e-02"/>
          <Range Index="1" Min="7.9770928621292114e-01" Max="9.4440829753875732e-01"/>
          <Range Index="2" Min="1.4328820725495461e-06" Max="9.9397526355460286e-05"/>
          <Range Index="3" Min="2.0332317217253149e-04" Max="2.5309149641543627e-03"/>
          <Range Index="4" Min="4.1325546801090240e-02" Max="1.6850297152996063e-01"/>
          <Range Index="5" Min="1.6683627618476748e-03" Max="2.7508564293384552e-02"/>
          <Range Index="6" Min="4.3721688598452602e-06" Max="3.9148507639765739e-03"/>
          <Range Index="7" Min="4.4979853555560112e-05" Max="1.6248219180852175e-03"/>
          <Range Index="8" Min="5.3307627240428701e-05" Max="3.0054571107029915e-03"/>
          <Range Index="9" Min="3.1237001530826092e-04" Max="8.8257063180208206e-03"/>
          <Range Index="10" Min="4.0929204914164075e-08" Max="1.6671154298819602e-04"/>
          <Range Index="11" Min="5.6611003174111829e-07" Max="1.0775907139759511e-04"/>
          <Range Index="12" Min="1.1653917681542225e-05" Max="1.4554007793776691e-04"/>
          <Range Index="13" Min="3.7034299111837754e-06" Max="1.5252822777256370e-04"/>
          <Range Index="14" Min="7.2766788434819318e-06" Max="1.0219596151728183e-04"/>
          <Range Index="15" Min="8.9725284624364576e-07" Max="1.5045479813124985e-04"/>
          <Range Index="16" Min="0.0000000000000000e+00" Max="1.8932832000000000e+08"/>
          <Range Index="17" Min="8.5191500186920166e-01" Max="1.6174800395965576e+00"/>
        </Ranges>
      </Class>
    </Transform>
  </Transformations>
  <MVAPdfs/>
  <Weights>
    <Layout NLayers="5">
      <Layer Index="0" NNeurons="18">
        <Neuron NSynapses="18">
          -8.4965993668393158e-01 1.9015807227953032e+00 7.5105129881061683e-01 1.6584021073278568e+00 -1.8769059621417614e+00 -1.6164219666160302e+00 -5.2792637625312899e-01 1.5208185848316287e+00 -1.1155121766167413e+00 -1.1182231016789437e+00 -1.8020010508908326e+00 -6.0947502136756970e-01 -1.1760192216017935e+00 -4.0688401785493006e-01 -7.1226855500411490e-01 8.9392260500122878e-01 -3.4732915741336789e-01 1.7072409005475355e+00 
        </Neuron>
        <Neuron NSynapses="18">
          7.1993932321878354e-02 1.3454295051390615e+00 -1.4339735947438587e-01 -7.1450138675365171e-01 7.8493603528258160e-01 4.5558699882160769e-02 -1.2254468543881745e+00 -1.9942491531447441e-02 1.4549092944892921e+00 -9.6053907565887653e-01 -1.9552719788166268e+00 -1.1982439648112518e-02 6.7215814140799257e-01 1.7381575012045962e+00 -5.0140164589958913e-01 -2.5575173408786622e-01 1.9739001459103789e-01 -2.9220418154641181e-01 
        </Neuron>
        <Neuron NSynapses="18">
          -1.5010575385126839e+00 1.8139042901480864e+00 -1.1416299768125262e+00 1.0971295683824882e+00 1.1675815972439487e+00 9.2847161508881415e-01 1.9233374170072859e+00 1.0103454646892154e+00 -5.8991456613207660e-01 -1.6999263420406499e+00 8.3338325596565710e-01 -7.1024888320244273e-03 1.5398440739960213e+00 1.3820049441598581e+00 1.5606123371763758e+00 1.4099304042466465e+00 -1.6223832362205790e+00 1.3606861899786948e+00 
        </Neuron>
        <Neuron NSynapses="18">
          -1.3779866742598104e+00 -9.5700378728392144e-01 -1.4365958121636768e+00 -1.8616951416309344e+00 1.4585424549066468e+00 8.7942780483803251e-01 -1.8190805614535350e+00 3.6527966793784750e-01 -4.6443262470406782e-01 6.5225905358589376e-01 2.0719773331713727e+00 3.3519425998884786e-02 1.4409652231215243e-02 -1.2962654554548496e+00 6.1733992230062751e-01 -9.4460519548540467e-01 -7.4180398690828375e-01 -1.4701817835755138e+00 
        </Neuron>
        <Neuron NSynapses="18">
          8.5686760051128630e-01 1.2139622708083584e+00 1.2506588757188710e+00 -3.7648195847960647e-01 -1.9419722898555256e+00 -1.8281677963866172e+00 1.0601904112109994e+00 3.5471773844409521e-01 1.9566023283420282e+00 5.1524853245559232e-01 1.0611630640707295e+00 -6.5718828794100992e-01 -8.8234476845171639e-01 -2.8703940571704667e-01 1.3509822570177603e+00 -9.9673047885837229e-01 -1.5777578394909249e+00 -1.6663842379703284e+00 
        </Neuron>
        <Neuron NSynapses="18">
          2.8359244373836023e-01 -1.7575619798793490e-01 1.6188401923767715e+00 -1.6282808050445567e+00 -1.0213657233320481e+00 1.6276704923662704e+00 -8.8538188230327308e-01 -1.3362441405022647e+00 -1.3949450988740926e+00 7.6845286124518478e-02 -1.8176217661359908e+00 -1.2626162248683102e+00 5.9624481557556541e-01 1.6529365367820894e+00 -1.3045360165865219e+00 1.5098453404990670e+00 -8.9079164081764572e-01 -8.2606799163188604e-01 
        </Neuron>
        <Neuron NSynapses="18">
          1.6537367202238010e-01 4.1719601722380745e-01 -1.5967268833890016e+00 2.7639219950254346e-01 4.0247132409624009e-01 1.7272384948397926e-01 -1.2521679251680558e+00 2.0428994643918466e+00 1.4030472526455826e-01 -9.7247156910033339e-01 5.9054764740399590e-01 -7.9261790302745427e-01 -1.6982840515165747e+00 2.5716722663953856e-01 -2.8428961863597352e-01 1.8515769077133046e+00 6.7880617316594227e-01 2.2179417206917115e-02 
        </Neuron>
        <Neuron NSynapses="18">
          -2.3910835644283099e-01 2.1559098631324672e-01 -1.7605562416361291e+00 1.0376995099686555e+00 2.2330424464799183e-03 -1.9267924652096344e+00 7.6850193248122467e-01 -1.4814652471437573e+00 9.3712031197635808e-03 1.0348001443974904e+00 1.7730378376710068e+00 -1.5905685226828199e+00 2.8644984301998094e-01 1.5026401028702130e+00 1.6010539267873369e+00 3.6818140894844825e-01 -1.4625665774249283e+00 -1.7668534724762466e-01 
        </Neuron>
        <Neuron NSynapses="18">
          -1.4111391742885764e+00 1.6323058659628156e+00 1.3402919730210421e+00 -4.8764007497499945e-01 -4.9910891554751413e-01 -1.3897937498763363e-01 -1.1712118167005763e+00 7.1387801748456792e-01 1.5098413393945853e+00 -6.3979863384162305e-01 -7.6207231137015097e-01 6.0110971659679435e-01 9.2068484003674023e-01 6.0401994099097134e-01 9.0944819958243783e-01 -1.2573274123139511e+00 1.4543470045317759e+00 7.9568020061366274e-01 
        </Neuron>
        <Neuron NSynapses="18">
          5.6613970727301965e-01 4.9461114509089421e-01 7.6697535978853770e-01 -6.1481988487675820e-01 -6.3191998871335553e-01 1.0247513899891467e+00 -7.9402527415986757e-01 -6.7363806823091799e-01 1.6596546661175613e+00 8.9487857810322835e-01 -2.2581560989962893e-01 1.8249571371208326e+00 1.8176972995100973e+00 -2.0004711727368072e+00 6.1576233074826503e-01 1.0793426038206043e-01 5.3794732484487584e-01 -1.7446379416171658e+00 
        </Neuron>
        <Neuron NSynapses="18">
          -1.2781318632212826e+00 1.2625193305081590e+00 1.8301939319564002e+00 -1.7713518186956596e+00 -3.4717592120402541e-01 -5.2655620662411173e-01 2.5663731169936926e-01 1.8494030844094369e+00 -5.5307273460375694e-01 -5.9190790339191091e-01 -8.8827710011416983e-01 1.3054304315146985e+00 1.5534688062828714e+00 1.0105751185299829e+00 4.3702925286398769e-01 -6.5686604854262642e-01 -2.0330499098028203e+00 1.1384386884595143e+00 
        </Neuron>
        <Neuron NSynapses="18">
          6.4250899994244848e-01 -1.3559709580859083e+00 -8.1713437868297123e-01 2.4567736439841750e-01 2.4054739389174306e-02 -1.8738007528042762e+00 1.3920210611142034e+00 7.9668288646201024e-01 -8.0853245343383895e-01 -1.6787654439737387e-01 1.6501949264632367e+00 1.2255341250146481e+00 4.5908274712103625e-01 -1.0683792706287816e-01 -1.7936294645830373e+00 -9.3893327099592871e-01 1.6860927664612448e+00 1.3009625317426954e+00 
        </Neuron>
        <Neuron NSynapses="18">
          6.1305989851532061e-01 2.6199196337973074e-01 1.9620941256637869e+00 -1.6360172416501184e+00 -1.2305506438155578e+00 -3.3134706534860542e-01 -1.0242495836591161e+00 1.1439751908447524e+00 1.8656945722795040e+00 -1.3865881826555009e+00 6.2653640735519767e-01 -1.5622343292779167e-01 -1.7003189424020495e+00 -9.4341061973079288e-01 1.4520702367789862e+00 2.6952667826598514e-01 1.0397349374762541e+00 -1.1175230156281655e+00 
        </Neuron>
        <Neuron NSynapses="18">
          2.0400910479081817e+00 -1.5927619819286225e+00 1.0977204277333137e+00 5.2100851803931814e-02 -1.4110390458732180e+00 -1.1986949307474135e+00 -2.0244504508503161e+00 -4.8186929531810885e-01 -2.0054281035974482e+00 -1.6004858331105960e+00 -1.7307547345777610e+00 1.3113738144766846e-01 -1.0620392758465345e+00 -1.7342544744552584e+00 1.5012185805604452e+00 -8.7515368762095458e-01 8.9789663401854597e-02 -9.4865711942990838e-01 
        </Neuron>
        <Neuron NSynapses="18">
          3.3156138298840443e-01 1.8453740135473540e+00 1.3391611554983260e+00 -9.0269983346800142e-01 -1.5979785764749124e+00 -1.1911836486459793e+00 -8.1117318176800479e-01 -1.8675466936971841e+00 5.0177366763067144e-01 2.5143819770385095e-01 1.6705807217399378e+00 -1.0946912377162725e-01 2.1353054800104621e-01 -5.1854330084747924e-01 -2.0894397186759690e+00 1.1614062353675303e+00 1.2599535304158511e+00 -8.4976494626876098e-01 
        </Neuron>
        <Neuron NSynapses="18">
          -9.2951806459348563e-01 8.8245189221770914e-01 1.1048939528996891e+00 4.2533151622323584e-01 -6.1239755313198607e-01 -1.9712018671722209e-01 1.5077710129211339e+00 9.0224518889106931e-01 1.0078365372741094e+00 -4.7321774698199542e-01 2.3870604552221492e-01 -9.2970229842790589e-02 -1.4629176456082074e+00 -5.4901581539303579e-01 -1.6280051472568997e+00 -1.2990868978726724e+00 -1.4519170256451326e+00 1.7398534892746069e+00 
        </Neuron>
        <Neuron NSynapses="18">
          -1.9127498874224169e+00 1.5455964554498500e+00 -2.0042853313430395e+00 1.2682611931943288e+00 -9.7999500647217264e-01 4.0434122349631779e-01 1.1665618716142188e+00 -1.7064953447953550e+00 8.3408040656353780e-02 1.0113790266518781e+00 -1.8176158148979242e+00 -1.7710250953859470e+00 -1.7387728340602584e+00 -1.0061004801386471e+00 1.8082570322344997e+00 -6.9583734378771556e-01 2.5089765001750145e-02 -5.0755309907370194e-01 
        </Neuron>
        <Neuron NSynapses="18">
          -1.6105232169237964e+00 -1.7677135156398962e+00 -1.5435580978159635e+00 -1.3600976780788141e+00 9.2496104614527019e-01 -1.0193814441300790e+00 -1.5356838994686128e+00 1.3058523427165347e+00 4.3975748053201769e-01 -4.3261802398726062e-01 1.9338324088755783e+00 -2.2900106177108261e+00 1.6334048243218140e+00 8.0708095369569366e-01 -7.4272131164008370e-01 -1.0170029307369690e+00 8.0726045877253155e-02 -1.2649582743112586e+00 
        </Neuron>
      </Layer>
      <Layer Index="1" NNeurons="19">
        <Neuron NSynapses="21">
          4.1845408710429666e-01 1.7602984671236939e+00 1.2878361723013918e+00 1.5415933612706185e+00 -1.4487293406579813e+00 9.2324124457591417e-01 -1.8681981696608292e+00 7.3507281073997699e-01 -1.8230333536005552e+00 -2.1019607825793822e+00 5.1755442885713571e-02 1.1412582733820860e+00 4.9414006222397855e-01 8.6483344418284047e-01 2.7873585946206170e-01 -1.9977524479028058e-01 -1.0367275287068725e+00 1.3102367204596996e-01 1.9414210397573479e+00 -1.6317923998304025e+00 3.4243868670773236e-01 
        </Neuron>
        <Neuron NSynapses="21">
          -1.4244993450354821e+00 -5.7729467339950147e-01 8.5399695042946949e-02 2.0031217353240385e-01 -1.0673805713022604e+00 1.0084155085846609e+00 1.7069220645757266e+00 7.2616633349029702e-01 -9.0468876240491339e-02 -8.5199917945339942e-01 -1.4146253165257581e+00 -1.5875545172124275e+00 1.0145445174387799e+00 -6.9336550853505186e-01 -1.1469185668618957e+00 5.1422241594676732e-01 -1.7071617223192375e+00 -1.1574671200151549e+00 -1.6759962347330131e+00 8.8566196048099810e-01 -1.3279350099161056e+00 
        </Neuron>
        <Neuron NSynapses="21">
          -1.7547982206657879e+00 -5.6475556718315922e-01 -1.1358715858208610e+00 -1.6036130022958308e+00 1.2827910289157118e+00 -1.4127128157374866e+00 -1.2406809580503622e+00 1.6568736138155720e+00 8.8945967001892712e-01 4.9653358508431687e-02 -3.3961405829617784e-02 1.3716983864550887e+00 1.8068613665824980e+00 2.5260279519560536e-01 -9.4701902125421278e-01 -7.0426278363986405e-01 -1.8232520932892013e+00 8.9752922491997889e-01 8.9164512305128629e-01 5.1106595177437481e-03 1.1976023341271727e+00 
        </Neuron>
        <Neuron NSynapses="21">
          9.2168441677718616e-01 1.4418946355573823e+00 -1.3210347868684298e+00 1.5597124647722174e+00 1.0641315281537429e+00 -2.0029453236183965e+00 -2.1727209003005957e-01 -1.1412878727797608e+00 8.2764376528493411e-01 6.1788621750278450e-01 1.1669055282112384e+00 1.5668061239728639e+00 -5.4852184625987233e-01 1.9965187159367301e+00 1.7060463037487608e+00 2.1098746772557389e-01 -1.2951351616009528e+00 1.6790228198344075e+00 -1.8815134244243150e+00 5.8328490413081946e-01 1.7215718255743238e+00 
        </Neuron>
        <Neuron NSynapses="21">
          -3.7179593591862159e-01 -1.0656912603299780e+00 -2.2091708297621054e-01 -1.4796233624421173e+00 3.3297874032639235e-01 -2.0063671643487160e+00 1.3774707398036390e-01 2.3065263949191124e-02 1.7270482027334353e+00 9.7102395180880285e-01 1.5710411700329734e+00 -7.0885473616564953e-01 -3.8992204418247672e-01 3.9133026418203198e-01 1.8611184888146548e+00 -1.8843055487366767e+00 -1.6412892039752982e+00 -5.0824825199269619e-01 -1.2322062266315454e+00 -1.8773785760671653e+00 -1.3117140156740461e+00 
        </Neuron>
        <Neuron NSynapses="21">
          8.0912040264895102e-01 -1.7033174853402422e-01 -1.9651945175911800e+00 -1.9691590792189497e+00 -1.6016767175335653e-01 1.6648853804762960e+00 1.8528863101793158e+00 1.4581478791205709e+00 -8.9484561601028678e-01 -1.8880818131751358e+00 -1.0331438017511771e-01 -1.2584802801301815e+00 -1.5875128563027163e+00 -5.3075857440433272e-01 1.8609952154778370e-02 -1.4939392913447795e+00 1.3263802840751786e+00 1.3462556086258870e+00 3.2775661222673946e-01 -7.8114627163899708e-01 -8.2623224527864259e-01 
        </Neuron>
        <Neuron NSynapses="21">
          1.8076760481756853e+00 -7.3437853859734259e-01 3.5072508787008638e-01 1.4262601734337939e+00 1.6291002665772627e+00 -1.0423054868334285e+00 1.4336830089924737e+00 -1.9777935752128886e+00 1.5478815629103311e+00 1.8235185322651748e+00 -1.6276150497565051e-01 -5.4877940931834757e-01 1.7191924019201668e-01 -7.2880038908428268e-01 1.1985063066722539e+00 3.0077205932612050e-01 -9.2041158517187127e-01 -1.4782300799348567e+00 -9.9238962539276138e-02 1.5970278925614425e+00 5.4501778052922889e-01 
        </Neuron>
        <Neuron NSynapses="21">
          -8.1988100150632248e-01 -1.9916463131739428e+00 1.8257220268081287e+00 2.4647827972648612e-01 -8.9474074409595405e-01 -3.2230646507754601e-01 -8.4269752372050932e-01 1.2067818191192901e+00 1.5441557945943867e+00 -1.0470910511388223e+00 -9.7453181266934086e-01 1.2390178341203983e+00 1.3165762126699401e+00 4.2509124998361562e-02 1.7756128114074934e-01 -1.2827373855653754e+00 -1.4134393834096870e+00 1.2263906870878218e+00 2.9046667825040456e-01 4.6011492499207662e-01 -1.7463686726773762e+00 
        </Neuron>
        <Neuron NSynapses="21">
          -1.8085385700021603e+00 -1.9627855355739707e+00 -3.4252737730324606e-01 -1.8360981411790445e+00 9.9011857450383423e-01 -4.2467362893042981e-01 1.8344318808151252e+00 1.7372977653700297e-01 -1.7275907743319310e+00 1.2826201451691528e+00 1.8970478006275018e+00 9.2201352458259811e-01 -4.2205435921658835e-01 -1.0890161616722243e+00 1.8969800117459814e+00 -1.6732687412184815e+00 2.8254108845207604e-01 -1.2931957885008798e+00 1.1404715184948053e+00 -1.1649155397346804e+00 3.4019801234656544e-01 
        </Neuron>
        <Neuron NSynapses="21">
          -2.3365305098419853e-01 3.8809044822582062e-01 -5.6242425478836056e-01 -8.8230088856259381e-01 7.9461909010660070e-01 3.6181096590167594e-01 8.9126490613317144e-01 1.2244115327866314e+00 -1.8196302688624599e+00 1.3693692928830499e+00 -1.9153534456053611e+00 9.1244168750689914e-01 1.2440831088083812e+00 7.1921367219166255e-01 1.6086969255780290e+00 1.4465155351462040e+00 -2.1108729847644350e+00 -5.2953469093593442e-01 -9.4926404866398972e-01 4.4551729240150811e-01 -4.1318595505158984e-02 
        </Neuron>
        <Neuron NSynapses="21">
          -1.1252801050819017e-01 -6.3983847677568217e-01 -4.8915456576478406e-01 -1.0500341821539834e+00 -3.8938523859980978e-01 -1.8335710863487473e+00 -2.1888477582383850e-01 2.4054122328302063e-01 -7.8900612193267283e-01 -1.7688184211569922e+00 5.0695441532619678e-01 -1.6476649583332295e-01 -1.5144640685123198e-01 -1.5223773149691771e+00 1.8977491822371437e+00 -3.2571011862526578e-01 5.3397843764952335e-01 8.5492978557620236e-01 -1.4348078769623152e+00 -1.1020809400555671e+00 -2.3234271447049293e-01 
        </Neuron>
        <Neuron NSynapses="21">
          -2.0373050194664373e+00 -6.9525874833535151e-01 -1.2014402566597076e+00 1.1023365361565693e+00 -2.2040187151773161e+00 1.3892923130164496e+00 1.7188564489793923e+00 1.7668034642649024e+00 1.3223890224593342e+00 1.7440010896257224e-01 5.2071475757256604e-02 -7.2706646744426628e-01 -1.8071941566440408e+00 -1.4838401613586676e+00 -8.0090350784851672e-01 1.4025551590570775e+00 -1.4511368413560086e-01 7.1132687232685177e-02 1.6518646570402185e+00 1.3180463451913538e+00 -1.1574694325080299e+00 
        </Neuron>
        <Neuron NSynapses="21">
          3.7025736500830791e-01 -1.8563936553020413e+00 9.8071334036480540e-01 -1.9471648994769859e+00 6.4512901633080773e-03 -3.0402601105922733e-01 1.1630131981590097e+00 -1.7628234465987607e+00 2.6484822816585846e-01 -1.8447936760062544e+00 -7.9275089056375592e-02 1.2072991747295063e+00 -6.4565901090000366e-01 2.2966760007776330e-01 -1.7187886614172052e+00 1.0699521623608885e+00 -6.9522978810545644e-01 8.3830027918962802e-01 -1.4966911584433600e+00 -1.1890941143189726e+00 2.0969485790517606e+00 
        </Neuron>
        <Neuron NSynapses="21">
          -1.8286715671568397e+00 -1.4780922111832246e+00 -7.8945442216123007e-01 1.0735122269824497e+00 1.5761310581798005e+00 1.3983999048252687e+00 -1.6520753581384560e+00 6.7884443476019973e-01 5.0171936727096778e-01 2.7916718197758483e-01 -1.1448625191986614e+00 -1.6778616718571042e+00 -4.7269308367326505e-02 -9.7667553082939257e-02 1.6216335776963713e+00 -6.4014342875777130e-01 -2.9661040235051261e-01 -1.1115235716810228e+00 1.5700927122755499e+00 3.0992545777291935e-01 1.4215240465204000e+00 
        </Neuron>
        <Neuron NSynapses="21">
          -7.6598365228498477e-01 -1.4361547020865884e+00 1.7909877323013026e+00 1.3916511476193025e-01 1.7601513661512871e+00 -1.1017058880308139e-01 -7.9941202704140257e-01 -1.2919379419691246e+00 -1.7060821716772301e+00 -1.9899088496748893e-01 -1.1714872913775405e+00 -2.0817710781434112e-01 4.2346123464957024e-02 -5.1201434344017160e-01 9.1606113393076327e-01 -1.9676600304506444e+00 -1.1731705940653583e+00 1.3618572442964305e-01 -1.2700762172762128e+00 7.2436074661278849e-01 1.3968909360754413e+00 
        </Neuron>
        <Neuron NSynapses="21">
          -1.8094497923858659e+00 -5.7825233173510326e-01 -1.3669510919331960e+00 4.2875264072696884e-01 4.4679004831635200e-01 -1.1816998905801115e+00 -7.1467293157450262e-01 -1.4133590387941291e+00 1.5325638738386806e+00 1.7782057772882476e-01 1.2141581354340956e+00 8.6729189250058125e-02 -1.2125966455364459e+00 -1.3782030763491151e+00 -1.1935782140860409e+00 4.7273715010881978e-01 5.4925107576853505e-01 2.1148757845821434e-01 -1.1800779763337799e+00 5.3941113717054590e-01 4.0676447541015008e-02 
        </Neuron>
        <Neuron NSynapses="21">
          -1.4714724928367200e+00 1.7351560842921150e+00 8.8411190191033606e-01 -1.5930093027572938e+00 -8.0520693562252976e-01 -1.9541055392277684e+00 6.1294417875062707e-02 1.5312259007555382e+00 1.1616646313192611e+00 7.7085488350803244e-01 -1.8761166296956715e+00 -1.1212922418203255e+00 -7.1872733449350557e-01 1.6895673803904138e-02 1.4970738908944938e+00 -1.6922830909019937e+00 9.2500376952121277e-01 -4.3976670408568358e-01 2.3829129063423796e-01 -1.8579143496285659e+00 1.3668318882192687e+00 
        </Neuron>
        <Neuron NSynapses="21">
          4.7711503276798606e-01 1.6598999625179358e+00 -1.1572546777534984e+00 1.1259475554483382e+00 5.6019626503004349e-01 1.2853224522187672e+00 -7.3695541128933706e-01 -1.5838476142566416e+00 -1.7388003545755197e+00 5.4048658841796460e-01 9.2893192400073943e-01 7.4090059450475998e-01 9.1742987351086303e-01 3.7970790318274056e-01 -3.7122045209325638e-01 1.1855541710220754e+00 6.5393589158905063e-01 -1.8706872119097537e+00 5.5554617761458680e-01 1.1472168500590316e+00 1.9181693890630507e+00 
        </Neuron>
        <Neuron NSynapses="21">
          9.8574759616671481e-01 -1.0371270469630500e+00 -9.8855374432260179e-01 -8.9321819805984781e-01 -8.4327372806148826e-01 -1.1613165213839165e+00 6.7633144601562989e-01 8.8171196461279167e-01 -6.3801959940169795e-01 8.7152110799101135e-01 1.2343400300949063e+00 -2.1370920914750094e-01 -1.2435266491515222e-01 2.8321717523445938e-01 1.1396168123631927e+00 -1.8419411382763611e+00 1.5891824213515633e+00 -4.9219523379162945e-02 -8.6589866846679220e-01 1.6362698991863582e+00 -1.3094199352416751e+00 
        </Neuron>
      </Layer>
      <Layer Index="2" NNeurons="22">
        <Neuron NSynapses="9">
          -6.0478606451035055e-01 1.5840489152679249e+00 3.0530954061726728e-01 1.9104409464865973e-01 -4.3266667522884418e-02 1.9039825036599798e+00 1.9150313718465402e+00 7.6586723784849364e-01 -1.1935365499363744e+00 
        </Neuron>
        <Neuron NSynapses="9">
          1.7966144336125314e+00 1.9110065016991700e+00 -3.6642215870948389e-02 6.4776901591675984e-01 2.0651093562157386e-03 1.2480973435560885e+00 -1.5270195824419215e+00 -2.0436892986528782e-01 -6.2020364866677580e-01 
        </Neuron>
        <Neuron NSynapses="9">
          1.8457035835072468e+00 -1.8322185426424213e+00 1.0155243019959273e-01 -1.3696483401427719e+00 3.6093804259372297e-01 1.0049167563984656e+00 1.5997689110662610e+00 -2.0905155715545174e+00 -7.1735351900344690e-01 
        </Neuron>
        <Neuron NSynapses="9">
          -5.3068829052687683e-01 8.1681575527619077e-01 1.3105065184446918e+00 1.1285327092678257e+00 5.6884959144418956e-01 -8.2318902416624998e-02 8.4233988885674416e-01 -3.3871959123792927e-02 -1.2415957467294028e+00 
        </Neuron>
        <Neuron NSynapses="9">
          1.3024913242312510e+00 -4.8980594497512464e-01 -4.0086656910112229e-04 6.3728353710585961e-01 -9.3804399794937421e-01 1.9756712208362619e+00 -7.0016246817903735e-02 -1.8257801020768352e+00 -9.0770762019324125e-01 
        </Neuron>
        <Neuron NSynapses="9">
          -9.8023560775366414e-01 -1.1331258703968132e+00 -9.2216259718152560e-01 5.3395977192065591e-01 1.0296154083198255e+00 1.6853095782672713e+00 -1.4220863640376796e-01 -1.0981843073529274e+00 -1.7710467466979090e+00 
        </Neuron>
        <Neuron NSynapses="9">
          1.5496639046389074e+00 -3.4786729294567970e-01 -2.0091756388882179e-01 -1.0777184165184701e+00 1.0743866518587795e+00 1.2293276581413932e+00 -7.4366168446718006e-01 -7.1874701602550461e-01 -7.3151428992271991e-02 
        </Neuron>
        <Neuron NSynapses="9">
          -1.7081838492000363e+00 -1.4763622382511352e+00 4.1253265971178088e-01 -1.7896209000625067e+00 1.4953450547539346e+00 -1.3016232634007363e+00 -5.5844612249591030e-01 2.7862256762248205e-01 9.7599464607861885e-01 
        </Neuron>
        <Neuron NSynapses="9">
          1.1956914020186631e+00 -1.9135500545861411e-01 1.6884613239637478e+00 1.1604820243970534e-01 -1.2143172128147866e+00 1.8292826678420715e+00 1.0595946272615029e+00 1.5152754855413952e+00 -9.6422632530312524e-01 
        </Neuron>
        <Neuron NSynapses="9">
          -1.7377209566422995e+00 -6.1437648776768838e-03 7.2726042662184687e-01 -1.3048726958635157e+00 -2.5057124584563750e-01 -4.9564779114595670e-01 1.8524135557420456e+00 -1.6766818071945317e+00 -1.1151852707264613e+00 
        </Neuron>
        <Neuron NSynapses="9">
          1.7163659869794351e-01 -1.2408694102907905e+00 1.0603742931638942e+00 -1.7749932630507266e+00 -8.9426332173178236e-03 -2.9640661776429700e-01 -3.8977792809539930e-01 -9.9866089516593481e-01 1.2650702190155851e+00 
        </Neuron>
        <Neuron NSynapses="9">
          8.5713867807615252e-01 -1.9809585694999288e+00 1.2659990715786522e+00 -4.3313137670070306e-01 7.4677534917611954e-01 -1.4860937428084431e-01 9.8457249321826734e-01 7.5979888585546418e-01 -6.1440957181664346e-01 
        </Neuron>
        <Neuron NSynapses="9">
          1.7641441847845354e+00 1.2629091439548168e+00 -8.9459398643415466e-01 -2.1193840891564605e-01 1.3274070906118445e+00 1.3146073853065456e+00 6.0833989804328659e-01 5.3020096303761954e-01 -1.9433726059432657e+00 
        </Neuron>
        <Neuron NSynapses="9">
          -1.4422020706302041e+00 8.5397913229686573e-01 -1.7775998413695435e+00 4.9659863587356812e-01 -1.9595547449045618e+00 7.2544526700223277e-01 -1.7412484396098753e+00 5.6679770422349660e-02 -1.8102785106130112e-01 
        </Neuron>
        <Neuron NSynapses="9">
          4.4937132162089966e-01 -1.8746106141871073e+00 -6.6779204175983342e-01 -1.8926299290808233e+00 1.8392668251537787e+00 1.0558748947690151e+00 1.9366338448479010e+00 -4.6260425946948841e-01 -4.7496769578477005e-01 
        </Neuron>
        <Neuron NSynapses="9">
          9.8922180438040530e-01 1.3383406231090615e+00 -1.7088865226428979e-01 1.9235249778686057e+00 -1.5834207346892409e-01 3.4210106254565115e-01 -8.7101815089013157e-02 6.9000916859574668e-01 -1.0451485136916412e-01 
        </Neuron>
        <Neuron NSynapses="9">
          -1.7385862163951855e+00 1.1083667164786921e+00 1.7376145630912461e+00 -4.3507604809961614e-01 9.2843520019643999e-01 1.6339983730621106e+00 1.9004696820256959e+00 -1.7679207464516054e+00 5.6927516286011592e-01 
        </Neuron>
        <Neuron NSynapses="9">
          1.2006316407731064e+00 -1.9222741601423736e+00 -1.4258614737089013e+00 7.6881764437107547e-01 6.4514029243651383e-01 7.7186172912949480e-01 -2.0452711906528709e+00 4.7388504257704700e-01 1.4181993841096449e-01 
        </Neuron>
        <Neuron NSynapses="9">
          -1.1388517677653880e+00 -1.9892242969174525e+00 -4.1372313483567646e-01 1.6727140330147148e+00 1.1343707191654882e+00 1.5907260873364890e+00 1.6943956155737736e+00 1.9287507408521820e+00 1.0129484969469330e-01 
        </Neuron>
        <Neuron NSynapses="9">
          1.6897324785577565e+00 5.9175594513574825e-01 -1.4643499846247536e+00 -1.6000323074371250e+00 -1.2382981552144319e+00 4.6681455158625429e-01 -1.0836335159731734e+00 1.3980412184120770e+00 4.9779946660112950e-01 
        </Neuron>
        <Neuron NSynapses="9">
          7.8745486062747350e-01 1.2704135946221711e+00 -8.6703666980846153e-02 2.0272275638385047e+00 1.0206932845415329e+00 8.6279570151729368e-01 1.1204852732470245e+00 6.0001547407586620e-01 -9.4326651473996070e-01 
        </Neuron>
        <Neuron NSynapses="9">
          1.7930007145062783e+00 1.6700693235568045e+00 -5.0733545299928762e-01 2.9026106013211350e-01 -9.9398538184896901e-01 5.9267974552992830e-01 -1.3163464034255843e+00 -8.3640205790237135e-02 -1.5456938622576675e+00 
        </Neuron>
      </Layer>
      <Layer Index="3" NNeurons="10">
        <Neuron NSynapses="1">
          6.2878529171034114e-01 
        </Neuron>
        <Neuron NSynapses="1">
          -6.3480852019561851e-01 
        </Neuron>
        <Neuron NSynapses="1">
          6.9026785709000393e-01 
        </Neuron>
        <Neuron NSynapses="1">
          -1.3955496919487862e+00 
        </Neuron>
        <Neuron NSynapses="1">
          8.8479219492233618e-01 
        </Neuron>
        <Neuron NSynapses="1">
          -1.4770272356834033e+00 
        </Neuron>
        <Neuron NSynapses="1">
          8.1536585282636143e-01 
        </Neuron>
        <Neuron NSynapses="1">
          2.5555831999454743e+00 
        </Neuron>
        <Neuron NSynapses="1">
          2.6685282931274285e-01 
        </Neuron>
        <Neuron NSynapses="1">
          -1.3222455228709380e+00 
        </Neuron>
      </Layer>
      <Layer Index="4" NNeurons="1">
        <Neuron NSynapses="0"/>
      </Layer>
    </Layout>
  </Weights>
</MethodSetup>
