<?xml version="1.0"?>
<MethodSetup Method="MLP::MLP_k_inf">
  <GeneralInfo>
    <Info name="TMVA Release" value="4.2.1 [262657]"/>
    <Info name="ROOT Release" value="6.06/02 [394754]"/>
    <Info name="Creator" value="mouginot"/>
    <Info name="Date" value="Tue Jul 11 10:57:51 2017"/>
    <Info name="Host" value="Linux kermit 4.4.0-71-generic #92-Ubuntu SMP Fri Mar 24 12:59:01 UTC 2017 x86_64 x86_64 x86_64 GNU/Linux"/>
    <Info name="Dir" value="/home/mouginot/work/MODEL/MODEL_DATA/MOX_TRU_MODELS/PWR_TRU/EQM_100"/>
    <Info name="Training events" value="3920"/>
    <Info name="TrainingTime" value="1.24415754e+03"/>
    <Info name="AnalysisType" value="Regression"/>
  </GeneralInfo>
  <Options>
    <Option name="NCycles" modified="Yes">16000</Option>
    <Option name="HiddenLayers" modified="Yes">18,21,9</Option>
    <Option name="NeuronType" modified="Yes">sigmoid</Option>
    <Option name="RandomSeed" modified="No">1</Option>
    <Option name="EstimatorType" modified="No">MSE</Option>
    <Option name="NeuronInputType" modified="No">sum</Option>
    <Option name="V" modified="Yes">True</Option>
    <Option name="VerbosityLevel" modified="No">Verbose</Option>
    <Option name="VarTransform" modified="Yes">Norm</Option>
    <Option name="H" modified="Yes">False</Option>
    <Option name="CreateMVAPdfs" modified="No">False</Option>
    <Option name="IgnoreNegWeightsInTraining" modified="No">False</Option>
    <Option name="TrainingMethod" modified="Yes">BFGS</Option>
    <Option name="LearningRate" modified="Yes">1.000000e-01</Option>
    <Option name="DecayRate" modified="No">1.000000e-02</Option>
    <Option name="TestRate" modified="Yes">6</Option>
    <Option name="EpochMonitoring" modified="No">False</Option>
    <Option name="Sampling" modified="Yes">5.000000e-01</Option>
    <Option name="SamplingEpoch" modified="Yes">8.000000e-01</Option>
    <Option name="SamplingImportance" modified="No">1.000000e+00</Option>
    <Option name="SamplingTraining" modified="No">True</Option>
    <Option name="SamplingTesting" modified="No">False</Option>
    <Option name="ResetStep" modified="No">50</Option>
    <Option name="Tau" modified="No">3.000000e+00</Option>
    <Option name="BPMode" modified="No">sequential</Option>
    <Option name="BatchSize" modified="No">-1</Option>
    <Option name="ConvergenceImprove" modified="Yes">1.000000e-06</Option>
    <Option name="ConvergenceTests" modified="Yes">15</Option>
    <Option name="UseRegulator" modified="Yes">False</Option>
    <Option name="UpdateLimit" modified="No">10000</Option>
    <Option name="CalculateErrors" modified="No">False</Option>
    <Option name="WeightRange" modified="No">1.000000e+00</Option>
  </Options>
  <Variables NVar="17">
    <Variable VarIndex="0" Expression="235U" Label="235U" Title="235U" Unit="IsotopicFraction" Internal="235U" Type="F" Min="4.21282166e-05" Max="1.89868156e-02"/>
    <Variable VarIndex="1" Expression="238U" Label="238U" Title="238U" Unit="IsotopicFraction" Internal="238U" Type="F" Min="7.91333616e-01" Max="9.63353574e-01"/>
    <Variable VarIndex="2" Expression="237Np" Label="237Np" Title="237Np" Unit="IsotopicFraction" Internal="237Np" Type="F" Min="7.59415855e-07" Max="1.88479331e-04"/>
    <Variable VarIndex="3" Expression="238Pu" Label="238Pu" Title="238Pu" Unit="IsotopicFraction" Internal="238Pu" Type="F" Min="9.12048017e-06" Max="3.57030891e-03"/>
    <Variable VarIndex="4" Expression="239Pu" Label="239Pu" Title="239Pu" Unit="IsotopicFraction" Internal="239Pu" Type="F" Min="2.48145964e-02" Max="1.78884774e-01"/>
    <Variable VarIndex="5" Expression="240Pu" Label="240Pu" Title="240Pu" Unit="IsotopicFraction" Internal="240Pu" Type="F" Min="3.23092754e-05" Max="3.32067870e-02"/>
    <Variable VarIndex="6" Expression="241Pu" Label="241Pu" Title="241Pu" Unit="IsotopicFraction" Internal="241Pu" Type="F" Min="2.85975079e-06" Max="5.31223044e-03"/>
    <Variable VarIndex="7" Expression="242Pu" Label="242Pu" Title="242Pu" Unit="IsotopicFraction" Internal="242Pu" Type="F" Min="8.26012729e-06" Max="1.80637289e-03"/>
    <Variable VarIndex="8" Expression="241Am" Label="241Am" Title="241Am" Unit="IsotopicFraction" Internal="241Am" Type="F" Min="1.62920078e-05" Max="6.03420474e-03"/>
    <Variable VarIndex="9" Expression="242Amm" Label="242Amm" Title="242Amm" Unit="IsotopicFraction" Internal="242Amm" Type="F" Min="1.36753933e-05" Max="1.14960168e-02"/>
    <Variable VarIndex="10" Expression="243Am" Label="243Am" Title="243Am" Unit="IsotopicFraction" Internal="243Am" Type="F" Min="3.18370581e-07" Max="1.82184478e-04"/>
    <Variable VarIndex="11" Expression="242Cm" Label="242Cm" Title="242Cm" Unit="IsotopicFraction" Internal="242Cm" Type="F" Min="8.06420530e-07" Max="1.65707941e-04"/>
    <Variable VarIndex="12" Expression="243Cm" Label="243Cm" Title="243Cm" Unit="IsotopicFraction" Internal="243Cm" Type="F" Min="1.69917662e-08" Max="1.92489286e-04"/>
    <Variable VarIndex="13" Expression="244Cm" Label="244Cm" Title="244Cm" Unit="IsotopicFraction" Internal="244Cm" Type="F" Min="7.72107967e-07" Max="1.90403152e-04"/>
    <Variable VarIndex="14" Expression="245Cm" Label="245Cm" Title="245Cm" Unit="IsotopicFraction" Internal="245Cm" Type="F" Min="6.98640292e-08" Max="1.66734942e-04"/>
    <Variable VarIndex="15" Expression="246Cm" Label="246Cm" Title="246Cm" Unit="IsotopicFraction" Internal="246Cm" Type="F" Min="7.09158996e-07" Max="1.77458191e-04"/>
    <Variable VarIndex="16" Expression="Time" Label="Time" Title="Time" Unit="seconds" Internal="Time" Type="F" Min="0.00000000e+00" Max="1.89328320e+08"/>
  </Variables>
  <Spectators NSpec="0"/>
  <Classes NClass="1">
    <Class Name="Regression" Index="0"/>
  </Classes>
  <Targets NTrgt="1">
    <Target TargetIndex="0" Expression="k_inf" Label="k_inf" Title="k_inf" Unit="" Internal="k_inf" Type="F" Min="7.87315011e-01" Max="1.60497999e+00"/>
  </Targets>
  <Transformations NTransformations="1">
    <Transform Name="Normalize">
      <Selection>
        <Input NInputs="18">
          <Input Type="Variable" Label="235U" Expression="235U"/>
          <Input Type="Variable" Label="238U" Expression="238U"/>
          <Input Type="Variable" Label="237Np" Expression="237Np"/>
          <Input Type="Variable" Label="238Pu" Expression="238Pu"/>
          <Input Type="Variable" Label="239Pu" Expression="239Pu"/>
          <Input Type="Variable" Label="240Pu" Expression="240Pu"/>
          <Input Type="Variable" Label="241Pu" Expression="241Pu"/>
          <Input Type="Variable" Label="242Pu" Expression="242Pu"/>
          <Input Type="Variable" Label="241Am" Expression="241Am"/>
          <Input Type="Variable" Label="242Amm" Expression="242Amm"/>
          <Input Type="Variable" Label="243Am" Expression="243Am"/>
          <Input Type="Variable" Label="242Cm" Expression="242Cm"/>
          <Input Type="Variable" Label="243Cm" Expression="243Cm"/>
          <Input Type="Variable" Label="244Cm" Expression="244Cm"/>
          <Input Type="Variable" Label="245Cm" Expression="245Cm"/>
          <Input Type="Variable" Label="246Cm" Expression="246Cm"/>
          <Input Type="Variable" Label="Time" Expression="Time"/>
          <Input Type="Target" Label="k_inf" Expression="k_inf"/>
        </Input>
        <Output NOutputs="18">
          <Output Type="Variable" Label="235U" Expression="235U"/>
          <Output Type="Variable" Label="238U" Expression="238U"/>
          <Output Type="Variable" Label="237Np" Expression="237Np"/>
          <Output Type="Variable" Label="238Pu" Expression="238Pu"/>
          <Output Type="Variable" Label="239Pu" Expression="239Pu"/>
          <Output Type="Variable" Label="240Pu" Expression="240Pu"/>
          <Output Type="Variable" Label="241Pu" Expression="241Pu"/>
          <Output Type="Variable" Label="242Pu" Expression="242Pu"/>
          <Output Type="Variable" Label="241Am" Expression="241Am"/>
          <Output Type="Variable" Label="242Amm" Expression="242Amm"/>
          <Output Type="Variable" Label="243Am" Expression="243Am"/>
          <Output Type="Variable" Label="242Cm" Expression="242Cm"/>
          <Output Type="Variable" Label="243Cm" Expression="243Cm"/>
          <Output Type="Variable" Label="244Cm" Expression="244Cm"/>
          <Output Type="Variable" Label="245Cm" Expression="245Cm"/>
          <Output Type="Variable" Label="246Cm" Expression="246Cm"/>
          <Output Type="Variable" Label="Time" Expression="Time"/>
          <Output Type="Target" Label="k_inf" Expression="k_inf"/>
        </Output>
      </Selection>
      <Class ClassIndex="0">
        <Ranges>
          <Range Index="0" Min="4.2128216591663659e-05" Max="1.8986815586686134e-02"/>
          <Range Index="1" Min="7.9133361577987671e-01" Max="9.6335357427597046e-01"/>
          <Range Index="2" Min="7.5941585464534000e-07" Max="1.8847933097276837e-04"/>
          <Range Index="3" Min="9.1204801719868556e-06" Max="3.5703089088201523e-03"/>
          <Range Index="4" Min="2.4814596399664879e-02" Max="1.7888477444648743e-01"/>
          <Range Index="5" Min="3.2309275411535054e-05" Max="3.3206786960363388e-02"/>
          <Range Index="6" Min="2.8597507935046451e-06" Max="5.3122304379940033e-03"/>
          <Range Index="7" Min="8.2601272879401222e-06" Max="1.8063728930428624e-03"/>
          <Range Index="8" Min="1.6292007785523310e-05" Max="6.0342047363519669e-03"/>
          <Range Index="9" Min="1.3675393347511999e-05" Max="1.1496016755700111e-02"/>
          <Range Index="10" Min="3.1837058145356423e-07" Max="1.8218447803519666e-04"/>
          <Range Index="11" Min="8.0642053035262506e-07" Max="1.6570794105064124e-04"/>
          <Range Index="12" Min="1.6991766216278847e-08" Max="1.9248928583692759e-04"/>
          <Range Index="13" Min="7.7210796689541894e-07" Max="1.9040315237361938e-04"/>
          <Range Index="14" Min="6.9864029228483560e-08" Max="1.6673494246788323e-04"/>
          <Range Index="15" Min="7.0915899641477154e-07" Max="1.7745819059200585e-04"/>
          <Range Index="16" Min="0.0000000000000000e+00" Max="1.8932832000000000e+08"/>
          <Range Index="17" Min="7.8731501102447510e-01" Max="1.6049799919128418e+00"/>
        </Ranges>
      </Class>
    </Transform>
  </Transformations>
  <MVAPdfs/>
  <Weights>
    <Layout NLayers="5">
      <Layer Index="0" NNeurons="18">
        <Neuron NSynapses="18">
          -1.0283429761282135e-01 2.1875147721402470e+00 7.7343670889104310e-01 1.3415765601125145e+00 -1.8994441433737930e+00 -1.7212073761665843e+00 -1.3185639233233375e+00 1.0689515098933948e+00 -7.8262743260548728e-01 -1.5869404506844060e+00 -4.3061960841671831e-01 -2.1610081832427261e-01 -1.1971026436959529e+00 -6.8743905010927964e-01 6.4917690132973077e-02 5.9617948995699244e-01 -1.1556882053970612e-02 1.0104147275699911e+00 
        </Neuron>
        <Neuron NSynapses="18">
          -3.6164119394672278e-01 1.3512958715977335e+00 1.3998484884436804e-01 -5.1331628567134069e-01 5.9653696100341014e-01 3.4816931069978135e-01 -1.2269942633096342e+00 -7.8017266596673698e-02 1.2509341458602243e+00 -1.2443705447636748e+00 -2.0011565199669268e+00 3.1775964621063185e-01 3.1931877785621610e-01 1.9033691823038812e+00 3.3407573998859619e-01 1.6981931669372885e-01 4.3245789624896902e-01 3.7803415810816077e-01 
        </Neuron>
        <Neuron NSynapses="18">
          -4.9777124675474066e-01 1.4456922672187098e+00 -7.0771996098577594e-01 1.6882242969601220e+00 1.1898959447113460e+00 7.2462649048206551e-01 1.5362039368367395e+00 5.9173210603835635e-01 -4.1972143246663346e-02 -9.6810906667406604e-01 4.8741679353914580e-01 9.6715359633453110e-02 1.0101838695666574e+00 1.0992282858285947e+00 9.3489543469840919e-01 9.3271167727293169e-01 -1.9824418127285934e+00 9.7197277438364149e-01 
        </Neuron>
        <Neuron NSynapses="18">
          -6.5589130294706999e-01 -1.1576786209647267e+00 -1.5571528758077073e+00 -2.1205434656081201e+00 1.0962279720159729e+00 1.5203265588530277e+00 -1.3253206613357134e+00 6.4246257829137107e-02 -2.4935815198014064e-01 -1.7836970091900714e-01 1.9038967571913281e+00 2.5498123781303169e-02 3.7051294429228093e-01 -1.0797041857702570e+00 1.0199365374651970e+00 -5.5184170995121162e-01 -7.1807549792291170e-01 -8.1236558213095655e-01 
        </Neuron>
        <Neuron NSynapses="18">
          1.3003873003373401e+00 1.0042706736331024e+00 1.0485032191196202e+00 -7.7235475455740943e-01 -1.8948262779478611e+00 -1.8459394571157939e+00 9.7467443433665024e-01 5.3935106158658608e-01 2.2103734614284947e+00 7.2077858975817044e-01 9.9295012342843725e-01 -6.3210029443253668e-01 -4.2648471998498211e-01 -4.1030010159064023e-01 4.3419966817023120e-01 -1.4142609843136622e+00 -1.7110801824229389e+00 -2.2207313902243513e+00 
        </Neuron>
        <Neuron NSynapses="18">
          -2.9714655095152348e-01 -1.5074872847147899e-01 8.6663592415150692e-01 -1.1317310442844066e+00 -1.1145239503516657e+00 6.0754161628752446e-01 -5.5924468621010970e-01 -1.0173250614149636e+00 -1.1501341749872327e+00 3.3177110234325563e-01 -1.6462629590094946e+00 -9.8755191620369953e-01 9.1961881452893102e-01 9.7386289493241873e-01 -1.4060991934682339e+00 1.3576482641670178e+00 -9.0809168326042589e-01 -1.1330103761424917e+00 
        </Neuron>
        <Neuron NSynapses="18">
          -2.9847051370072673e-02 1.5431925213708647e-01 -1.7902613084193422e+00 8.4722399423001749e-01 -1.3346877687251099e-01 6.8504909550245963e-01 -1.7052522891899011e+00 7.6846775660171851e-01 6.8571355539416989e-01 -9.2736425608284523e-01 8.1164264779662798e-01 -2.6047043348660365e-01 -1.2636433158389220e+00 1.0688077831076025e-02 -6.5351111477123125e-01 1.8534408997930849e+00 6.8943259943488022e-01 -3.0011399458187893e-01 
        </Neuron>
        <Neuron NSynapses="18">
          1.8101194707320110e-02 -2.7297176138200557e-01 -2.2180186869973522e+00 5.0252654662394691e-01 1.0105998772348022e-03 -8.9622418572699203e-01 6.7131022207083912e-01 -4.6490460767607072e-01 -7.6143599601201251e-01 4.1129433636476753e-01 1.9689420211487625e+00 -3.8578456677347300e-01 1.3980151771440787e+00 2.2045527726105090e+00 1.0027493052369743e+00 5.5965645494496008e-01 -1.2472009369124932e+00 1.7914326294045821e-01 
        </Neuron>
        <Neuron NSynapses="18">
          -4.8896296599663758e-01 1.2524206866902790e+00 1.2490793750491529e+00 -4.3082562141840458e-01 -7.4354568002780230e-01 2.2160053418038553e-01 -1.4610852302651147e+00 6.4671673308229194e-01 2.0321872860652919e+00 -1.0273910710213712e+00 -5.9313308811721488e-01 -6.6323608085618352e-02 7.7803115418743718e-01 -1.2350429851336735e-01 1.0650784322806277e+00 -1.8998881777990237e+00 1.0570592665388325e+00 5.9073518163051697e-01 
        </Neuron>
        <Neuron NSynapses="18">
          8.9558447350734161e-01 2.9531404899853936e-01 6.1548856208771985e-01 -1.0880924361076516e+00 -1.0661203911726045e+00 2.5949040442881788e-01 -1.4999272968013926e+00 -4.9768552279093309e-01 2.1477502395004966e+00 9.4431865269645898e-01 -1.1275615931134940e-01 1.3455541179206929e+00 1.7633952806852502e+00 -2.0278482949907488e+00 3.2935921313089839e-01 -2.3334576277574259e-01 4.9560530677434400e-01 -1.4451484438465978e+00 
        </Neuron>
        <Neuron NSynapses="18">
          -9.4976824357108303e-01 1.4131832676126921e+00 1.1298399728477346e+00 -2.2595386994873929e+00 -5.7664835218906793e-02 3.9016662465199792e-01 2.7648266055306842e-01 6.9267505206208124e-01 3.7531115402888482e-01 -3.5297148352742608e-01 -2.3765250851363890e+00 5.9275249527548746e-01 1.4351760342301667e+00 8.7629587597437586e-01 5.2363865872215454e-01 -4.1125474644641674e-01 -1.8347251558910589e+00 1.9936550584064987e+00 
        </Neuron>
        <Neuron NSynapses="18">
          3.4094900262303163e-01 -8.0607842750457726e-01 -6.2796488496061220e-01 1.0549455731549169e+00 -2.1262676635030497e-01 -2.3273905188715474e+00 1.8694192700600938e+00 2.0626157733677708e-01 -6.8941200807190484e-01 1.2161127275600903e-01 1.4958990747482988e+00 -2.5488024514145086e-01 1.8113934922271213e-01 -7.6569147884246389e-02 -1.7178327122503627e+00 -1.0706185195539391e+00 2.1201290890956122e+00 1.1541192156404934e+00 
        </Neuron>
        <Neuron NSynapses="18">
          3.8177724448856276e-01 4.9594758046718652e-02 2.5313746299245610e+00 -9.2657222198452982e-01 -1.5983784842089750e+00 1.0202790074231201e-01 -1.2546728398773626e+00 -2.4734527105656001e-01 1.4428891058974049e+00 -8.1699981883324324e-01 8.5718532442748421e-02 -1.2653306410671641e-01 -1.8165551184914031e+00 -1.2876593298750554e+00 1.1052670148004886e+00 -3.0211455273924565e-01 1.0729818594200520e+00 -1.0611788827721633e+00 
        </Neuron>
        <Neuron NSynapses="18">
          2.5239638003227660e-01 -1.8863038374418213e+00 2.4101349607692224e-01 -3.0743824271258452e-01 -1.8116968324431464e+00 -1.2313955218346626e+00 -1.7736936689937974e+00 2.0457568910326246e-01 -1.7186274072531698e+00 -3.9490059332919225e-01 -2.0626829807758189e+00 -2.2243017285490534e-02 -1.1901424279085937e+00 -1.3117273352391217e+00 1.6360620248658586e+00 -9.2190763581842627e-01 3.3856236786720267e-01 -5.1907433626360289e-01 
        </Neuron>
        <Neuron NSynapses="18">
          1.6921085103794514e-01 1.4373744999161862e+00 1.1608583884366523e+00 -4.1664394748497180e-01 -9.4494473681265789e-01 -3.4198653444935800e-01 -1.5333539960818774e+00 -4.2417195912430794e-01 8.6069428566436756e-01 1.0848375122378238e+00 9.3025989614580729e-01 1.0660800062197873e-01 7.0277368013325936e-01 -7.1527666255697675e-01 -2.0303872188131349e+00 1.3038348887964579e+00 1.0349657938943091e+00 -8.0245793597089177e-01 
        </Neuron>
        <Neuron NSynapses="18">
          -4.2931588600023679e-01 4.6721239722669183e-01 3.6966389107160186e-01 6.6547632108377963e-01 -7.2987290141460970e-01 1.9881384559681101e-01 1.0855819338312187e+00 6.3035997882591754e-01 1.3439637293340807e+00 -1.0493562029216532e+00 4.4225486487982288e-02 2.9319061783242445e-01 -7.6846750352880833e-01 -9.6188961187758104e-01 -1.0718944686761893e+00 -1.4603211007621981e+00 -3.1052096262552070e-01 2.0018716209823051e+00 
        </Neuron>
        <Neuron NSynapses="18">
          -1.1825750794773653e+00 2.0545123376930357e+00 -1.2072800459791273e+00 9.4421591127557081e-01 -7.4405993819044747e-01 6.3539923231971218e-01 8.3293518684746937e-01 -1.4703844274032192e+00 -5.6197607657421700e-01 1.9128364824072361e+00 -9.7860243163886851e-01 -2.6552624953728339e+00 -9.4865138538101546e-01 -7.2241577733386986e-01 2.1607659690768606e+00 -3.7372974188500702e-01 4.0583006236392044e-01 9.2846795716823374e-02 
        </Neuron>
        <Neuron NSynapses="18">
          -1.5142426793160244e+00 -9.3498314365919488e-01 -1.0235410070254620e+00 -8.8103256882561254e-01 1.9462054612195017e+00 -1.4876668548704761e+00 -7.1749854518629208e-01 1.0812687508034955e+00 -3.3303557722217997e-01 1.2379628727290538e-01 1.5069803387253331e+00 -3.9913094089791237e+00 9.6195035107182092e-01 1.4381906555838877e+00 -1.1166458599850140e+00 -7.5318812697747395e-01 -5.4650777335418255e-01 -1.4907297450325276e+00 
        </Neuron>
      </Layer>
      <Layer Index="1" NNeurons="19">
        <Neuron NSynapses="21">
          7.0164258985477268e-01 1.4932861392302736e+00 1.6580682514932694e+00 1.6588756451291615e+00 -1.8095311770834082e+00 9.2005198060295312e-01 -1.8282533481063070e+00 1.3735522902524517e+00 -1.0957327737253826e+00 -2.0986267526566098e+00 -3.4269516405229400e-01 1.3130166473244000e+00 5.4856484901630231e-01 -5.9578045664532964e-01 3.3342024628301126e-01 -2.4912718528971134e-01 -1.1159923988492373e+00 -9.3106391151293599e-02 1.8537974281974510e+00 -1.4481392651804990e+00 5.8159098393461928e-01 
        </Neuron>
        <Neuron NSynapses="21">
          -1.5318551014839874e+00 -4.9396941722350335e-01 -2.7145610175546529e-02 -3.3330192557243188e-01 -1.1169467811264160e+00 1.0246055819583342e+00 1.6586612583574352e+00 5.5983059572516825e-01 1.9972033765648314e-01 -1.0213661027728966e+00 -9.6139767158122758e-01 -1.3281352240653197e+00 1.0805963102982428e+00 -9.0893037214130376e-02 -1.1696266343119264e+00 3.8388361781365016e-01 -1.6798878742736190e+00 -9.8646993271097849e-01 -1.8407680889934026e+00 6.0878876989801800e-01 -1.4408148327294921e+00 
        </Neuron>
        <Neuron NSynapses="21">
          -1.7205734537464639e+00 -5.3524365721563327e-01 -7.7259358758722918e-01 -1.9566484503765424e+00 5.0171808252290873e-01 -1.3615203996087051e+00 -1.1160727785338207e+00 1.0796880630066501e+00 5.2151118218178172e-01 8.0454504044131969e-01 5.7172448948816956e-01 6.6190386392481848e-01 1.9206243526474662e+00 5.3424196410968039e-01 -1.0595091015311791e+00 -6.3755358056533962e-01 -1.7274347400968380e+00 9.3623218950317311e-01 6.9674224025019771e-01 -6.1613209914066736e-01 1.0627407296820346e+00 
        </Neuron>
        <Neuron NSynapses="21">
          7.5216347992083532e-01 1.5253837115930839e+00 -1.3995519832211873e+00 1.5610575472311359e+00 4.6093297306867009e-01 -1.9008152737410613e+00 -2.4564258599396244e-01 -8.8287043936198040e-01 5.3391661239811306e-01 -8.9817343539904074e-02 1.1464868967502708e+00 1.9307926749473763e+00 -1.2955670776880102e-01 1.7503881228749645e+00 1.6789191392072840e+00 3.3274493980314385e-01 -1.4059187773763067e+00 2.0308484826597866e+00 -1.6375637120149236e+00 1.0327402037926141e+00 1.7055376667250246e+00 
        </Neuron>
        <Neuron NSynapses="21">
          -7.7275725228205161e-01 -7.2831865394628947e-01 1.2190310436177060e-01 -1.0071766647915643e+00 4.8061981089980960e-01 -2.0876181437859547e+00 5.2430446042749945e-01 3.1117312163668370e-01 1.5604972965377983e+00 9.4201075119073663e-01 1.7051876981800238e+00 -1.5668498836948716e-01 3.7078352338764817e-02 -2.6028994551173083e-02 1.8349338557894106e+00 -1.8841616864660538e+00 -1.4981343425374911e+00 -4.3773549713696314e-01 -1.0725845668048970e+00 -1.2704698342854854e+00 -1.0919233144895528e+00 
        </Neuron>
        <Neuron NSynapses="21">
          5.8466942548246004e-01 -1.7783679269432459e-01 -2.0048196542612935e+00 -1.8947546027687152e+00 -1.1141782656604687e-01 1.6794896603262022e+00 1.9655538175705507e+00 9.9984470039413709e-01 -4.6174987338483886e-01 -1.8120605640863372e+00 -3.2637013997497438e-01 -1.0499992636681836e+00 -1.8369868598761789e+00 1.9133961319070594e-01 -4.5017095238077433e-03 -1.4325762612505184e+00 1.3184339848445001e+00 1.2802457091972064e+00 2.8833760166804923e-01 -4.9492603827934539e-01 -7.7728524575592750e-01 
        </Neuron>
        <Neuron NSynapses="21">
          1.5883520669435895e+00 -7.0937459407163861e-01 2.4051729348178405e-01 1.5910359796671827e+00 1.0722695947326604e+00 -1.0757191944608024e+00 1.5058977595251164e+00 -1.3815501530143581e+00 1.6592431434968387e+00 1.5221147952025615e+00 -4.2922456437881162e-01 4.9062157515158294e-01 4.2995607507834199e-01 -5.1926871079112169e-01 1.1809989627974020e+00 4.1733518700583949e-01 -1.0068096858205933e+00 -1.7833880443567358e+00 -2.7560224957529705e-01 2.0086894046681176e+00 8.6580612771337373e-01 
        </Neuron>
        <Neuron NSynapses="21">
          -6.1151717983068654e-01 -1.9138430519238638e+00 2.1265710702293528e+00 4.4015941201184022e-01 -5.0360285116815207e-01 -3.4839667237244748e-01 -7.4268565749670090e-01 1.2986062566004106e+00 1.1162927916505392e+00 -3.9410717105862708e-01 -9.2431270598016746e-01 6.7048762341397605e-01 1.6089679907304193e+00 -8.2449913348000781e-01 5.6581281167369185e-02 -1.1823932281934875e+00 -1.2032855293914064e+00 8.0302267569776697e-01 6.6863887858456497e-02 -5.1053597772179403e-02 -1.3303798194456651e+00 
        </Neuron>
        <Neuron NSynapses="21">
          -1.8998572372627396e+00 -2.0353586263927754e+00 -4.4722570966468767e-01 -1.7026040832608509e+00 6.7423959475583717e-01 -3.4753855996412070e-01 1.6891241745026757e+00 4.1433958015045919e-01 -2.0891291862989299e+00 1.5495513796028340e+00 2.4087603934566633e+00 7.1583116197691687e-01 -3.0049816842044769e-01 -4.2406655296223772e-01 1.8595813488157160e+00 -1.7087588939954803e+00 1.5954315679229128e-01 -1.2407576649403351e+00 9.3693581528194536e-01 -1.3870797824158090e+00 4.3991435219322234e-01 
        </Neuron>
        <Neuron NSynapses="21">
          -5.2369445270027803e-01 3.9340560777670774e-01 -6.6086616971278500e-01 -1.3505021863767779e+00 9.9992679123557227e-01 2.9791804711402031e-01 1.1322289201956568e+00 1.0811934401159036e+00 -1.8416853915932285e+00 1.3138150591942062e+00 -1.5755865701870775e+00 9.8036533305366913e-01 1.4628843510690064e+00 5.4914181492221781e-01 1.4910978586658310e+00 1.5065678935959368e+00 -2.2567369720840187e+00 -5.6875664914542434e-01 -8.3675778781881693e-01 8.6184400159132291e-01 1.7667492350332600e-01 
        </Neuron>
        <Neuron NSynapses="21">
          -3.6725385249461451e-03 -9.5944962246678100e-01 -3.8142766006090162e-01 -8.4341363660141377e-01 1.0271023923046113e-01 -2.0154912572091179e+00 -1.9313366242617644e-01 1.7563363936077700e-01 -2.7506433376490597e-01 -1.4487416253437666e+00 5.5788784452896656e-01 -6.4540531250814015e-01 -1.0269210710664316e-01 -1.0488849376742295e+00 1.8713029650460886e+00 -4.9502787843082346e-01 5.2382806679837712e-01 3.9318834799778069e-01 -1.5250166189235297e+00 -9.1273133661767625e-01 2.8486836015363837e-01 
        </Neuron>
        <Neuron NSynapses="21">
          -1.9448948752766713e+00 -8.1266929007616473e-01 -9.3913778421278293e-01 1.5137230234849528e+00 -3.4300429561308192e+00 1.3458056500183977e+00 1.6731705044891620e+00 1.3294820947147674e+00 8.6688318782695861e-01 -2.3517124631640410e-01 -1.6159920525479476e-01 4.5124566488113133e-01 -2.9854930114322493e+00 -1.8313336287912947e+00 -7.1090620681515582e-01 1.3882606298890361e+00 -2.0379441284626801e-01 5.3565477380082736e-02 1.7208073333518497e+00 1.1984252835911340e+00 -1.1200038011800186e+00 
        </Neuron>
        <Neuron NSynapses="21">
          2.8305461459970971e-01 -2.0630072730293372e+00 7.9160817308093490e-01 -1.0016264231044993e+00 9.2621304476846952e-02 -3.9263923476100349e-01 1.3621345924931925e+00 -1.6199845332477940e+00 9.9483777907960880e-01 -1.7127359429328934e+00 -1.8801759592438969e-01 8.4762523696128045e-01 1.3415186892386455e-01 4.2154573972874460e-01 -1.8258662213829371e+00 1.0008909119131904e+00 -5.2381843120385552e-01 3.9558667430526229e-01 -1.2297694683849352e+00 -8.5434591540105953e-01 2.4461171040302365e+00 
        </Neuron>
        <Neuron NSynapses="21">
          -1.9473022162132116e+00 -1.2000397641468201e+00 -7.7638279359429274e-01 1.2718823124390168e+00 1.6785367706629291e+00 1.3065796406051802e+00 -1.3255540578225251e+00 9.9449781805075299e-01 7.0487412233499169e-01 4.8102279602510768e-02 -1.3630010821349769e+00 -9.6053590197906102e-01 4.5812766875393646e-01 -1.2662410291786391e-01 1.5266346048949342e+00 -6.2034474138463003e-01 -2.1167475264951396e-01 -8.3483883489633082e-01 1.6254295616096595e+00 9.2186985967365009e-01 1.4819887948158590e+00 
        </Neuron>
        <Neuron NSynapses="21">
          -8.0280772638893561e-01 -1.2655707749526302e+00 1.3997676789546389e+00 2.6341844471650688e-01 1.6216012288944055e+00 -1.7148759537498331e-01 -1.0109078191473884e+00 -8.8524606806568640e-01 -1.1023253973914739e+00 -8.3411321786342085e-01 -9.8099863761329675e-01 -6.0316204553147235e-01 -5.8978172460202993e-01 -5.0489152362322307e-02 8.3199680470684423e-01 -1.9172799544146089e+00 -1.2687707357853186e+00 3.3958637476925527e-02 -1.3713333595976502e+00 6.2609774804293716e-01 1.3892225551239632e+00 
        </Neuron>
        <Neuron NSynapses="21">
          -1.7425740749083010e+00 -1.0028917830490369e+00 -1.0325605046465485e+00 8.7493258808459407e-01 -1.0730990301357825e-01 -1.1269821237879998e+00 -5.8018770400980535e-01 -2.2315649263908357e+00 1.5331829936464880e+00 -3.1180623727676143e-02 1.4126998607397534e+00 7.2625013097887955e-03 -2.6745786214619238e-01 -1.1855324105893634e+00 -1.2611782407883310e+00 4.5340760065177083e-01 7.5551151275728046e-01 3.5279455796196202e-01 -9.7496295210988149e-01 3.4734078959328157e-01 7.6304761286161912e-02 
        </Neuron>
        <Neuron NSynapses="21">
          -1.3131155483900219e+00 1.6518667274237331e+00 6.7734534717613304e-01 -1.3608457444606603e+00 -1.0288189701332073e+00 -1.8224825296421809e+00 2.2691164183231241e-01 1.1514486183527535e+00 1.0986912589638100e+00 9.9572540345927940e-01 -1.8828558489569860e+00 -1.5341729464815610e+00 -9.1346228221373138e-01 8.9764535272029866e-01 1.4615324839643182e+00 -1.7367950865607136e+00 1.1014545248834695e+00 -6.3813335759848522e-01 3.8858925206115202e-01 -1.3292725510206016e+00 1.2220150743064517e+00 
        </Neuron>
        <Neuron NSynapses="21">
          3.1229500845455582e-01 2.1057264985678894e+00 -1.0263739358034922e+00 8.5104592465567186e-01 4.0558655282039047e-01 1.3857483806353827e+00 -8.0945322463160230e-01 -2.0389801095460331e+00 -2.0051760533996963e+00 5.9646816091590796e-02 8.1644118941270749e-01 5.7581606010920827e-01 3.7097397811693450e-01 2.3104875402084654e-01 -4.2145330651394530e-01 1.3393422419952679e+00 6.9593929150746359e-01 -1.8587466468291765e+00 6.2105132298060106e-01 1.2323242036548196e+00 1.7646358907600734e+00 
        </Neuron>
        <Neuron NSynapses="21">
          7.0179348361405103e-01 -9.2442337390593254e-01 -8.9205802820369517e-01 -9.3731952183667000e-01 -3.7347894000988463e-01 -1.1403552579713518e+00 9.6231201828626844e-01 7.7386921569131284e-01 -7.8645136010524930e-01 1.6454068855714570e+00 1.4798899365603506e+00 -6.1919600871775526e-01 2.9512841298963205e-01 4.0506183486972708e-01 1.0005594321770408e+00 -1.7557669796795476e+00 1.6399427069852606e+00 1.2845030017100037e-01 -9.6573659584506510e-01 2.0266640837066290e+00 -1.1514071553901948e+00 
        </Neuron>
      </Layer>
      <Layer Index="2" NNeurons="22">
        <Neuron NSynapses="9">
          -5.8123639627471768e-01 1.2860145230705660e+00 1.1239957195265091e-01 3.4469666049748648e-01 -7.1023647576054216e-01 1.8916811045324471e+00 1.8525387342394777e+00 4.0568936717577442e-01 -1.1841390798925520e+00 
        </Neuron>
        <Neuron NSynapses="9">
          1.8069866018831797e+00 1.6887648413115184e+00 -2.3965181564773774e-01 8.5640662891126107e-01 -7.0972927107755213e-01 1.2378555449437021e+00 -1.5653119837349465e+00 -7.0034981505395644e-01 -5.8069791036360230e-01 
        </Neuron>
        <Neuron NSynapses="9">
          1.5816085095934771e+00 -1.0606749447611179e+00 1.0116003862419367e+00 -1.7320933901777740e+00 5.1638993421283508e-01 9.7621729056567408e-01 1.6264649016477606e+00 -1.9289975992928539e+00 -7.3806486906897506e-01 
        </Neuron>
        <Neuron NSynapses="9">
          -5.2177572340182332e-01 1.0856404662344290e+00 1.2359288023699959e+00 1.3419999724057519e+00 5.5258103175121942e-01 -9.4470738622015993e-02 6.3062799766091238e-01 4.8712715537956169e-01 -1.2230367305695389e+00 
        </Neuron>
        <Neuron NSynapses="9">
          1.1062162158421105e+00 -6.5046352402196125e-02 -9.2262458534706859e-01 5.6142743011905560e-01 -7.4794930249535074e-01 1.9944109910364998e+00 -2.3455046910204483e-01 -2.1418788907165922e+00 -9.0999917966729849e-01 
        </Neuron>
        <Neuron NSynapses="9">
          -9.7080002926913656e-01 -1.3404608910495652e+00 -9.2225390716689848e-01 5.5425550387278455e-01 9.7451077066301284e-01 1.6839682438296069e+00 -4.7056955218062038e-02 -9.8457560509585695e-01 -1.7598141631658997e+00 
        </Neuron>
        <Neuron NSynapses="9">
          1.3387173126179428e+00 -3.3616828623139178e-01 -3.1396740445779742e-01 -9.1241994070088062e-01 4.8123260472388546e-01 1.1906172613933887e+00 -7.3108427876622284e-01 -5.2956526560218553e-01 1.5023800172282060e-03 
        </Neuron>
        <Neuron NSynapses="9">
          -1.9110264057217299e+00 -1.3738174861308048e+00 1.4374149871579206e-01 -1.7009959597172013e+00 1.2152129382459731e+00 -1.3243736622879276e+00 -4.8453951250668498e-01 5.0121461456875238e-01 1.0190261371094247e+00 
        </Neuron>
        <Neuron NSynapses="9">
          1.1040059516521710e+00 2.9810522344739621e-01 9.9426991989700975e-01 5.4899795553372521e-01 -8.9450612934692675e-01 1.7972814263508159e+00 8.9208088846270650e-01 1.1736275552544408e+00 -9.3582538858167286e-01 
        </Neuron>
        <Neuron NSynapses="9">
          -2.0764663195707502e+00 3.0984580258002459e-01 3.0861242719768492e-02 -1.0721850803562669e+00 -6.4896400593349904e-02 -4.6147171076695420e-01 1.4489919925885566e+00 -2.4519643523765495e+00 -1.1633610728230666e+00 
        </Neuron>
        <Neuron NSynapses="9">
          5.3079586147055102e-03 -1.1254712613256523e+00 1.1523011449809624e+00 -1.2673849950258675e+00 1.7826739141743744e-01 -3.1666232285825902e-01 -5.2300677068492851e-01 -2.0589402475985779e+00 1.2771921167178499e+00 
        </Neuron>
        <Neuron NSynapses="9">
          5.9065360895690933e-01 -1.2420134033323365e+00 1.6987022865652965e+00 -6.3011942979765667e-01 1.1721552225275929e+00 -1.7906431501184397e-01 9.5867555973126861e-01 1.0124059287774514e+00 -6.3585756296340890e-01 
        </Neuron>
        <Neuron NSynapses="9">
          1.7510873009557946e+00 1.2446715578302949e+00 -1.5730649670019172e+00 -6.0747857981989284e-01 1.8912071631199927e+00 1.3350478084780091e+00 8.3403807303153599e-01 -6.6877316758712535e-01 -1.9739831727228214e+00 
        </Neuron>
        <Neuron NSynapses="9">
          -1.5035959821927345e+00 7.4753531072951962e-01 -2.1556436106200834e+00 6.2752224125281697e-01 -1.6320684474586757e+00 7.3310713270863148e-01 -2.0847416492326540e+00 -2.4082397357067292e-01 -1.7363756895256172e-01 
        </Neuron>
        <Neuron NSynapses="9">
          1.6116834989658538e-01 -1.6346820596185254e+00 -7.8682891449888137e-01 -1.8281319647636125e+00 1.9267965168809511e+00 1.0139544792214188e+00 1.9415123468007220e+00 -4.3149816499754590e-01 -4.1876094113911855e-01 
        </Neuron>
        <Neuron NSynapses="9">
          1.0085081583068407e+00 1.3868164516838444e+00 -1.6446501626961665e-01 2.0437154734289495e+00 -3.5661454646963953e-01 3.3895708528039797e-01 -7.6110000803697161e-02 4.5917726340935677e-01 -1.0006739478444981e-01 
        </Neuron>
        <Neuron NSynapses="9">
          -1.7378976378530835e+00 1.1620281473061125e+00 1.4703813411117070e+00 -2.7505936319280683e-01 8.0465376226440255e-01 1.6200656985743607e+00 1.9358516310507585e+00 -2.1799122623699869e+00 6.0937001698931836e-01 
        </Neuron>
        <Neuron NSynapses="9">
          1.0940168769404086e+00 -1.2350552495964839e+00 -1.8221794304820425e+00 8.6941249056659253e-01 1.1262026172810415e+00 7.5283662543703334e-01 -1.8390463726753805e+00 1.6921400666627853e-01 1.6486043071108089e-01 
        </Neuron>
        <Neuron NSynapses="9">
          -1.5736500970623233e+00 -2.1060567678093047e+00 -2.1284703454792012e-01 1.6844467285363034e+00 1.0620210917661186e+00 1.6388331719483409e+00 1.5480845537346100e+00 9.5887829179113071e-01 1.5837997191416212e-02 
        </Neuron>
        <Neuron NSynapses="9">
          1.5503529310262636e+00 3.5065660563811157e-01 -1.4923917139143592e+00 -1.5163886359500784e+00 -6.0626342447953008e-01 5.1027807292655147e-01 -1.2868657047043979e+00 1.2444326947604594e+00 4.9651605916003455e-01 
        </Neuron>
        <Neuron NSynapses="9">
          7.0978479126525662e-01 1.3516671340548372e+00 3.9195624870187845e-01 2.0521734187255620e+00 5.1876170181109715e-01 7.8303352037954288e-01 8.3097335740960798e-01 1.5470737561739805e+00 -9.0461745307417174e-01 
        </Neuron>
        <Neuron NSynapses="9">
          1.4870542621001723e+00 1.9651569377939695e+00 -6.4248694848424792e-01 3.5858297122629917e-01 -9.2552763510073288e-01 5.5488089996405987e-01 -1.3499894804551309e+00 -1.6048840979194315e-01 -1.4940284672179474e+00 
        </Neuron>
      </Layer>
      <Layer Index="3" NNeurons="10">
        <Neuron NSynapses="1">
          1.0571659676818681e+00 
        </Neuron>
        <Neuron NSynapses="1">
          -5.6694602342994893e-01 
        </Neuron>
        <Neuron NSynapses="1">
          2.1542152316608894e+00 
        </Neuron>
        <Neuron NSynapses="1">
          -1.4910472254761551e+00 
        </Neuron>
        <Neuron NSynapses="1">
          1.5827571431366829e+00 
        </Neuron>
        <Neuron NSynapses="1">
          -1.4664875953217715e+00 
        </Neuron>
        <Neuron NSynapses="1">
          4.2151525598911110e-01 
        </Neuron>
        <Neuron NSynapses="1">
          2.7130493813642182e+00 
        </Neuron>
        <Neuron NSynapses="1">
          4.4385846859181716e-01 
        </Neuron>
        <Neuron NSynapses="1">
          -1.2782953172642522e+00 
        </Neuron>
      </Layer>
      <Layer Index="4" NNeurons="1">
        <Neuron NSynapses="0"/>
      </Layer>
    </Layout>
  </Weights>
</MethodSetup>
