<?xml version="1.0"?>
<MethodSetup Method="MLP::MLP_k_inf">
  <GeneralInfo>
    <Info name="TMVA Release" value="4.2.1 [262657]"/>
    <Info name="ROOT Release" value="6.06/02 [394754]"/>
    <Info name="Creator" value="mouginot"/>
    <Info name="Date" value="Wed Jul 12 20:26:50 2017"/>
    <Info name="Host" value="Linux kermit 4.4.0-71-generic #92-Ubuntu SMP Fri Mar 24 12:59:01 UTC 2017 x86_64 x86_64 x86_64 GNU/Linux"/>
    <Info name="Dir" value="/home/mouginot/work/MODEL/MODEL_DATA/MOX_TRU_MODELS/PWR_TRU/EQM_10000"/>
    <Info name="Training events" value="400000"/>
    <Info name="TrainingTime" value="1.22574024e+05"/>
    <Info name="AnalysisType" value="Regression"/>
  </GeneralInfo>
  <Options>
    <Option name="NCycles" modified="Yes">16000</Option>
    <Option name="HiddenLayers" modified="Yes">18,21,9</Option>
    <Option name="NeuronType" modified="Yes">sigmoid</Option>
    <Option name="RandomSeed" modified="No">1</Option>
    <Option name="EstimatorType" modified="No">MSE</Option>
    <Option name="NeuronInputType" modified="No">sum</Option>
    <Option name="V" modified="Yes">True</Option>
    <Option name="VerbosityLevel" modified="No">Verbose</Option>
    <Option name="VarTransform" modified="Yes">Norm</Option>
    <Option name="H" modified="Yes">False</Option>
    <Option name="CreateMVAPdfs" modified="No">False</Option>
    <Option name="IgnoreNegWeightsInTraining" modified="No">False</Option>
    <Option name="TrainingMethod" modified="Yes">BFGS</Option>
    <Option name="LearningRate" modified="Yes">1.000000e-01</Option>
    <Option name="DecayRate" modified="No">1.000000e-02</Option>
    <Option name="TestRate" modified="Yes">6</Option>
    <Option name="EpochMonitoring" modified="No">False</Option>
    <Option name="Sampling" modified="Yes">5.000000e-01</Option>
    <Option name="SamplingEpoch" modified="Yes">8.000000e-01</Option>
    <Option name="SamplingImportance" modified="No">1.000000e+00</Option>
    <Option name="SamplingTraining" modified="No">True</Option>
    <Option name="SamplingTesting" modified="No">False</Option>
    <Option name="ResetStep" modified="No">50</Option>
    <Option name="Tau" modified="No">3.000000e+00</Option>
    <Option name="BPMode" modified="No">sequential</Option>
    <Option name="BatchSize" modified="No">-1</Option>
    <Option name="ConvergenceImprove" modified="Yes">1.000000e-06</Option>
    <Option name="ConvergenceTests" modified="Yes">15</Option>
    <Option name="UseRegulator" modified="Yes">False</Option>
    <Option name="UpdateLimit" modified="No">10000</Option>
    <Option name="CalculateErrors" modified="No">False</Option>
    <Option name="WeightRange" modified="No">1.000000e+00</Option>
  </Options>
  <Variables NVar="17">
    <Variable VarIndex="0" Expression="235U" Label="235U" Title="235U" Unit="IsotopicFraction" Internal="235U" Type="F" Min="7.15515739e-07" Max="1.93479098e-02"/>
    <Variable VarIndex="1" Expression="238U" Label="238U" Title="238U" Unit="IsotopicFraction" Internal="238U" Type="F" Min="7.85207689e-01" Max="9.69842970e-01"/>
    <Variable VarIndex="2" Expression="237Np" Label="237Np" Title="237Np" Unit="IsotopicFraction" Internal="237Np" Type="F" Min="4.04468947e-09" Max="1.98286740e-04"/>
    <Variable VarIndex="3" Expression="238Pu" Label="238Pu" Title="238Pu" Unit="IsotopicFraction" Internal="238Pu" Type="F" Min="6.50493419e-08" Max="3.96042038e-03"/>
    <Variable VarIndex="4" Expression="239Pu" Label="239Pu" Title="239Pu" Unit="IsotopicFraction" Internal="239Pu" Type="F" Min="2.15571206e-02" Max="1.92257911e-01"/>
    <Variable VarIndex="5" Expression="240Pu" Label="240Pu" Title="240Pu" Unit="IsotopicFraction" Internal="240Pu" Type="F" Min="1.33006623e-07" Max="3.96319740e-02"/>
    <Variable VarIndex="6" Expression="241Pu" Label="241Pu" Title="241Pu" Unit="IsotopicFraction" Internal="241Pu" Type="F" Min="6.24519387e-08" Max="7.22615374e-03"/>
    <Variable VarIndex="7" Expression="242Pu" Label="242Pu" Title="242Pu" Unit="IsotopicFraction" Internal="242Pu" Type="F" Min="8.34243394e-08" Max="1.96528691e-03"/>
    <Variable VarIndex="8" Expression="241Am" Label="241Am" Title="241Am" Unit="IsotopicFraction" Internal="241Am" Type="F" Min="1.65452789e-08" Max="7.54114473e-03"/>
    <Variable VarIndex="9" Expression="242Amm" Label="242Amm" Title="242Amm" Unit="IsotopicFraction" Internal="242Amm" Type="F" Min="6.06186461e-07" Max="1.19253220e-02"/>
    <Variable VarIndex="10" Expression="243Am" Label="243Am" Title="243Am" Unit="IsotopicFraction" Internal="243Am" Type="F" Min="2.29166894e-10" Max="1.97647460e-04"/>
    <Variable VarIndex="11" Expression="242Cm" Label="242Cm" Title="242Cm" Unit="IsotopicFraction" Internal="242Cm" Type="F" Min="1.77295856e-09" Max="1.99391827e-04"/>
    <Variable VarIndex="12" Expression="243Cm" Label="243Cm" Title="243Cm" Unit="IsotopicFraction" Internal="243Cm" Type="F" Min="3.28195271e-09" Max="1.98642912e-04"/>
    <Variable VarIndex="13" Expression="244Cm" Label="244Cm" Title="244Cm" Unit="IsotopicFraction" Internal="244Cm" Type="F" Min="2.76963896e-09" Max="1.96067282e-04"/>
    <Variable VarIndex="14" Expression="245Cm" Label="245Cm" Title="245Cm" Unit="IsotopicFraction" Internal="245Cm" Type="F" Min="8.91686669e-10" Max="1.98854599e-04"/>
    <Variable VarIndex="15" Expression="246Cm" Label="246Cm" Title="246Cm" Unit="IsotopicFraction" Internal="246Cm" Type="F" Min="7.54759633e-09" Max="1.99151866e-04"/>
    <Variable VarIndex="16" Expression="Time" Label="Time" Title="Time" Unit="seconds" Internal="Time" Type="F" Min="0.00000000e+00" Max="1.89328320e+08"/>
  </Variables>
  <Spectators NSpec="0"/>
  <Classes NClass="1">
    <Class Name="Regression" Index="0"/>
  </Classes>
  <Targets NTrgt="1">
    <Target TargetIndex="0" Expression="k_inf" Label="k_inf" Title="k_inf" Unit="" Internal="k_inf" Type="F" Min="7.71426022e-01" Max="1.70245004e+00"/>
  </Targets>
  <Transformations NTransformations="1">
    <Transform Name="Normalize">
      <Selection>
        <Input NInputs="18">
          <Input Type="Variable" Label="235U" Expression="235U"/>
          <Input Type="Variable" Label="238U" Expression="238U"/>
          <Input Type="Variable" Label="237Np" Expression="237Np"/>
          <Input Type="Variable" Label="238Pu" Expression="238Pu"/>
          <Input Type="Variable" Label="239Pu" Expression="239Pu"/>
          <Input Type="Variable" Label="240Pu" Expression="240Pu"/>
          <Input Type="Variable" Label="241Pu" Expression="241Pu"/>
          <Input Type="Variable" Label="242Pu" Expression="242Pu"/>
          <Input Type="Variable" Label="241Am" Expression="241Am"/>
          <Input Type="Variable" Label="242Amm" Expression="242Amm"/>
          <Input Type="Variable" Label="243Am" Expression="243Am"/>
          <Input Type="Variable" Label="242Cm" Expression="242Cm"/>
          <Input Type="Variable" Label="243Cm" Expression="243Cm"/>
          <Input Type="Variable" Label="244Cm" Expression="244Cm"/>
          <Input Type="Variable" Label="245Cm" Expression="245Cm"/>
          <Input Type="Variable" Label="246Cm" Expression="246Cm"/>
          <Input Type="Variable" Label="Time" Expression="Time"/>
          <Input Type="Target" Label="k_inf" Expression="k_inf"/>
        </Input>
        <Output NOutputs="18">
          <Output Type="Variable" Label="235U" Expression="235U"/>
          <Output Type="Variable" Label="238U" Expression="238U"/>
          <Output Type="Variable" Label="237Np" Expression="237Np"/>
          <Output Type="Variable" Label="238Pu" Expression="238Pu"/>
          <Output Type="Variable" Label="239Pu" Expression="239Pu"/>
          <Output Type="Variable" Label="240Pu" Expression="240Pu"/>
          <Output Type="Variable" Label="241Pu" Expression="241Pu"/>
          <Output Type="Variable" Label="242Pu" Expression="242Pu"/>
          <Output Type="Variable" Label="241Am" Expression="241Am"/>
          <Output Type="Variable" Label="242Amm" Expression="242Amm"/>
          <Output Type="Variable" Label="243Am" Expression="243Am"/>
          <Output Type="Variable" Label="242Cm" Expression="242Cm"/>
          <Output Type="Variable" Label="243Cm" Expression="243Cm"/>
          <Output Type="Variable" Label="244Cm" Expression="244Cm"/>
          <Output Type="Variable" Label="245Cm" Expression="245Cm"/>
          <Output Type="Variable" Label="246Cm" Expression="246Cm"/>
          <Output Type="Variable" Label="Time" Expression="Time"/>
          <Output Type="Target" Label="k_inf" Expression="k_inf"/>
        </Output>
      </Selection>
      <Class ClassIndex="0">
        <Ranges>
          <Range Index="0" Min="7.1551573910255684e-07" Max="1.9347909837961197e-02"/>
          <Range Index="1" Min="7.8520768880844116e-01" Max="9.6984297037124634e-01"/>
          <Range Index="2" Min="4.0446894722379056e-09" Max="1.9828673976007849e-04"/>
          <Range Index="3" Min="6.5049341912981617e-08" Max="3.9604203775525093e-03"/>
          <Range Index="4" Min="2.1557120606303215e-02" Max="1.9225791096687317e-01"/>
          <Range Index="5" Min="1.3300662260462559e-07" Max="3.9631973952054977e-02"/>
          <Range Index="6" Min="6.2451938731555856e-08" Max="7.2261537425220013e-03"/>
          <Range Index="7" Min="8.3424339436533046e-08" Max="1.9652869086712599e-03"/>
          <Range Index="8" Min="1.6545278924695594e-08" Max="7.5411447323858738e-03"/>
          <Range Index="9" Min="6.0618646102739149e-07" Max="1.1925322003662586e-02"/>
          <Range Index="10" Min="2.2916689379481880e-10" Max="1.9764745957218111e-04"/>
          <Range Index="11" Min="1.7729585577441753e-09" Max="1.9939182675443590e-04"/>
          <Range Index="12" Min="3.2819527095995227e-09" Max="1.9864291243720800e-04"/>
          <Range Index="13" Min="2.7696389626186146e-09" Max="1.9606728164944798e-04"/>
          <Range Index="14" Min="8.9168666894678950e-10" Max="1.9885459914803505e-04"/>
          <Range Index="15" Min="7.5475963257076728e-09" Max="1.9915186567232013e-04"/>
          <Range Index="16" Min="0.0000000000000000e+00" Max="1.8932832000000000e+08"/>
          <Range Index="17" Min="7.7142602205276489e-01" Max="1.7024500370025635e+00"/>
        </Ranges>
      </Class>
    </Transform>
  </Transformations>
  <MVAPdfs/>
  <Weights>
    <Layout NLayers="5">
      <Layer Index="0" NNeurons="18">
        <Neuron NSynapses="18">
          8.2198505606493652e-02 1.2249414239320020e+00 5.2591238370523796e-01 6.7190832737000084e-01 -1.1953749224631691e+00 -3.0738921746652775e-01 -3.0628886985917186e-01 1.3720318980654828e-01 -4.8356919914309023e-02 -1.0007937959227046e-01 -4.9657011634900300e-01 -2.3569414293915301e-03 -4.2686134532115207e-02 1.2764325210350491e-01 -6.8987117114098925e-02 -7.5986638981299759e-02 -1.7831197567135779e-01 1.1588289124892788e+00 
        </Neuron>
        <Neuron NSynapses="18">
          -9.9551986118872563e-03 1.8441400588741617e+00 -5.9723272080687714e-02 -6.7885006301117434e-01 6.5853147821260882e-01 1.0313378387445755e+00 -2.0265448241119364e+00 -1.0574999780104362e+00 1.1717358675983820e+00 -1.5443947482451978e+00 -2.3989751400684844e+00 3.8442882244834148e-01 5.4730691456389507e-02 2.5469837864345881e+00 -5.7758911978130112e-01 -1.2866882440179301e+00 -1.3353505404842689e-01 -2.7989711762316966e-01 
        </Neuron>
        <Neuron NSynapses="18">
          1.6630373776349888e-02 1.4089726782873797e+00 -3.7871904387094057e-01 6.8249014943698283e-01 1.1552319919793499e+00 2.0170609555007532e-01 1.0698114529244589e+00 3.5297278627002701e-02 -3.4281166785424810e-01 -1.7032702534373276e-01 1.2415297121062426e-01 -1.2284790923079391e-02 1.8241825470308165e-01 -2.6621537737377101e-02 1.1045181954257395e+00 -3.6359741315003517e-02 8.0952786034705654e-02 1.6178803555181462e+00 
        </Neuron>
        <Neuron NSynapses="18">
          -7.6749630126277443e-03 -5.1065768667327460e-01 -9.2275523829754380e-01 -1.2885237916196071e+00 1.2937753552347042e+00 -1.5985436168684371e-02 -1.0013791185240164e+00 -4.1504515837658712e-02 -2.4183517552355185e-01 -8.5374475547666209e-02 7.5406947258790102e-01 -7.2807656428159215e-02 8.5418288201993195e-03 1.3999654807262715e-01 3.3552424772100070e-01 -2.2648352323394208e-01 -4.5670281973981618e-02 -6.8109920196291007e-01 
        </Neuron>
        <Neuron NSynapses="18">
          9.9689196515629452e-01 7.3895723997588314e-01 7.8196090441551946e-01 -6.2001426422044381e-01 -2.3124022431216891e+00 -2.1965105956699462e+00 1.5855082994169842e+00 1.5608289621709839e+00 1.8934908663257299e+00 -6.3146353850759757e-02 1.4375667728561388e+00 -1.6243113592603561e-01 -9.2630057861115589e-01 -1.6998777555515757e-01 9.1527401339376069e-01 -5.7661553220469786e-01 -1.4172388954159583e+00 -1.5596868930906007e+00 
        </Neuron>
        <Neuron NSynapses="18">
          -2.9435793961246753e-01 8.5241666538071678e-02 1.8117963614694106e+00 -1.7761922034661783e+00 -1.5894740750662453e-01 4.7841789902510451e-01 -1.6505919190830305e+00 -3.0444667082835430e-01 -9.3241956780604773e-01 9.9064995039145010e-01 -1.0509324831895503e+00 -8.8716587041916373e-01 2.6057654535290564e+00 2.0504786553760805e+00 -9.6797847920059199e-01 2.8808246393317711e+00 -1.8737820174163930e-01 -1.4228148973971111e-01 
        </Neuron>
        <Neuron NSynapses="18">
          9.9391555324240433e-02 6.3555108643638836e-01 -1.0027283569120395e+00 -2.3956962203667795e-01 6.4543315055925454e-01 -5.1500659225532430e-01 -1.5647284083416835e+00 8.3498637610669071e-02 6.8673971819133728e-01 -2.0201549446081679e-01 3.4134746413204592e-01 6.8434035979520524e-02 -5.5601054463898980e-01 -3.4486199240526716e-01 -2.8025156397914752e-01 5.9903427097043094e-01 1.5373042494871800e-01 8.2862130506689069e-01 
        </Neuron>
        <Neuron NSynapses="18">
          -3.5577943029527555e-02 2.4191018845878751e-02 -1.0210495794313759e+00 8.8295210495834808e-01 4.8474473583800609e-01 7.2085316232039398e-02 4.0546024892161046e-02 -1.7556823693081397e-02 9.9844932481060970e-03 -3.4392519465432148e-02 7.6510511639366918e-01 -3.2090857474209832e-03 1.7996996050105005e-01 1.0133403403816542e-01 2.9468950635991153e-01 2.4435325867916503e-02 9.9992764867912295e-02 -9.8118635579760957e-02 
        </Neuron>
        <Neuron NSynapses="18">
          -1.8234524792141071e-01 1.1825718239599443e+00 7.5722208445893324e-01 -9.0681472805985786e-01 -3.6215587102303581e-01 -1.4796055366687955e-01 -1.3354212063497595e+00 -2.1509276577971301e-01 1.3776908342632084e+00 -7.9074398008662594e-01 -4.4719358026271827e-01 -2.8783691662118394e-01 5.4461057817083613e-01 1.0267930413118691e+00 5.3458203761629952e-01 -1.0071076213360599e+00 -8.3427079563440851e-02 1.4908631364820808e+00 
        </Neuron>
        <Neuron NSynapses="18">
          5.9559450566608396e-01 5.6571767005162074e-02 1.4191376514231477e+00 -9.7613258024060157e-01 -4.4722094851471574e-04 8.5523900564502042e-01 -1.2035584425642296e+00 2.9571575003571493e-01 2.1763881198591855e+00 1.6097882514631461e+00 4.7906193368862110e-01 1.0398918026154185e+00 5.0146783919043825e-01 -2.5401383576990217e+00 3.4946312437694527e-01 4.8235524911264110e-01 1.0867003008674472e+00 -1.1211808328131589e+00 
        </Neuron>
        <Neuron NSynapses="18">
          -9.7550772563322133e-03 7.9278452161020874e-01 1.3330314468743198e+00 -1.0389211325275489e+00 -1.8626263446988180e-02 1.5033264672159799e-01 4.2409944389255133e-01 -1.8322209772941203e-02 -7.0992493152368108e-02 -2.1754874273847177e-01 -8.9404355360173660e-01 -2.4057501509248059e-02 2.7444518089222791e-01 1.9127873876261620e-01 3.6310849566298481e-01 -5.7667922485680545e-01 -4.4572035460611177e-02 1.4164538725586040e+00 
        </Neuron>
        <Neuron NSynapses="18">
          1.6769960244894518e-02 -7.7201202355360632e-01 -9.3458511976692735e-02 2.2728732542467972e-01 3.5907937057561395e-01 1.4875519735813097e-01 8.6919357134120245e-01 3.5545704711614605e-02 -1.0558208637278313e-01 1.0691236102736135e-01 8.4618104840546615e-01 3.4826068670297736e-02 3.8990351188154371e-01 5.3637596344605180e-02 -1.3575896246433961e+00 -1.2705022139681091e-01 9.1862667875271226e-02 1.3840252860925990e+00 
        </Neuron>
        <Neuron NSynapses="18">
          -1.0534754252639379e-02 3.2020572611357234e-01 1.1299866083154195e+00 -1.0930883036291899e+00 -5.6337219227016022e-01 -4.1924486972383002e-01 -1.1226695494838372e+00 -8.2598953921410076e-02 9.4870070887421654e-01 -4.8176908051844536e-01 -9.1287335898970451e-02 -4.5702913667944713e-03 -4.6346783930759267e-01 -1.1334997957664180e-02 3.3459172003058174e-01 3.1889012072019760e-02 -1.1472810806508975e-01 -4.3364011264651242e-01 
        </Neuron>
        <Neuron NSynapses="18">
          -7.6889069729344393e-03 -1.1383657276582531e+00 9.2006284268699057e-01 -1.5123308459605039e-01 -7.0510239363850269e-01 -8.8432540929754694e-02 -1.1781521131599044e+00 -5.3456508588520576e-03 -8.4635405365024208e-01 -1.7254829405653757e-01 -9.9139146666407951e-01 -3.2054125743672987e-02 -1.6214714659129309e-01 9.0980058931043398e-02 1.0046340628843513e+00 6.7777793437679854e-02 -4.0448186240219799e-02 -7.9546010593576566e-01 
        </Neuron>
        <Neuron NSynapses="18">
          -9.2034538857221019e-03 8.4772803860838120e-01 4.8517868186906060e-01 -7.5746238181409820e-01 -1.1876505614363699e+00 -3.9645823419283449e-01 -3.0038505272796434e-01 -3.4849991219262896e-02 2.6158433674288173e-01 -1.0810446499941249e-01 8.8823442490632321e-01 6.8194844679835128e-04 -2.4398936719126418e-01 -2.5994050050092331e-02 -1.6954871901435604e+00 1.0230307685308146e-01 -6.6253365959657612e-02 -1.8782608701777154e-01 
        </Neuron>
        <Neuron NSynapses="18">
          5.8270574937877209e-03 8.4380018035544146e-01 8.3749647380342618e-01 -1.1247404987380358e-01 -2.9242780501355731e-01 -1.0925744037173363e-01 4.7181919243050141e-01 2.3562116126293775e-02 6.5451810026393320e-01 -3.1031541586688263e-02 2.4951011773359918e-01 6.0140487594554148e-02 1.4904681863840877e-01 1.5040503416971690e-01 -1.2590220288148977e+00 -4.5589648244010697e-02 7.0108689648541556e-02 1.9130078242363560e+00 
        </Neuron>
        <Neuron NSynapses="18">
          -1.2645703959801646e+00 2.1680497141252051e+00 -1.1804658184834043e+00 1.4818851386655640e+00 -2.2009353524690092e-01 7.8071158587424139e-01 1.7493560745190089e+00 -1.6150952593203758e+00 3.3613485237961127e-01 1.6742965931791918e+00 -2.7499028577829558e+00 -3.8700625310830064e+00 -6.2661983143582867e-01 1.0078211127717363e-02 2.5579521776263281e+00 -2.0755669594549482e+00 9.4915262384230847e-01 -2.9452109944073052e-01 
        </Neuron>
        <Neuron NSynapses="18">
          -1.7794941739697567e+00 -1.7849257714382063e+00 -4.0462316749628674e-01 -2.5486132852565474e-01 1.4390366873648084e+00 -2.7010227986245137e+00 1.0503637646363807e-01 1.2292160766676961e+00 6.1725939107201233e-01 1.8434357785949940e+00 1.2513413343825956e+00 -4.9834104271245216e+00 2.0101092784600252e+00 -2.1828112672633933e+00 2.3955251582190784e-01 4.3961362769679319e-01 1.0889876989911165e-01 -2.1826886564402601e+00 
        </Neuron>
      </Layer>
      <Layer Index="1" NNeurons="19">
        <Neuron NSynapses="21">
          2.7513990704094654e-01 1.6448493332273406e+00 1.4413892147766163e+00 2.0147092705173746e+00 -2.7373099872658431e+00 9.0568717258681752e-01 -1.8686441192561873e+00 1.0874263553864867e+00 -9.1907425774699525e-01 -2.5589674541719849e+00 2.6601580484890675e-01 2.9129126730104882e+00 7.9556335613069640e-01 -1.6116903563593135e+00 3.5685739867447125e-01 -2.4933673619167446e-01 -7.6402540529116025e-01 -2.6669802353664046e-01 1.8643989434970645e+00 -1.3459299892330479e+00 5.1184834880596142e-01 
        </Neuron>
        <Neuron NSynapses="21">
          -1.2740119847666387e+00 -5.2751973711259348e-01 2.5694572578536329e-01 1.2532069484978942e-01 -2.7908543910701489e-01 1.0293670918705364e+00 1.6851355840588012e+00 8.1286767230905055e-01 -3.6339331846623962e-01 -7.0019318318100809e-01 -1.4905028468253370e+00 -4.4683751119907567e-01 1.7660954707246923e-01 -1.0802901996498113e-01 -1.1362811977552978e+00 5.1619970226123824e-01 -1.6813827441857332e+00 -8.6002678217258266e-01 -1.6773163964642954e+00 9.8908333477602184e-01 -1.3856919775107996e+00 
        </Neuron>
        <Neuron NSynapses="21">
          -1.8651386431508234e+00 -5.8758765974911453e-01 -6.6889234477752957e-01 -7.2409579643346700e-01 2.6470075230049867e-01 -1.4195115236775906e+00 -1.0879047372199460e+00 1.4064065080390229e+00 6.9665891374019939e-01 -2.2164550913496131e-01 5.9860203382235655e-01 4.6800527046488030e-02 1.5952750918737120e+00 3.5493140408055741e-02 -6.4493949729263822e-01 -6.9654846860656805e-01 -1.7636277161809553e+00 3.8990456569796605e-01 5.9461715030040307e-01 1.5489988836875740e-01 1.0283556562127940e+00 
        </Neuron>
        <Neuron NSynapses="21">
          7.0328918880320501e-01 1.0104349957818322e+00 -9.1462011173735747e-01 1.4177396205602357e+00 6.8585811774496394e-02 -1.8338217479147347e+00 -9.7326048344392860e-02 -9.7555297353769643e-01 7.8326341333180693e-01 -7.0279548410451670e-02 9.6683544304970725e-01 4.7817839659282707e-01 -5.9897832601198764e-01 3.8082489591849700e-01 1.7166622563397960e+00 9.8935423644100781e-02 -1.0744952983367404e+00 9.5490257333905360e-01 -1.8884836834418766e+00 7.4088254620348348e-01 1.6622296889506640e+00 
        </Neuron>
        <Neuron NSynapses="21">
          -5.7650387308819728e-01 -1.3957980900044742e+00 -2.6457895973835427e-01 -1.0616920602627720e+00 -1.4762218988980330e-01 -1.9378227484680091e+00 2.5265415386143608e-01 3.7353325663308590e-01 2.1595466987477989e+00 2.1239436523796884e-01 1.3724677080693053e+00 2.1465397294675076e-01 4.6298212111110720e-01 2.2521248691275639e-01 1.8532324529743773e+00 -1.9406412218957942e+00 -1.5857585745420419e+00 -4.3692012971090827e-01 -1.4923437959046508e+00 -1.2944680532484014e+00 -1.0646917552583732e+00 
        </Neuron>
        <Neuron NSynapses="21">
          9.9093655783633394e-01 -3.7315469727222150e-01 -1.9680701622068244e+00 -1.9568751160724509e+00 -1.0446083209373160e+00 1.8363349687414228e+00 1.8629297037665862e+00 1.2070699896524657e+00 -8.5287214236704556e-01 -1.4634792934560967e+00 -2.6516131256676767e-01 -9.2388222751808913e-01 -1.4984767833947656e+00 -1.6712889928796942e-01 3.5421038901197830e-03 -1.4996693319087957e+00 1.4707747075366606e+00 7.6429322576675907e-01 7.4798174736520243e-02 -3.2056837440666236e-01 -7.6740453496907246e-01 
        </Neuron>
        <Neuron NSynapses="21">
          1.4570401685834913e+00 -1.1232908997107285e+00 3.8420604413817622e-01 1.8887229985265439e+00 8.3698119373576996e-01 -9.8202788739643954e-01 1.5029303216857952e+00 -1.4868210592110245e+00 1.7616888945000018e+00 6.6406679885429420e-01 -4.2432690728500611e-01 3.9269924588629396e-01 -1.9658665350548135e-01 -1.0944795225635254e-01 1.3225743468753808e+00 2.0291468983001820e-01 -8.3470105034104347e-01 -1.8377778266338796e+00 -2.5091976292487528e-01 1.9069809114990592e+00 5.9399020827063753e-01 
        </Neuron>
        <Neuron NSynapses="21">
          -1.0786944949284745e+00 -1.9567629849122465e+00 1.9942464945748688e+00 4.5584659530524863e-01 -6.6083951819307662e-01 -3.4755518328470003e-01 -8.8705515977929061e-01 1.1456717278964894e+00 2.0391175862949891e+00 -8.4515103630838317e-01 -9.4497178501420276e-01 1.1951141935139415e+00 1.6290428564861952e+00 -4.9205099818429965e-01 4.3323536174826260e-01 -1.3198150629754903e+00 -1.2003839060060788e+00 1.0477553051800834e+00 8.8318459528822404e-02 3.0203601796050955e-01 -1.4822808990465008e+00 
        </Neuron>
        <Neuron NSynapses="21">
          -1.7028547268073675e+00 -1.9802233714269895e+00 -7.2036881944152187e-01 -8.4174640987627702e-01 4.7938087725164424e-01 -4.3649342637169480e-01 1.5911630624005630e+00 -3.7086354563721141e-01 -1.4754935458017908e+00 4.5350133168805018e-01 1.4605186595772581e+00 6.6008194774997905e-02 4.8551090657056295e-01 -3.3328865997012558e-01 1.9640951475365709e+00 -1.6584601791770270e+00 -1.7165130475342693e-02 -1.3535187467816572e+00 1.1217483789843383e+00 -1.0238385750436627e+00 7.5746315572983103e-01 
        </Neuron>
        <Neuron NSynapses="21">
          -1.0721712597981146e+00 1.7621670240011638e-02 -1.3027025902614269e+00 -7.7678245174184990e-01 3.2335560398727442e-01 3.2319647275450758e-01 1.1029183973425920e+00 6.6110419941833343e-01 -1.2633945641231557e+00 5.1139157372829869e-02 -1.9658457951140751e+00 -8.1525048213952223e-01 2.1805591782486626e+00 -6.9251678631723823e-01 1.7753997449096430e+00 1.4067661768894082e+00 -2.9988744427934200e+00 -7.7268667748500619e-01 -9.1285164447303624e-01 1.1545722538568590e+00 4.9648004205880636e-01 
        </Neuron>
        <Neuron NSynapses="21">
          -4.1167164853246735e-01 -5.5826412262388225e-01 -4.5974515971495122e-01 -9.8980420276314085e-01 3.4988464051209539e-01 -2.0465903686308859e+00 -2.3083836912318706e-01 3.3445160684965780e-01 4.7941304649123169e-02 -4.2903020526262431e-01 4.3188958942730650e-02 -2.2915256329264261e-01 1.0920196447793196e-01 -2.8207883252770671e-01 2.0624135946583215e+00 -3.8250369385406030e-01 6.7238477321824364e-01 8.5752596473121290e-01 -1.4813738589410110e+00 -8.4600067353341357e-01 9.6590168444912805e-02 
        </Neuron>
        <Neuron NSynapses="21">
          -2.0186894130638864e+00 -7.7765828081793853e-01 -1.2929433494362912e+00 2.1603552656701215e+00 -3.1541433087562236e+00 1.3867718171177008e+00 1.6513502010998178e+00 2.2884552744833937e+00 1.5746725776722108e+00 -5.0410260645930471e-01 3.6154275795687763e-01 3.0682029753226736e-01 -3.6890937769032361e+00 -2.5026407790814891e+00 -7.6975398562616626e-01 1.3775849641867157e+00 6.7489367644169040e-01 -7.6018750322615136e-01 1.4122754430867948e+00 1.1819720064873969e+00 -1.2689531435881203e+00 
        </Neuron>
        <Neuron NSynapses="21">
          -1.0862563994460704e-01 -1.8221187212779866e+00 1.0365975557189993e+00 -1.5957295430867309e+00 5.3156790164155443e-01 -3.4678904126678312e-01 9.9261449854117345e-01 -1.1923863010606899e+00 8.6306692728862300e-01 -9.8000068546130403e-01 2.4918235781035902e-01 1.0302900552429323e-01 -1.6021526415985646e-01 1.6394039413781925e-01 -1.4815973745988933e+00 9.8991712249196850e-01 1.1518141595610888e-01 4.2954754018820235e-01 -1.8508963148592412e+00 -8.6369327959849540e-01 1.8566434916444350e+00 
        </Neuron>
        <Neuron NSynapses="21">
          -1.8048394741380729e+00 -1.7252989963348730e+00 -5.3686149266333782e-01 5.1846112267581690e-01 2.1485393547637295e+00 1.4932625375631507e+00 -1.6262271964748962e+00 6.8399785861963147e-01 7.1878247282591679e-01 2.2879583543518239e-01 -5.8520732713503620e-01 8.8987065874742477e-01 2.1213610913505260e-01 8.1764758041809471e-01 1.6830067640552404e+00 -7.1619934492278647e-01 4.2664826493176466e-01 -1.1015315394699667e+00 1.3266588238582664e+00 6.6667495257847675e-01 1.2712042878216006e+00 
        </Neuron>
        <Neuron NSynapses="21">
          -8.7482786991481043e-01 -1.5592898112881577e+00 5.5915436904695293e-01 7.4051246776848201e-01 2.7626826535988930e-01 -1.2653344248659512e-01 -8.5738469827667840e-01 -7.9378346508789799e-01 -1.1676963948841415e+00 -5.4527641888075939e-01 -1.4026738758437451e+00 -2.2953081215122273e-01 -1.2341679119570884e-01 -1.9756739831594514e-01 9.8342755272248483e-01 -1.9901205757172271e+00 -1.4571509120779280e+00 -4.2769422250969569e-01 -8.2736680219474990e-01 7.7702953705631606e-01 1.6207048660256222e+00 
        </Neuron>
        <Neuron NSynapses="21">
          -1.9193141452110123e+00 -4.5084304240784462e-01 -1.1670415034735955e+00 -1.0793820182474521e+00 6.5106993010419098e-02 -1.0916293985662322e+00 -7.1652630626522140e-01 -1.3872207618591472e+00 1.5636609629758413e+00 9.3645864307868953e-01 1.4562989157986503e+00 1.4365128013616149e-01 5.2010604802918171e-02 -2.0944949987692194e-01 -9.4377404598196712e-01 4.2798719409986774e-01 8.0103800083457666e-01 6.4805300920623143e-01 -1.3757265858714183e+00 8.1277603782924357e-01 1.9633268662268380e-01 
        </Neuron>
        <Neuron NSynapses="21">
          -1.4087828014691537e+00 1.4367973227265187e+00 1.2646377325148452e+00 -1.5939882119707112e+00 -9.1698342232715813e-01 -1.6915261965574966e+00 3.4474749240245428e-01 8.5488168956157096e-01 8.1380178274666348e-01 9.4328324953128528e-01 -1.9995306399881529e+00 -1.1293155574312577e+00 -6.7188010607546911e-01 4.8949392996375574e-02 1.5217051084374293e+00 -1.7086272810942631e+00 4.9358337387355428e-01 -5.4039771173832585e-01 8.0507189089413216e-03 -1.4721314379990897e+00 1.0664222090090172e+00 
        </Neuron>
        <Neuron NSynapses="21">
          2.9583205057041639e-01 1.6506903615428898e+00 -9.3790822351917003e-01 8.9197401227564244e-01 6.2380451449398133e-01 1.4432188925618239e+00 -5.8494713957326294e-01 -1.3427958436312308e+00 -1.8094362152347154e+00 3.5771317819370908e-02 1.0858094222610803e+00 -7.6679593653321110e-02 1.0021661338207506e+00 -3.3011218778315227e-01 -3.2585209179479269e-01 1.1208808805323898e+00 2.9691087070667133e-01 -1.4034076395117410e+00 2.4146502819210733e-01 1.1530842647367523e+00 1.8975233712605557e+00 
        </Neuron>
        <Neuron NSynapses="21">
          4.6121932189243298e-01 -1.3809804629242519e+00 -4.9920007551886375e-01 -9.2243527129220115e-01 1.6536728890070876e-01 -1.0721527922934588e+00 8.7042079249434134e-01 3.2772236728718357e-01 -3.5582038245340475e-01 1.6144234010721337e+00 1.3305932798277924e+00 -6.7476470473326577e-01 4.0437378177979955e-01 1.3771162950993492e+00 1.4067031117144342e+00 -1.9393505712916677e+00 1.4862840811070790e+00 -8.0512057970890338e-02 -1.1470180433132116e+00 2.2998167947117611e+00 -1.3072453613708133e+00 
        </Neuron>
      </Layer>
      <Layer Index="2" NNeurons="22">
        <Neuron NSynapses="9">
          -4.6298503736598901e-01 1.0429139832302674e+00 7.1865258115447106e-01 3.1339419017867846e-02 -1.1082597691870294e-01 1.8688111379225154e+00 2.1161721050942850e+00 2.8719015481440857e-01 -7.1908700297837136e-01 
        </Neuron>
        <Neuron NSynapses="9">
          1.7222644467890036e+00 1.6957470877880838e+00 -2.2130604342565099e-01 6.8531716278179378e-01 -3.1459324418572121e-01 1.2370513678400656e+00 -1.5233133849917624e+00 -3.6670660113091258e-01 -5.8297445531830383e-01 
        </Neuron>
        <Neuron NSynapses="9">
          1.8295288590114129e+00 -1.6249871526986386e+00 9.7785647923595753e-01 -1.3630981285978554e+00 1.7099650639460867e-01 9.6587130944571575e-01 1.5658614530600701e+00 -1.6141038845203550e+00 -7.2373211729727127e-01 
        </Neuron>
        <Neuron NSynapses="9">
          -4.6846594539596093e-01 7.9960534565639096e-01 2.1966260976551610e+00 9.3526060837739766e-01 3.5269962897813634e-01 -2.3421290493239230e-01 1.0248610555033630e+00 -5.3018232282235889e-01 1.7664576763042994e-01 
        </Neuron>
        <Neuron NSynapses="9">
          9.7352094357785834e-01 -5.0800925685360032e-01 -1.0947916700371594e+00 1.4471872084492712e-01 -1.6237420750670200e+00 1.9407020622784534e+00 -1.8116772405304526e-01 -6.1013738434172871e-01 -1.9114772647927247e+00 
        </Neuron>
        <Neuron NSynapses="9">
          -1.0053979899269163e+00 -1.1462442050237283e+00 -9.4532826845992723e-01 5.6355370883396394e-01 1.0196830607013845e+00 1.6794106446375292e+00 -1.5992310732141601e-01 -1.1652593286216728e+00 -1.7657020191894395e+00 
        </Neuron>
        <Neuron NSynapses="9">
          5.4132838546862250e-01 1.9516609350884623e-01 2.4885997585390432e-01 -1.1682790530372555e+00 7.0404533340048669e-01 1.0849410810015629e+00 -9.9380101579576263e-01 -1.5483447117238766e-01 5.1760487372118991e-01 
        </Neuron>
        <Neuron NSynapses="9">
          -1.4311869705359723e+00 -7.0001689147746171e-01 7.3835921447443775e-01 -1.5333109994757301e+00 5.6032559235869828e-01 -1.4897655744866909e+00 -4.6532683476779230e-01 -3.9069642236165736e-01 1.7131648169799771e+00 
        </Neuron>
        <Neuron NSynapses="9">
          2.5951893336220255e-01 -3.4115491258567965e-01 8.4320345621080861e-01 1.3275949710498389e-01 -9.9234774366190093e-01 1.8133064110081230e+00 8.5076409267989217e-01 4.5531861600858875e-01 -6.9798570857852871e-01 
        </Neuron>
        <Neuron NSynapses="9">
          -2.3253901499520571e+00 -5.5327484781284540e-02 -5.0656225881511163e-01 -1.4714451753247633e+00 -5.5299399034368968e-01 -5.3408747705551385e-01 1.6411399869494594e+00 -1.1888123850604673e+00 -1.3227818037501118e+00 
        </Neuron>
        <Neuron NSynapses="9">
          6.7458765257091646e-01 -1.0530790531618033e+00 8.1898644794252218e-01 -1.9355524260941617e+00 3.4311949080982479e-01 -3.2163576431620489e-01 -6.2942734217929386e-01 -6.6954545637922147e-01 1.4373947970325154e+00 
        </Neuron>
        <Neuron NSynapses="9">
          1.4412569734600575e+00 -1.8830248815653472e+00 1.3559149985525261e+00 -7.5025990078852611e-01 1.4247493106161506e+00 -2.7216269487451000e-01 1.0890962324381579e+00 1.6937827119659818e+00 -1.8538361488836094e-01 
        </Neuron>
        <Neuron NSynapses="9">
          2.7772808958455584e+00 8.7051641152041637e-01 -2.4458424533368914e+00 -4.1535021270612571e-01 1.6537581024580403e+00 1.4030843103544897e+00 7.9461417754673047e-01 2.0778135472731573e-03 -3.0274629225125445e+00 
        </Neuron>
        <Neuron NSynapses="9">
          -1.8176437341434597e+00 6.4058764167510496e-01 -2.2463737254043701e+00 2.9662831062370376e-01 -2.5317562687928858e+00 6.5289817817705975e-01 -1.9818559783409428e+00 -6.0610182356295128e-01 -3.4740661521900368e-01 
        </Neuron>
        <Neuron NSynapses="9">
          -2.4098992271499506e-01 -1.6434260670179826e+00 -1.0215626100247439e+00 -2.1327008587968006e+00 1.5734478696191052e+00 8.9304506267448480e-01 1.7448109232999893e+00 -7.3754264789851021e-01 -2.3143636926879410e-01 
        </Neuron>
        <Neuron NSynapses="9">
          1.0298180034267337e+00 1.2319465639295206e+00 -1.6471194230144531e-01 1.8633417330566471e+00 -6.4821280333586971e-03 3.3333486371511356e-01 2.9237653246538629e-02 8.5842639569368084e-01 -4.3444998076348815e-02 
        </Neuron>
        <Neuron NSynapses="9">
          -2.0458541659221980e+00 1.1673934520410576e+00 1.2011711413907764e+00 -3.1022377658737577e-01 6.6471086394342149e-01 1.6133379553539506e+00 1.8767264980349199e+00 -2.2955777329785865e+00 5.9407807410909885e-01 
        </Neuron>
        <Neuron NSynapses="9">
          1.3933681224337442e+00 -1.3479266382961699e+00 -1.3484306740446514e+00 7.4754965766573733e-01 4.1360033975085031e-01 6.3738541483600109e-01 -1.6385057567132360e+00 -1.3029667120231256e-01 8.2922838634230134e-01 
        </Neuron>
        <Neuron NSynapses="9">
          -1.4326465923977660e+00 -2.0052042802242238e+00 -7.7116953105079156e-01 1.8531970785873886e+00 9.3022432010879541e-01 1.5834148006644435e+00 1.5454373276217157e+00 1.0280306817843883e+00 7.8649698476828303e-02 
        </Neuron>
        <Neuron NSynapses="9">
          9.8585050043866196e-01 6.2481714411278899e-01 -1.2308220339857228e+00 -1.8878929554856814e+00 -7.6103048851478583e-01 3.8238311412752329e-01 -1.2297158751406962e+00 1.5684054756120560e+00 9.1401599351755625e-01 
        </Neuron>
        <Neuron NSynapses="9">
          -3.1162095097538295e-01 1.6609710826931223e+00 -4.3973393002275352e-01 1.7027229283583494e+00 3.8365572292693728e-01 7.3441667368668428e-01 3.5945192398748588e-01 1.4049988744343370e-01 -8.8318380125837004e-01 
        </Neuron>
        <Neuron NSynapses="9">
          1.1072473795898687e+00 1.8521742976694664e+00 -8.6978264943452599e-01 5.4998928784241438e-02 -1.1416167266405908e+00 4.2465550036382604e-01 -1.4277015395610877e+00 -2.1701478855027787e-01 -1.2451061971637476e+00 
        </Neuron>
      </Layer>
      <Layer Index="3" NNeurons="10">
        <Neuron NSynapses="1">
          2.1038993567481845e+00 
        </Neuron>
        <Neuron NSynapses="1">
          -2.6125852566816987e-01 
        </Neuron>
        <Neuron NSynapses="1">
          1.7092821609455255e+00 
        </Neuron>
        <Neuron NSynapses="1">
          -1.1897180445528983e+00 
        </Neuron>
        <Neuron NSynapses="1">
          6.1594931800105457e-01 
        </Neuron>
        <Neuron NSynapses="1">
          -1.5647535702612303e+00 
        </Neuron>
        <Neuron NSynapses="1">
          3.7605997525131402e-01 
        </Neuron>
        <Neuron NSynapses="1">
          7.4608066024966158e-01 
        </Neuron>
        <Neuron NSynapses="1">
          1.6319029235838090e+00 
        </Neuron>
        <Neuron NSynapses="1">
          -1.2553146121919265e+00 
        </Neuron>
      </Layer>
      <Layer Index="4" NNeurons="1">
        <Neuron NSynapses="0"/>
      </Layer>
    </Layout>
  </Weights>
</MethodSetup>
