<?xml version="1.0"?>
<MethodSetup Method="MLP::MLP_k_inf">
  <GeneralInfo>
    <Info name="TMVA Release" value="4.2.1 [262657]"/>
    <Info name="ROOT Release" value="6.06/02 [394754]"/>
    <Info name="Creator" value="mouginot"/>
    <Info name="Date" value="Tue Jul 11 14:03:35 2017"/>
    <Info name="Host" value="Linux kermit 4.4.0-71-generic #92-Ubuntu SMP Fri Mar 24 12:59:01 UTC 2017 x86_64 x86_64 x86_64 GNU/Linux"/>
    <Info name="Dir" value="/home/mouginot/work/MODEL/MODEL_DATA/MOX_TRU_MODELS/PWR_TRU/EQM_1000"/>
    <Info name="Training events" value="40000"/>
    <Info name="TrainingTime" value="1.26065684e+04"/>
    <Info name="AnalysisType" value="Regression"/>
  </GeneralInfo>
  <Options>
    <Option name="NCycles" modified="Yes">16000</Option>
    <Option name="HiddenLayers" modified="Yes">18,21,9</Option>
    <Option name="NeuronType" modified="Yes">sigmoid</Option>
    <Option name="RandomSeed" modified="No">1</Option>
    <Option name="EstimatorType" modified="No">MSE</Option>
    <Option name="NeuronInputType" modified="No">sum</Option>
    <Option name="V" modified="Yes">True</Option>
    <Option name="VerbosityLevel" modified="No">Verbose</Option>
    <Option name="VarTransform" modified="Yes">Norm</Option>
    <Option name="H" modified="Yes">False</Option>
    <Option name="CreateMVAPdfs" modified="No">False</Option>
    <Option name="IgnoreNegWeightsInTraining" modified="No">False</Option>
    <Option name="TrainingMethod" modified="Yes">BFGS</Option>
    <Option name="LearningRate" modified="Yes">1.000000e-01</Option>
    <Option name="DecayRate" modified="No">1.000000e-02</Option>
    <Option name="TestRate" modified="Yes">6</Option>
    <Option name="EpochMonitoring" modified="No">False</Option>
    <Option name="Sampling" modified="Yes">5.000000e-01</Option>
    <Option name="SamplingEpoch" modified="Yes">8.000000e-01</Option>
    <Option name="SamplingImportance" modified="No">1.000000e+00</Option>
    <Option name="SamplingTraining" modified="No">True</Option>
    <Option name="SamplingTesting" modified="No">False</Option>
    <Option name="ResetStep" modified="No">50</Option>
    <Option name="Tau" modified="No">3.000000e+00</Option>
    <Option name="BPMode" modified="No">sequential</Option>
    <Option name="BatchSize" modified="No">-1</Option>
    <Option name="ConvergenceImprove" modified="Yes">1.000000e-06</Option>
    <Option name="ConvergenceTests" modified="Yes">15</Option>
    <Option name="UseRegulator" modified="Yes">False</Option>
    <Option name="UpdateLimit" modified="No">10000</Option>
    <Option name="CalculateErrors" modified="No">False</Option>
    <Option name="WeightRange" modified="No">1.000000e+00</Option>
  </Options>
  <Variables NVar="17">
    <Variable VarIndex="0" Expression="235U" Label="235U" Title="235U" Unit="IsotopicFraction" Internal="235U" Type="F" Min="3.08735457e-06" Max="1.89869776e-02"/>
    <Variable VarIndex="1" Expression="238U" Label="238U" Title="238U" Unit="IsotopicFraction" Internal="238U" Type="F" Min="7.86119878e-01" Max="9.69082117e-01"/>
    <Variable VarIndex="2" Expression="237Np" Label="237Np" Title="237Np" Unit="IsotopicFraction" Internal="237Np" Type="F" Min="6.23901855e-08" Max="1.93662563e-04"/>
    <Variable VarIndex="3" Expression="238Pu" Label="238Pu" Title="238Pu" Unit="IsotopicFraction" Internal="238Pu" Type="F" Min="9.33049307e-07" Max="4.00396204e-03"/>
    <Variable VarIndex="4" Expression="239Pu" Label="239Pu" Title="239Pu" Unit="IsotopicFraction" Internal="239Pu" Type="F" Min="2.26582885e-02" Max="1.84302136e-01"/>
    <Variable VarIndex="5" Expression="240Pu" Label="240Pu" Title="240Pu" Unit="IsotopicFraction" Internal="240Pu" Type="F" Min="8.13187512e-07" Max="3.93733606e-02"/>
    <Variable VarIndex="6" Expression="241Pu" Label="241Pu" Title="241Pu" Unit="IsotopicFraction" Internal="241Pu" Type="F" Min="6.04573103e-08" Max="7.33070169e-03"/>
    <Variable VarIndex="7" Expression="242Pu" Label="242Pu" Title="242Pu" Unit="IsotopicFraction" Internal="242Pu" Type="F" Min="5.75526030e-07" Max="1.92091253e-03"/>
    <Variable VarIndex="8" Expression="241Am" Label="241Am" Title="241Am" Unit="IsotopicFraction" Internal="241Am" Type="F" Min="1.44702540e-07" Max="6.76299119e-03"/>
    <Variable VarIndex="9" Expression="242Amm" Label="242Amm" Title="242Amm" Unit="IsotopicFraction" Internal="242Amm" Type="F" Min="9.50672165e-06" Max="1.17984675e-02"/>
    <Variable VarIndex="10" Expression="243Am" Label="243Am" Title="243Am" Unit="IsotopicFraction" Internal="243Am" Type="F" Min="2.93835767e-12" Max="1.92210544e-04"/>
    <Variable VarIndex="11" Expression="242Cm" Label="242Cm" Title="242Cm" Unit="IsotopicFraction" Internal="242Cm" Type="F" Min="9.62940874e-08" Max="1.93371874e-04"/>
    <Variable VarIndex="12" Expression="243Cm" Label="243Cm" Title="243Cm" Unit="IsotopicFraction" Internal="243Cm" Type="F" Min="8.57968541e-09" Max="1.94308479e-04"/>
    <Variable VarIndex="13" Expression="244Cm" Label="244Cm" Title="244Cm" Unit="IsotopicFraction" Internal="244Cm" Type="F" Min="1.42387336e-07" Max="1.93362808e-04"/>
    <Variable VarIndex="14" Expression="245Cm" Label="245Cm" Title="245Cm" Unit="IsotopicFraction" Internal="245Cm" Type="F" Min="4.39505214e-08" Max="1.93724278e-04"/>
    <Variable VarIndex="15" Expression="246Cm" Label="246Cm" Title="246Cm" Unit="IsotopicFraction" Internal="246Cm" Type="F" Min="5.06848572e-08" Max="1.94340872e-04"/>
    <Variable VarIndex="16" Expression="Time" Label="Time" Title="Time" Unit="seconds" Internal="Time" Type="F" Min="0.00000000e+00" Max="1.89328320e+08"/>
  </Variables>
  <Spectators NSpec="0"/>
  <Classes NClass="1">
    <Class Name="Regression" Index="0"/>
  </Classes>
  <Targets NTrgt="1">
    <Target TargetIndex="0" Expression="k_inf" Label="k_inf" Title="k_inf" Unit="" Internal="k_inf" Type="F" Min="7.72082984e-01" Max="1.65900004e+00"/>
  </Targets>
  <Transformations NTransformations="1">
    <Transform Name="Normalize">
      <Selection>
        <Input NInputs="18">
          <Input Type="Variable" Label="235U" Expression="235U"/>
          <Input Type="Variable" Label="238U" Expression="238U"/>
          <Input Type="Variable" Label="237Np" Expression="237Np"/>
          <Input Type="Variable" Label="238Pu" Expression="238Pu"/>
          <Input Type="Variable" Label="239Pu" Expression="239Pu"/>
          <Input Type="Variable" Label="240Pu" Expression="240Pu"/>
          <Input Type="Variable" Label="241Pu" Expression="241Pu"/>
          <Input Type="Variable" Label="242Pu" Expression="242Pu"/>
          <Input Type="Variable" Label="241Am" Expression="241Am"/>
          <Input Type="Variable" Label="242Amm" Expression="242Amm"/>
          <Input Type="Variable" Label="243Am" Expression="243Am"/>
          <Input Type="Variable" Label="242Cm" Expression="242Cm"/>
          <Input Type="Variable" Label="243Cm" Expression="243Cm"/>
          <Input Type="Variable" Label="244Cm" Expression="244Cm"/>
          <Input Type="Variable" Label="245Cm" Expression="245Cm"/>
          <Input Type="Variable" Label="246Cm" Expression="246Cm"/>
          <Input Type="Variable" Label="Time" Expression="Time"/>
          <Input Type="Target" Label="k_inf" Expression="k_inf"/>
        </Input>
        <Output NOutputs="18">
          <Output Type="Variable" Label="235U" Expression="235U"/>
          <Output Type="Variable" Label="238U" Expression="238U"/>
          <Output Type="Variable" Label="237Np" Expression="237Np"/>
          <Output Type="Variable" Label="238Pu" Expression="238Pu"/>
          <Output Type="Variable" Label="239Pu" Expression="239Pu"/>
          <Output Type="Variable" Label="240Pu" Expression="240Pu"/>
          <Output Type="Variable" Label="241Pu" Expression="241Pu"/>
          <Output Type="Variable" Label="242Pu" Expression="242Pu"/>
          <Output Type="Variable" Label="241Am" Expression="241Am"/>
          <Output Type="Variable" Label="242Amm" Expression="242Amm"/>
          <Output Type="Variable" Label="243Am" Expression="243Am"/>
          <Output Type="Variable" Label="242Cm" Expression="242Cm"/>
          <Output Type="Variable" Label="243Cm" Expression="243Cm"/>
          <Output Type="Variable" Label="244Cm" Expression="244Cm"/>
          <Output Type="Variable" Label="245Cm" Expression="245Cm"/>
          <Output Type="Variable" Label="246Cm" Expression="246Cm"/>
          <Output Type="Variable" Label="Time" Expression="Time"/>
          <Output Type="Target" Label="k_inf" Expression="k_inf"/>
        </Output>
      </Selection>
      <Class ClassIndex="0">
        <Ranges>
          <Range Index="0" Min="3.0873545711074257e-06" Max="1.8986977636814117e-02"/>
          <Range Index="1" Min="7.8611987829208374e-01" Max="9.6908211708068848e-01"/>
          <Range Index="2" Min="6.2390185462390946e-08" Max="1.9366256310604513e-04"/>
          <Range Index="3" Min="9.3304930715021328e-07" Max="4.0039620362222195e-03"/>
          <Range Index="4" Min="2.2658288478851318e-02" Max="1.8430213630199432e-01"/>
          <Range Index="5" Min="8.1318751199432882e-07" Max="3.9373360574245453e-02"/>
          <Range Index="6" Min="6.0457310269157460e-08" Max="7.3307016864418983e-03"/>
          <Range Index="7" Min="5.7552603038857342e-07" Max="1.9209125312045217e-03"/>
          <Range Index="8" Min="1.4470253972831415e-07" Max="6.7629911936819553e-03"/>
          <Range Index="9" Min="9.5067216534516774e-06" Max="1.1798467487096786e-02"/>
          <Range Index="10" Min="2.9383576734959282e-12" Max="1.9221054390072823e-04"/>
          <Range Index="11" Min="9.6294087370552006e-08" Max="1.9337187404744327e-04"/>
          <Range Index="12" Min="8.5796854065733896e-09" Max="1.9430847896728665e-04"/>
          <Range Index="13" Min="1.4238733569982287e-07" Max="1.9336280820425600e-04"/>
          <Range Index="14" Min="4.3950521444457991e-08" Max="1.9372427777852863e-04"/>
          <Range Index="15" Min="5.0684857200167244e-08" Max="1.9434087153058499e-04"/>
          <Range Index="16" Min="0.0000000000000000e+00" Max="1.8932832000000000e+08"/>
          <Range Index="17" Min="7.7208298444747925e-01" Max="1.6590000391006470e+00"/>
        </Ranges>
      </Class>
    </Transform>
  </Transformations>
  <MVAPdfs/>
  <Weights>
    <Layout NLayers="5">
      <Layer Index="0" NNeurons="18">
        <Neuron NSynapses="18">
          9.7484205005180638e-02 1.1238650477796850e+00 6.6627713075394834e-01 -1.5863156552583035e-01 -2.9486131680923600e-01 -1.9011122745139955e-01 -9.6896909453337343e-02 9.1524722464169969e-02 6.2557216347006406e-01 -7.4530793944138155e-02 -2.6178904833309519e-01 3.2627085610687695e-02 -2.3920299660431366e-01 -2.7416151588487769e-01 3.3447607499722892e-01 -8.5447839827750449e-02 -1.6067173488383057e-01 2.5747798098136926e-01 
        </Neuron>
        <Neuron NSynapses="18">
          1.2691307708095418e-02 1.8768422448892426e+00 -2.7580242785834413e-01 -3.7131836198453116e-01 5.8169822671424809e-01 9.3122124422813635e-01 -2.5446950778287110e+00 -5.4098850359521944e-01 1.3803937508969473e+00 -1.5422461306776420e+00 -2.4768885755958694e+00 3.1843268174198580e-01 1.3397589966904653e+00 1.2467097015054607e+00 -8.6232251745169450e-02 -1.1246201887300489e+00 -5.4372754822311818e-02 -3.0326931893668557e-01 
        </Neuron>
        <Neuron NSynapses="18">
          -3.4450689883027887e-02 1.1341494415758446e+00 -8.5700176515208715e-01 1.8676950874112058e-01 2.5085230630836708e-01 -5.3832411395811589e-02 9.0119090382604039e-01 -1.6313942453086094e-02 -4.9046441183807965e-01 1.4555661757259133e-01 1.1792960275221449e-01 1.5819407897165700e-02 4.8752070030107975e-01 8.8785645548098058e-01 1.0225500626981772e+00 -4.8577049735171629e-02 -8.8038728294751387e-03 5.5282752455027240e-01 
        </Neuron>
        <Neuron NSynapses="18">
          -8.0093909058065564e-03 -5.9471761155042324e-01 -5.2822750321343104e-01 -2.7534240334601773e-01 2.6863795778195709e-01 6.8498518198377975e-02 -7.7400264304220390e-01 -8.3024127702397213e-02 2.1757743086891557e-01 -1.8098012951995243e-01 5.7001447956628815e-01 -5.2229288866791644e-02 -1.5491385708613595e-01 -2.3240286320585943e-01 3.8011935518192824e-01 -2.9342482603298164e-01 -4.8922498043484475e-02 -3.9142209625475338e-01 
        </Neuron>
        <Neuron NSynapses="18">
          1.0894965477235474e+00 7.6535315883017174e-01 1.0333101384603354e+00 -2.1059648746645271e-01 -2.2227702803029770e+00 -2.5021941322782859e+00 1.8147660362016826e+00 1.5379443655179545e+00 1.6001721909246835e+00 -3.9926068684625449e-01 1.7346266995640063e+00 -6.4352383336504920e-02 -1.4798515428579182e+00 -2.4859770644155296e-01 6.4112411514999201e-01 -8.3386012236270002e-01 -1.1053931241533750e+00 -1.4052245825669023e+00 
        </Neuron>
        <Neuron NSynapses="18">
          -5.0520778442198244e-01 4.0423704740953054e-02 1.9486028317391042e+00 -2.3432268245019250e+00 -8.5761609392422722e-01 1.8907858639034918e+00 -1.4879238270061166e+00 -8.5491150837021868e-01 -1.5686365527773979e-01 5.7248058139405733e-01 -1.4679349058235140e+00 -1.3383358013950561e+00 2.2690703559553427e+00 1.6535342618895725e+00 -6.2890474095589977e-01 3.1544823817346792e+00 -5.8424034557979887e-01 4.1330720482354166e-01 
        </Neuron>
        <Neuron NSynapses="18">
          1.2387977644394570e-01 8.8138974503055267e-01 -3.5197791570429204e-01 3.3572624262966339e-01 -3.1327887258612054e-02 -3.0879948120241996e-01 -1.5822135992653277e+00 6.1297901773501771e-02 7.7773729134626890e-01 4.4066830661467682e-01 5.0016814563853618e-01 5.6761353910028969e-02 -5.3667067438434324e-01 1.9510319772968467e-03 4.1191752489007971e-02 1.8374797012256117e-01 1.5439261541521029e-02 -1.7465448245869086e-01 
        </Neuron>
        <Neuron NSynapses="18">
          -6.7437353432105870e-02 2.3726706454275265e-01 -8.2777688945940231e-01 2.1027795737717464e-01 1.8411188558774061e-01 -2.2664972526722535e-01 -2.3492060027892428e-01 -6.0849083637073240e-02 4.5631117550549127e-01 -2.0143607159027907e-01 3.7694101948194669e-01 3.3102894863116558e-02 7.6272839704979745e-01 4.9677798252881339e-01 1.1202347291307668e+00 1.9291438741810193e-01 7.1940791470935489e-02 -6.4873498125184628e-02 
        </Neuron>
        <Neuron NSynapses="18">
          -2.3113366949767772e-01 1.8042392050157643e+00 6.1879957138881303e-01 -8.9867449661365251e-01 -6.5170552388403558e-01 2.8230038850235001e-01 -1.2502614059277168e+00 -2.7656644770423755e-01 9.4957190952727144e-01 -5.1461485128810791e-01 1.9920809730642450e-01 -2.4185746385883056e-01 5.0953656049950691e-01 2.3454803507152980e-01 9.9478969313646515e-01 -1.0025085897629566e+00 -5.0612482133138792e-02 1.3288382567210013e+00 
        </Neuron>
        <Neuron NSynapses="18">
          7.5841705819230099e-01 1.0895593771283272e-02 1.7158718069184766e+00 1.1659791889622353e+00 -1.2287504207487814e+00 -7.6356981535378232e-01 -8.3701144501475266e-01 6.1025432800293478e-01 2.5827667991542249e+00 2.2263850748568474e+00 3.4817587824996818e-02 8.5599478724731759e-01 2.3274129929009622e+00 -1.8165699647979456e+00 1.0219136563109914e+00 1.1447146576867069e-01 4.8823501578243045e-01 -3.9276300096141568e+00 
        </Neuron>
        <Neuron NSynapses="18">
          -1.0108260076043436e-03 4.7402679865863517e-01 1.1811336884605184e+00 -2.7157078539024471e-01 -4.4537894859460039e-02 9.1988849460727704e-02 3.7428262563504894e-01 -7.3854806523358962e-02 -1.7344129868373773e-01 9.1068646523652097e-02 -5.3727029345651445e-01 -6.9692264974867940e-02 7.7177615645614828e-01 3.1335619019645727e-01 1.5035573867508606e-01 -7.6557416071633022e-01 -4.6868836765336742e-02 9.4966428989712270e-01 
        </Neuron>
        <Neuron NSynapses="18">
          -1.4039307044053130e-02 -6.5372376267274868e-01 8.7429090003999899e-02 -4.4729246611207051e-02 1.2666635251873157e-01 8.7859775305325682e-02 4.4106581951736107e-01 7.2627621612098320e-02 2.5328606581061890e-02 4.3260813452154212e-02 4.9117051952129953e-01 4.0176205487936273e-03 7.6506161693948238e-01 1.9046245269659851e-01 -1.0150923823351852e+00 -3.0488585919486844e-01 1.9934308027434927e-02 7.6492171286709598e-01 
        </Neuron>
        <Neuron NSynapses="18">
          3.9577365772603221e-02 4.5567833711862071e-01 1.1567508036788887e+00 -7.1556354871658082e-02 -3.8886290147872488e-01 -6.3225701705096459e-03 -1.3563217573000277e+00 4.0827731726699831e-02 6.8108556681265020e-01 -2.1824420095188682e-01 2.6120496891514966e-01 5.8405567645767792e-02 -8.0131824335513702e-01 -1.2627740133133838e+00 8.3009896555236851e-01 2.1240921225088999e-01 3.9286471645574784e-02 -2.7779685412725552e-01 
        </Neuron>
        <Neuron NSynapses="18">
          1.3049651612531995e-02 -9.4148388492582447e-01 1.3265065317059452e+00 -1.2735197629989883e-01 -8.3423385485091950e-01 2.8363564823929602e-02 -1.0272441167239266e+00 -7.2800725812987410e-02 -1.6173942722844732e-02 1.0848467654599757e-02 -4.6585035004744252e-01 -1.6789812344916142e-03 -5.7913916489203143e-01 -7.1231985692393007e-01 1.0256190859867851e+00 -3.8001399549740661e-02 -3.1876370442534718e-02 -7.6994644367945564e-02 
        </Neuron>
        <Neuron NSynapses="18">
          1.7453986134259181e-02 9.1397303330209456e-01 3.6545104943689904e-01 -1.2953102238280159e-01 -7.7234761122644890e-01 2.9155811695689923e-02 -3.0277307650467311e-01 4.7590821918244382e-02 7.3172372873714264e-01 -1.5323474502530376e-01 5.7239134649675261e-01 6.4083374878311408e-02 -7.8914811130184698e-02 -6.0672630583551357e-01 -1.7192439103906973e+00 1.9176355959509567e-01 1.0739010024603037e-02 9.4882374580586140e-02 
        </Neuron>
        <Neuron NSynapses="18">
          5.9694317597091921e-03 7.4195915186140016e-01 9.7414761884795498e-01 -1.1290004645144311e-01 -3.1904547215621260e-01 3.5866318659455804e-02 8.3579224873327376e-02 5.0866475514840734e-02 8.6310164086857710e-01 -1.2207851621041749e-01 2.8840695848355868e-01 3.0210037794809335e-02 4.6649797964920459e-01 -4.1334510636981314e-01 -1.1290002053754655e+00 -3.1826616910073297e-01 2.4871971382132749e-02 9.7123571966548961e-01 
        </Neuron>
        <Neuron NSynapses="18">
          -1.7901569635891481e+00 1.4451603007896330e+00 -1.5492990607122896e+00 6.0569594201439791e-01 -6.2948816100458760e-01 1.9657851943002769e-01 2.1091092158769977e+00 -6.6063958824281477e-01 -4.1670509770911301e-01 1.2749275459854430e+00 -2.7083110035468265e+00 -3.7678473222333486e+00 -2.6565077462017372e+00 -7.5772802944228101e-01 2.6420718330740973e+00 -8.2934183330444644e-01 1.5121609076233247e+00 -5.2389804661822448e-01 
        </Neuron>
        <Neuron NSynapses="18">
          -2.0511665196594406e+00 -2.0863193711056143e+00 -7.5314856457986501e-01 -2.3182140494125241e+00 2.1266574336892927e+00 -2.4714425105171549e+00 1.1659382399971312e+00 -3.3648733414933581e-02 -8.8368014732592134e-02 3.1288660180410326e+00 8.4599880338081523e-01 -5.0728339166666458e+00 -7.2402609688668651e-01 2.3988992402839702e+00 -1.1417681305343825e+00 8.5719159466184036e-01 -6.4456535325896747e-01 -2.0167083391648930e+00 
        </Neuron>
      </Layer>
      <Layer Index="1" NNeurons="19">
        <Neuron NSynapses="21">
          2.7071785557795058e-01 1.4920582125094830e+00 1.0826459592441560e+00 1.3436387180445455e+00 -2.4747067429541096e+00 9.1899370026665983e-01 -1.9261097596814409e+00 1.1136536058260664e+00 -1.1777979859294054e+00 -3.1516792090798798e+00 4.0244898855335709e-01 2.6501472042207150e+00 4.9313054966618136e-01 -3.7365280085505492e-01 2.9465764722690052e-01 -3.0960916279907730e-01 -9.1504043189597295e-01 -1.8639634900223967e-01 2.4287473824623271e+00 -1.2796789475898853e+00 6.1826634563608351e-01 
        </Neuron>
        <Neuron NSynapses="21">
          -1.1696411150740635e+00 -4.2716521028661231e-01 7.0061102543424270e-01 -3.8849073090382852e-01 -8.0786905415344268e-01 1.0008410766209952e+00 1.4332643961662841e+00 1.9977764780312265e-02 -2.7628339429622034e-01 -3.1146745851610042e-01 -1.0624172586781753e+00 2.5411106792722860e-01 -1.6773081585866978e-01 5.0531084821022289e-02 -1.1176137267812360e+00 4.4478044919411036e-01 -1.7272885928981236e+00 -5.0730111908515196e-01 -1.5615127069134425e+00 1.0008506372630488e+00 -1.3525704223753621e+00 
        </Neuron>
        <Neuron NSynapses="21">
          -1.8131236959650621e+00 -7.5507764797838373e-01 -9.0012897713223727e-01 -8.2684250483948452e-01 1.0857942364478992e+00 -1.3649380682822754e+00 -1.0449359907177653e+00 1.4779972390232126e+00 4.1086000579364068e-01 4.3968946317875857e-01 6.7418562830397788e-01 -1.6709499309386147e-01 1.7244377747514743e+00 -3.0388899259582930e-01 -9.0339046657551025e-01 -7.7951855507253032e-01 -1.2867764698584165e+00 3.9974687378817965e-02 3.7946301972626650e-01 1.1612446094479352e-01 1.1404170653888830e+00 
        </Neuron>
        <Neuron NSynapses="21">
          6.0729053491934504e-01 1.3343597953289885e+00 -6.9416794987996233e-01 1.1277114652366482e+00 -4.5539638600836135e-01 -1.9873144691996281e+00 1.2604293415819198e-01 -6.0090255596595410e-01 1.0774814405816937e+00 3.8735584437129439e-01 5.7020476873514281e-01 2.8465760538909429e-01 -1.4285054887533488e+00 1.5196416436437814e+00 1.7043607430225214e+00 7.4855512474381658e-02 -1.8734622426504006e+00 1.5410937884136140e+00 -1.3035915797020130e+00 8.5701856332129100e-01 1.9115449784671901e+00 
        </Neuron>
        <Neuron NSynapses="21">
          -2.9450101405552059e-01 -9.3791389075583342e-01 -5.3551141116274126e-01 -1.4768825582740470e+00 1.5005248988484204e-01 -1.9252806523051518e+00 2.0761733805254479e-01 6.5171930781553242e-02 2.3489381031793406e+00 2.3758614982284272e-02 8.8594777572077654e-01 -1.1891930727282506e-01 3.7789499391151854e-01 -3.3591307799284759e-01 1.7920527092711274e+00 -1.9270963253043294e+00 -1.0333896507005531e+00 -7.6158557116207870e-01 -5.6362678628922414e-01 -1.0971863476060486e+00 -8.3060356947024433e-02 
        </Neuron>
        <Neuron NSynapses="21">
          9.7598900170645597e-01 7.7375446851013621e-02 -1.9237745119138245e+00 -2.2345238212230805e+00 2.6477074264689593e-01 1.6817922779548862e+00 1.9006233288505188e+00 8.9567691275924988e-01 -6.6437882064662446e-01 -2.6961415983282380e+00 -6.9961952612400935e-01 -1.0078595995214648e+00 -2.1740463035732374e+00 4.3905293917312643e-01 -1.3416517491409119e-02 -1.4912579244467195e+00 7.4079461627601018e-01 1.1164671331510077e+00 6.1629265225311936e-01 -1.8436528066692345e-01 -5.8009321580911322e-01 
        </Neuron>
        <Neuron NSynapses="21">
          1.5013835198289613e+00 -7.5265673267811972e-01 5.4627724834616094e-02 1.5120666255779875e+00 2.7887268318980990e-01 -8.6131565040149816e-01 1.6400932276010489e+00 -1.5893316742686792e+00 2.2725468353335478e+00 3.4198500301873513e-01 -1.1403066811308228e-01 -5.5679525857562362e-02 3.2909285750596207e-01 -1.2498491778403000e+00 1.2178398216910586e+00 1.8086947305392539e-01 -6.1079609040209260e-01 -1.9159166273977737e+00 1.1618569156937930e-01 2.1413349670946467e+00 1.1530691180350063e+00 
        </Neuron>
        <Neuron NSynapses="21">
          -1.0519161754995858e+00 -2.1363064176950046e+00 2.3531111415494590e+00 -2.1459026528961525e-01 6.3193018232150888e-01 -3.5506878555633620e-01 -8.0094703177414883e-01 1.9406506578792013e+00 1.5469451257421662e+00 1.2380131266931627e-01 -3.8795428565485529e-01 1.2325718251855615e+00 2.7416314135644462e+00 -1.1884132216385048e+00 1.9470991764746604e-01 -1.3662442660010643e+00 -1.2877779492432841e+00 1.2112685849531000e+00 3.6063731369147745e-01 3.5704457334361495e-01 -1.1910776817481241e+00 
        </Neuron>
        <Neuron NSynapses="21">
          -1.3858999926527491e+00 -1.9858640075226306e+00 -6.3435640624663481e-01 -1.2130214187878319e+00 1.1397516883905880e+00 -3.5562148118872616e-01 1.3801964676444274e+00 4.4317175432103190e-01 -1.7485841184894726e+00 6.7633563596232960e-01 1.3872523855909547e+00 -1.2596173479695330e-01 -7.5933662739444810e-02 -3.5009913687057082e-01 1.9166528754157364e+00 -1.7372198283816656e+00 2.2745725244971876e-01 -1.2829958921562887e+00 9.8560898293408594e-01 -8.3275106803050836e-01 5.9073423095124189e-01 
        </Neuron>
        <Neuron NSynapses="21">
          -3.4450516665815206e-01 3.1873695220972859e-01 -9.2997808392234804e-01 -8.8150751338298727e-01 2.3434733480639025e+00 1.3546067146251520e-01 1.3728980854244306e+00 1.5162011554710306e+00 -9.5908960046250569e-01 -1.2963621512214826e-01 -2.1700617202011014e+00 2.7462433551551230e-01 1.7058628681868506e+00 -1.8787512425764946e-01 1.6433994962849405e+00 1.3847241226306604e+00 -3.7095496931620913e+00 -1.3709219992819413e+00 -4.9874083913890155e-01 1.1394775825988153e+00 7.8281552734833937e-01 
        </Neuron>
        <Neuron NSynapses="21">
          -4.4087332990320849e-01 -6.8711643261221489e-01 -2.7697442958213125e-01 -6.3637028854338640e-01 1.2215884257971379e-01 -2.0388086135975785e+00 -1.6093704843615692e-01 6.9711513046156803e-01 1.4497508132887896e-01 9.4565094810701772e-02 1.0096270031682584e+00 -9.9364032832468724e-02 -3.9976540295686105e-02 -9.7116620733659420e-01 1.9032100932990768e+00 -4.1006990049073094e-01 3.7708059317589798e-01 3.0295039810948887e-01 -1.2599666910729783e+00 -6.6787495661153840e-01 3.5768980973986880e-01 
        </Neuron>
        <Neuron NSynapses="21">
          -2.0843609578725619e+00 -7.8209101760977617e-01 -5.6234390962905745e-01 1.5879346730647133e+00 -4.5911769428168716e+00 1.3467247696380298e+00 1.5693117308964259e+00 2.1690449599264316e+00 1.3488862400791544e+00 -5.9625803193078464e-01 4.9568999913652423e-01 1.9472434211592915e+00 -3.4666330260885174e+00 -1.3457027824136258e+00 -7.7241786728460204e-01 1.3264692534572036e+00 -2.2039230192713699e-01 -3.8909849361675047e-01 1.5685004820804893e+00 1.2586328878236646e+00 -1.0470706561664753e+00 
        </Neuron>
        <Neuron NSynapses="21">
          5.3320936115070761e-01 -1.8389592903541050e+00 1.4727535916832637e+00 -1.5648142923426729e+00 1.2285991771582452e+00 -5.7681920197564374e-01 9.9432214278027964e-01 -7.3059088696405339e-01 3.3604572951233486e-01 -1.2347804884306683e+00 -1.0887138537939330e-02 8.5201660732637990e-02 -9.3858034606608964e-01 -1.4845148080775231e-01 -1.7505281734936546e+00 9.7145243085619581e-01 -1.7251697106151771e+00 4.7632190207419739e-01 -9.7588903700827623e-01 -7.0490234604769164e-01 2.4777169017708567e+00 
        </Neuron>
        <Neuron NSynapses="21">
          -2.1497207763225834e+00 -1.4243739252782162e+00 -1.9388035051509867e-01 8.8205797295780319e-02 7.9521957149499345e-01 1.5940826272474700e+00 -1.6702248069043455e+00 1.1699443267116962e+00 1.1954113386850322e+00 3.1157896045599193e-01 -9.6563005229835719e-01 -6.3776178788135535e-03 3.2962112979831504e-01 -4.1465612026271359e-01 1.5638019641294576e+00 -7.2397499703559776e-01 -4.2953480105073405e-01 -1.0427737371892680e+00 1.2214216370256188e+00 6.6736024494947854e-01 2.0501578112448966e+00 
        </Neuron>
        <Neuron NSynapses="21">
          -9.0332045833966412e-01 -1.4535007344490940e+00 7.8816499438818188e-01 1.2067435653994026e-01 1.0065541698704286e+00 -8.1977313482370723e-02 -8.0235395690121036e-01 -9.1560648313779802e-01 -1.0237733167120182e+00 -5.0451105964468779e-01 -6.6964921219840079e-01 1.0919903348978603e-01 -2.7406206840882130e-02 1.7274975434918302e-01 9.3349707187516573e-01 -2.0071342522781528e+00 -1.0721961768603523e+00 -3.0249354518879248e-02 -5.7563116802774372e-01 8.6443347012953065e-01 1.6076953714136391e+00 
        </Neuron>
        <Neuron NSynapses="21">
          -1.6266210386016586e+00 -5.6986433826609351e-01 -5.5774840672057535e-01 -1.0002810001972335e+00 2.1396996389129939e+00 -9.7677549911850436e-01 -1.0889698265600598e+00 -1.5745099873119177e+00 1.3165633706914155e+00 8.4800254262622526e-02 1.2397876719001126e+00 -1.2877443419505558e-01 1.2826537091632706e-01 -1.7401712991508909e+00 -1.1951196820637540e+00 3.8620439389215033e-01 2.4052057736293855e-01 6.7612851776150318e-01 -6.1065230530714831e-01 8.2263534522819382e-01 3.7645976206421300e-01 
        </Neuron>
        <Neuron NSynapses="21">
          -1.2816757402736803e+00 1.8959703244243522e+00 1.0325729140215290e+00 -1.7938817998866334e+00 -2.6811649366202595e-01 -1.8607139451238948e+00 4.6304078254562503e-01 1.1354947771466337e+00 9.8323519729242304e-01 1.1121276761275636e+00 -2.3240996082049570e+00 -1.5701581952005810e+00 -1.5105497205088345e+00 5.2536745062463919e-01 1.5251620374172925e+00 -1.7450081383509490e+00 4.8812615458950182e-01 -6.7714619049119451e-01 -1.9694398861715093e-01 -1.4612110740480087e+00 1.4587646038294702e+00 
        </Neuron>
        <Neuron NSynapses="21">
          4.5836958290142121e-01 1.7630787151854643e+00 -1.0138558938828808e+00 5.3019432406847222e-01 -5.1626377244390875e-01 1.5931420555339344e+00 -8.4240939305885865e-01 -1.3197288728427483e+00 -1.4758080848455040e+00 7.2511583434362847e-01 8.6960642456495152e-01 -2.8453437514105295e-02 6.3370077496707244e-01 -1.7785789972298655e-01 -4.2668589947198543e-01 1.0347357716571979e+00 9.4014180259923330e-01 -1.4647202665215449e+00 -1.0837323858785744e-01 1.1730518603807798e+00 1.9223466385329919e+00 
        </Neuron>
        <Neuron NSynapses="21">
          5.5276309423068704e-01 -1.1717288883274055e+00 -5.8428331345141171e-01 -1.1370086287290142e+00 9.5128978439781686e-01 -9.1236311162129202e-01 9.5049681125745000e-01 9.4814424712974577e-01 -8.3384713473358615e-02 2.0166133485154245e+00 1.3563006579484909e+00 -9.5173630629969386e-01 8.5818800118266370e-01 -7.8885641744414614e-01 1.1231330974006060e+00 -1.9718155598519762e+00 1.6892603685640548e+00 -5.7068830564104378e-01 -1.2511188481581406e+00 2.3988603643688489e+00 -4.2276818406199351e-01 
        </Neuron>
      </Layer>
      <Layer Index="2" NNeurons="22">
        <Neuron NSynapses="9">
          -2.3244789743764735e-01 1.5295050382960469e+00 1.3130928479844101e-01 3.7880770929133120e-03 1.9641100004710296e-02 1.8698402382872947e+00 1.9333695891251077e+00 6.9465402534102258e-02 -1.1804483255659526e+00 
        </Neuron>
        <Neuron NSynapses="9">
          1.8441950259495545e+00 1.6609542446415080e+00 -3.3466622241384823e-02 6.5122227991477699e-01 -8.0536085286218528e-01 1.2281408594936365e+00 -1.5061403839776513e+00 -2.4990552897110638e-01 -5.7676118701448553e-01 
        </Neuron>
        <Neuron NSynapses="9">
          1.4637456573267384e+00 -1.6288352233011558e+00 9.1536823449212701e-01 -1.3699326772552982e+00 3.2164693556512330e-01 9.4411077685786471e-01 1.6730800717134937e+00 -1.8197028820610539e+00 -7.6100316003793111e-01 
        </Neuron>
        <Neuron NSynapses="9">
          -1.3719846897022533e-01 -1.4952358099019220e-01 1.3536451180211087e+00 8.6454538532595049e-01 6.3546138427969567e-01 -2.3240899251077621e-01 8.0059333577934377e-01 -8.6852273372930236e-03 -1.1185199122487612e+00 
        </Neuron>
        <Neuron NSynapses="9">
          7.8895639350414803e-01 3.4141031516674630e-01 -2.1051575872242538e+00 1.0838410647033388e-01 -5.4265477716549304e-01 1.9624806329368174e+00 -6.5834328640489756e-02 -2.0297655713938600e+00 -9.4429577703125933e-01 
        </Neuron>
        <Neuron NSynapses="9">
          -1.2378689682624775e+00 -1.0724851091899106e+00 -1.2916662899481732e+00 5.7099127009555872e-01 1.4664543134881919e-01 1.6852573335092746e+00 -1.4772651618702493e-01 -1.4644328218862519e+00 -1.7767974899115044e+00 
        </Neuron>
        <Neuron NSynapses="9">
          8.1305488473108223e-01 6.9713553632101688e-02 3.9495815770315817e-01 -1.2106694185254319e+00 -2.1531913836614103e-01 1.0241766356413473e+00 -6.8356814222429707e-01 -9.8118554478454939e-02 1.1878646528605881e-01 
        </Neuron>
        <Neuron NSynapses="9">
          -1.8853941133690244e+00 -1.2147177429938933e+00 1.6607703787676786e+00 -1.5953695452460182e+00 2.3234224409687629e-02 -1.4965380178573950e+00 -4.6939465638104078e-01 2.8706082365710517e-01 1.1828728460023941e+00 
        </Neuron>
        <Neuron NSynapses="9">
          9.2948923132935857e-01 -9.1116314665923903e-02 3.9184515602888176e-01 -1.5543985535727086e-02 -6.7289865453710529e-01 1.6939551083662161e+00 9.2554086747293407e-01 6.5538708371750909e-01 -7.8588399489280614e-01 
        </Neuron>
        <Neuron NSynapses="9">
          -2.0489736307446851e+00 3.4457833664142834e-01 7.1015754179745372e-01 -1.5596029307549215e+00 -2.2931954007831259e-01 -5.7105716971056175e-01 1.6887984432857415e+00 -2.1750979491034594e+00 -1.2190787941322327e+00 
        </Neuron>
        <Neuron NSynapses="9">
          8.0824379718891198e-02 -3.2150836036711000e-01 5.9822500479874252e-01 -2.0231291720294391e+00 4.1495416074691338e-01 -4.5745442459697327e-01 -3.5538348023421229e-01 -2.4996206713727084e-01 1.4190977878208850e+00 
        </Neuron>
        <Neuron NSynapses="9">
          6.6119455769171820e-01 -1.8353225936366868e+00 2.0741124626882637e+00 -8.5458202235335201e-01 2.7270010781579983e+00 -3.5861372912260125e-01 1.1447271399651868e+00 2.4200321449359996e+00 -4.6738933988807746e-01 
        </Neuron>
        <Neuron NSynapses="9">
          2.0707693771070321e+00 2.5416489843408652e+00 -1.4797742074482494e+00 -4.8713637722818287e-01 2.2957591964206201e+00 1.2369958484094499e+00 7.6025028492189461e-01 -1.9810824303273327e+00 -2.0557319467683506e+00 
        </Neuron>
        <Neuron NSynapses="9">
          -1.5428255381039495e+00 9.2671955746937340e-01 -1.9636746315925657e+00 1.9008886180268550e-01 -1.7363630440086628e+00 7.0668905821328654e-01 -1.7365280097883264e+00 9.0352990951950873e-02 -1.8012314348182754e-01 
        </Neuron>
        <Neuron NSynapses="9">
          2.2168664124512332e-02 -1.3674152184846000e+00 -1.0990373638125237e+00 -2.2833345290866291e+00 1.7886482015372540e+00 8.2154686929403231e-01 2.0591872498766413e+00 -4.6808565572708905e-01 -3.0277218688098567e-01 
        </Neuron>
        <Neuron NSynapses="9">
          9.8893391448943391e-01 1.0858793117096601e+00 -9.4320054941270298e-02 1.8427395596573322e+00 -1.9215355341309803e-01 3.2656321458503668e-01 -6.9924268691016173e-02 1.0704642121203702e+00 -9.1635264054190257e-02 
        </Neuron>
        <Neuron NSynapses="9">
          -1.9064083612856324e+00 1.3392188204579349e+00 3.8366064097360714e-01 -3.3362619531602167e-01 1.0690879965187448e+00 1.6084233657299722e+00 1.9340355714395732e+00 -3.0218927594557417e+00 5.2889000947750864e-01 
        </Neuron>
        <Neuron NSynapses="9">
          1.2719580381046098e+00 -1.4438484207442959e+00 -1.5224566654000404e+00 6.5649837095721020e-01 4.4248357612727818e-01 7.0942892489264020e-01 -1.8791065084787391e+00 -3.0207925223380028e-01 1.7414385659124762e-01 
        </Neuron>
        <Neuron NSynapses="9">
          -1.5836537797265422e+00 -1.4691229848902498e+00 -4.8882836146428815e-01 1.8339594983487995e+00 8.3536288709012163e-01 1.5783004282750543e+00 1.5426796331867798e+00 5.0763909098682802e-01 6.6364189380485869e-02 
        </Neuron>
        <Neuron NSynapses="9">
          1.3143505726450690e+00 7.4614776085129242e-01 -1.4768913852444787e+00 -1.9811707158285217e+00 -8.1574566312103081e-01 2.9482130430006798e-01 -1.2081359401183100e+00 1.4025049448906486e+00 6.3992089944975017e-01 
        </Neuron>
        <Neuron NSynapses="9">
          1.3093532707073136e-01 1.4481072083428905e+00 -8.0811169856302023e-01 1.5774446258713477e+00 -2.9617036225548693e-01 6.9391063668527164e-01 1.0272980829053817e+00 6.7899293000498062e-01 -8.3326748821737540e-01 
        </Neuron>
        <Neuron NSynapses="9">
          1.3550002378542318e+00 2.0927693300834678e+00 -9.2996195534964576e-01 -9.1038844952668438e-02 -1.0722035774900311e+00 3.5769671428853872e-01 -1.1941839853476013e+00 3.8706652141675783e-03 -1.3728053194147087e+00 
        </Neuron>
      </Layer>
      <Layer Index="3" NNeurons="10">
        <Neuron NSynapses="1">
          1.2555357168144468e+00 
        </Neuron>
        <Neuron NSynapses="1">
          -2.9026857554962843e-01 
        </Neuron>
        <Neuron NSynapses="1">
          1.9039490209554359e+00 
        </Neuron>
        <Neuron NSynapses="1">
          -1.0694432709146640e+00 
        </Neuron>
        <Neuron NSynapses="1">
          1.8444820302989728e+00 
        </Neuron>
        <Neuron NSynapses="1">
          -1.5602869770061725e+00 
        </Neuron>
        <Neuron NSynapses="1">
          4.5481823548517160e-02 
        </Neuron>
        <Neuron NSynapses="1">
          2.4889971701789322e+00 
        </Neuron>
        <Neuron NSynapses="1">
          7.0242515090297519e-01 
        </Neuron>
        <Neuron NSynapses="1">
          -1.2265681635083461e+00 
        </Neuron>
      </Layer>
      <Layer Index="4" NNeurons="1">
        <Neuron NSynapses="0"/>
      </Layer>
    </Layout>
  </Weights>
</MethodSetup>
