<?xml version="1.0"?>
<MethodSetup Method="MLP::MLP_k_inf">
  <GeneralInfo>
    <Info name="TMVA Release" value="4.2.1 [262657]"/>
    <Info name="ROOT Release" value="6.06/02 [394754]"/>
    <Info name="Creator" value="mouginot"/>
    <Info name="Date" value="Thu Feb 16 15:54:18 2017"/>
    <Info name="Host" value="Linux kermit 4.4.0-22-generic #40-Ubuntu SMP Thu May 12 22:03:46 UTC 2016 x86_64 x86_64 x86_64 GNU/Linux"/>
    <Info name="Dir" value="/home/mouginot/work/MODEL/MOX_TRU_MODELS/EQM"/>
    <Info name="Training events" value="198960"/>
    <Info name="TrainingTime" value="7.45162259e+04"/>
    <Info name="AnalysisType" value="Regression"/>
  </GeneralInfo>
  <Options>
    <Option name="NCycles" modified="Yes">16000</Option>
    <Option name="HiddenLayers" modified="Yes">18,21,9</Option>
    <Option name="NeuronType" modified="Yes">sigmoid</Option>
    <Option name="RandomSeed" modified="No">1</Option>
    <Option name="EstimatorType" modified="No">MSE</Option>
    <Option name="NeuronInputType" modified="No">sum</Option>
    <Option name="V" modified="Yes">True</Option>
    <Option name="VerbosityLevel" modified="No">Verbose</Option>
    <Option name="VarTransform" modified="Yes">Norm</Option>
    <Option name="H" modified="Yes">False</Option>
    <Option name="CreateMVAPdfs" modified="No">False</Option>
    <Option name="IgnoreNegWeightsInTraining" modified="No">False</Option>
    <Option name="TrainingMethod" modified="Yes">BFGS</Option>
    <Option name="LearningRate" modified="Yes">1.000000e-01</Option>
    <Option name="DecayRate" modified="No">1.000000e-02</Option>
    <Option name="TestRate" modified="Yes">6</Option>
    <Option name="EpochMonitoring" modified="No">False</Option>
    <Option name="Sampling" modified="Yes">5.000000e-01</Option>
    <Option name="SamplingEpoch" modified="Yes">8.000000e-01</Option>
    <Option name="SamplingImportance" modified="No">1.000000e+00</Option>
    <Option name="SamplingTraining" modified="No">True</Option>
    <Option name="SamplingTesting" modified="No">False</Option>
    <Option name="ResetStep" modified="No">50</Option>
    <Option name="Tau" modified="No">3.000000e+00</Option>
    <Option name="BPMode" modified="No">sequential</Option>
    <Option name="BatchSize" modified="No">-1</Option>
    <Option name="ConvergenceImprove" modified="Yes">1.000000e-06</Option>
    <Option name="ConvergenceTests" modified="Yes">15</Option>
    <Option name="UseRegulator" modified="Yes">False</Option>
    <Option name="UpdateLimit" modified="No">10000</Option>
    <Option name="CalculateErrors" modified="No">False</Option>
    <Option name="WeightRange" modified="No">1.000000e+00</Option>
  </Options>
  <Variables NVar="17">
    <Variable VarIndex="0" Expression="235U" Label="235U" Title="235U" Unit="IsotopicFraction" Internal="235U" Type="F" Min="1.71346517e-06" Max="1.92414057e-02"/>
    <Variable VarIndex="1" Expression="238U" Label="238U" Title="238U" Unit="IsotopicFraction" Internal="238U" Type="F" Min="7.85399854e-01" Max="9.68733251e-01"/>
    <Variable VarIndex="2" Expression="237Np" Label="237Np" Title="237Np" Unit="IsotopicFraction" Internal="237Np" Type="F" Min="1.63990119e-08" Max="1.97294168e-04"/>
    <Variable VarIndex="3" Expression="238Pu" Label="238Pu" Title="238Pu" Unit="IsotopicFraction" Internal="238Pu" Type="F" Min="4.69728775e-07" Max="3.96428024e-03"/>
    <Variable VarIndex="4" Expression="239Pu" Label="239Pu" Title="239Pu" Unit="IsotopicFraction" Internal="239Pu" Type="F" Min="2.15940680e-02" Max="1.89886928e-01"/>
    <Variable VarIndex="5" Expression="240Pu" Label="240Pu" Title="240Pu" Unit="IsotopicFraction" Internal="240Pu" Type="F" Min="1.54567579e-06" Max="3.95636074e-02"/>
    <Variable VarIndex="6" Expression="241Pu" Label="241Pu" Title="241Pu" Unit="IsotopicFraction" Internal="241Pu" Type="F" Min="3.22813172e-08" Max="7.04628276e-03"/>
    <Variable VarIndex="7" Expression="242Pu" Label="242Pu" Title="242Pu" Unit="IsotopicFraction" Internal="242Pu" Type="F" Min="1.58277174e-07" Max="1.98803633e-03"/>
    <Variable VarIndex="8" Expression="241Am" Label="241Am" Title="241Am" Unit="IsotopicFraction" Internal="241Am" Type="F" Min="3.13082671e-10" Max="7.48056592e-03"/>
    <Variable VarIndex="9" Expression="242Amm" Label="242Amm" Title="242Amm" Unit="IsotopicFraction" Internal="242Amm" Type="F" Min="1.34159976e-07" Max="1.16249369e-02"/>
    <Variable VarIndex="10" Expression="243Am" Label="243Am" Title="243Am" Unit="IsotopicFraction" Internal="243Am" Type="F" Min="2.04390229e-08" Max="1.99559363e-04"/>
    <Variable VarIndex="11" Expression="242Cm" Label="242Cm" Title="242Cm" Unit="IsotopicFraction" Internal="242Cm" Type="F" Min="1.48285639e-09" Max="1.93909858e-04"/>
    <Variable VarIndex="12" Expression="243Cm" Label="243Cm" Title="243Cm" Unit="IsotopicFraction" Internal="243Cm" Type="F" Min="9.09117492e-09" Max="1.97552916e-04"/>
    <Variable VarIndex="13" Expression="244Cm" Label="244Cm" Title="244Cm" Unit="IsotopicFraction" Internal="244Cm" Type="F" Min="2.46570231e-09" Max="1.97112051e-04"/>
    <Variable VarIndex="14" Expression="245Cm" Label="245Cm" Title="245Cm" Unit="IsotopicFraction" Internal="245Cm" Type="F" Min="9.47205692e-09" Max="1.97873349e-04"/>
    <Variable VarIndex="15" Expression="246Cm" Label="246Cm" Title="246Cm" Unit="IsotopicFraction" Internal="246Cm" Type="F" Min="2.33963915e-09" Max="1.98596885e-04"/>
    <Variable VarIndex="16" Expression="Time" Label="Time" Title="Time" Unit="seconds" Internal="Time" Type="F" Min="0.00000000e+00" Max="1.89328320e+08"/>
  </Variables>
  <Spectators NSpec="0"/>
  <Classes NClass="1">
    <Class Name="Regression" Index="0"/>
  </Classes>
  <Targets NTrgt="1">
    <Target TargetIndex="0" Expression="k_inf" Label="k_inf" Title="k_inf" Unit="" Internal="k_inf" Type="F" Min="7.72333026e-01" Max="1.67813003e+00"/>
  </Targets>
  <Transformations NTransformations="1">
    <Transform Name="Normalize">
      <Selection>
        <Input NInputs="18">
          <Input Type="Variable" Label="235U" Expression="235U"/>
          <Input Type="Variable" Label="238U" Expression="238U"/>
          <Input Type="Variable" Label="237Np" Expression="237Np"/>
          <Input Type="Variable" Label="238Pu" Expression="238Pu"/>
          <Input Type="Variable" Label="239Pu" Expression="239Pu"/>
          <Input Type="Variable" Label="240Pu" Expression="240Pu"/>
          <Input Type="Variable" Label="241Pu" Expression="241Pu"/>
          <Input Type="Variable" Label="242Pu" Expression="242Pu"/>
          <Input Type="Variable" Label="241Am" Expression="241Am"/>
          <Input Type="Variable" Label="242Amm" Expression="242Amm"/>
          <Input Type="Variable" Label="243Am" Expression="243Am"/>
          <Input Type="Variable" Label="242Cm" Expression="242Cm"/>
          <Input Type="Variable" Label="243Cm" Expression="243Cm"/>
          <Input Type="Variable" Label="244Cm" Expression="244Cm"/>
          <Input Type="Variable" Label="245Cm" Expression="245Cm"/>
          <Input Type="Variable" Label="246Cm" Expression="246Cm"/>
          <Input Type="Variable" Label="Time" Expression="Time"/>
          <Input Type="Target" Label="k_inf" Expression="k_inf"/>
        </Input>
        <Output NOutputs="18">
          <Output Type="Variable" Label="235U" Expression="235U"/>
          <Output Type="Variable" Label="238U" Expression="238U"/>
          <Output Type="Variable" Label="237Np" Expression="237Np"/>
          <Output Type="Variable" Label="238Pu" Expression="238Pu"/>
          <Output Type="Variable" Label="239Pu" Expression="239Pu"/>
          <Output Type="Variable" Label="240Pu" Expression="240Pu"/>
          <Output Type="Variable" Label="241Pu" Expression="241Pu"/>
          <Output Type="Variable" Label="242Pu" Expression="242Pu"/>
          <Output Type="Variable" Label="241Am" Expression="241Am"/>
          <Output Type="Variable" Label="242Amm" Expression="242Amm"/>
          <Output Type="Variable" Label="243Am" Expression="243Am"/>
          <Output Type="Variable" Label="242Cm" Expression="242Cm"/>
          <Output Type="Variable" Label="243Cm" Expression="243Cm"/>
          <Output Type="Variable" Label="244Cm" Expression="244Cm"/>
          <Output Type="Variable" Label="245Cm" Expression="245Cm"/>
          <Output Type="Variable" Label="246Cm" Expression="246Cm"/>
          <Output Type="Variable" Label="Time" Expression="Time"/>
          <Output Type="Target" Label="k_inf" Expression="k_inf"/>
        </Output>
      </Selection>
      <Class ClassIndex="0">
        <Ranges>
          <Range Index="0" Min="1.7134651670858148e-06" Max="1.9241405650973320e-02"/>
          <Range Index="1" Min="7.8539985418319702e-01" Max="9.6873325109481812e-01"/>
          <Range Index="2" Min="1.6399011926182538e-08" Max="1.9729416817426682e-04"/>
          <Range Index="3" Min="4.6972877498774324e-07" Max="3.9642802439630032e-03"/>
          <Range Index="4" Min="2.1594068035483360e-02" Max="1.8988692760467529e-01"/>
          <Range Index="5" Min="1.5456757864740212e-06" Max="3.9563607424497604e-02"/>
          <Range Index="6" Min="3.2281317174920332e-08" Max="7.0462827570736408e-03"/>
          <Range Index="7" Min="1.5827717447791656e-07" Max="1.9880363252013922e-03"/>
          <Range Index="8" Min="3.1308267089968922e-10" Max="7.4805659241974354e-03"/>
          <Range Index="9" Min="1.3415997557331139e-07" Max="1.1624936945736408e-02"/>
          <Range Index="10" Min="2.0439022918594674e-08" Max="1.9955936295446008e-04"/>
          <Range Index="11" Min="1.4828563932312022e-09" Max="1.9390985835343599e-04"/>
          <Range Index="12" Min="9.0911749239808159e-09" Max="1.9755291577894241e-04"/>
          <Range Index="13" Min="2.4657023089957875e-09" Max="1.9711205095518380e-04"/>
          <Range Index="14" Min="9.4720569165929192e-09" Max="1.9787334895227104e-04"/>
          <Range Index="15" Min="2.3396391490848600e-09" Max="1.9859688472934067e-04"/>
          <Range Index="16" Min="0.0000000000000000e+00" Max="1.8932832000000000e+08"/>
          <Range Index="17" Min="7.7233302593231201e-01" Max="1.6781300306320190e+00"/>
        </Ranges>
      </Class>
    </Transform>
  </Transformations>
  <MVAPdfs/>
  <Weights>
    <Layout NLayers="5">
      <Layer Index="0" NNeurons="18">
        <Neuron NSynapses="18">
          7.6414456689820109e-02 1.1908571194139042e+00 3.9994464917712713e-01 3.3887626921475539e-01 -2.8288230276157532e-02 -2.8150855818086201e-01 -2.9278759867437459e-01 1.0098070525525493e-01 4.1992872057896112e-02 -2.7246349581194657e-01 -3.6223502515512990e-01 -3.4589699054058572e-02 2.3247627846433340e-02 1.3391673598553414e-01 2.7197507882332977e-01 1.0043066998344850e-01 -6.1673490223231729e-02 6.9536405849641736e-01 
        </Neuron>
        <Neuron NSynapses="18">
          1.9265620484810103e-01 2.4292323702741858e+00 -3.5851232706934932e-01 -1.2779734742885349e+00 6.9371601011474174e-02 1.6060421277098025e+00 -2.6548498297299905e+00 -4.8621941069979230e-01 1.3489993912901588e+00 -1.0243602193335293e+00 -2.8487965744372090e+00 1.9344107365198721e-01 -7.0305734400676856e-01 3.1498629755994072e+00 -8.3557976542327683e-01 -9.0678228136067152e-01 4.3317548475578518e-02 1.4057415479217972e-01 
        </Neuron>
        <Neuron NSynapses="18">
          -2.4396838557366011e-04 1.4183941591407569e+00 -3.9041599960987633e-02 2.6500399061423247e-01 9.6334861677359762e-01 1.0887602846902267e-03 1.0589211907271545e-01 1.9923890047446142e-03 1.0311979311692787e-02 4.2872769083773382e-02 -1.6420520318087148e-01 -3.8809424235285001e-03 -3.8796874168869226e-02 -3.2491619610156099e-02 3.1374871724465009e-01 8.3258406761509168e-02 1.2245451276975579e-02 1.2367230192344461e+00 
        </Neuron>
        <Neuron NSynapses="18">
          -1.0641849989237475e-04 -6.2936600790745112e-01 -2.0888159115068763e-01 -2.1715307511546486e-01 1.6953151408572051e-01 1.2469255772727653e-02 -7.0408972344581111e-01 -1.6548946423243529e-02 1.8135286150037952e-01 -9.3336182014636497e-03 5.5295156809217462e-02 -1.4375752116697548e-02 -1.9847233295424396e-01 7.1175927912013076e-02 8.7223403838285407e-01 7.3143708113189168e-02 1.5349458972137671e-02 -9.8681507279833838e-02 
        </Neuron>
        <Neuron NSynapses="18">
          8.6494019388078591e-01 3.5441825857334019e-01 1.4032284523528336e+00 1.8340539576841600e-01 -1.8311571298696883e+00 -2.8884033939812896e+00 1.7454903168047409e+00 9.7871988778384666e-01 1.3995704266257634e+00 -1.1005316057740950e+00 1.5362760695937860e+00 -3.0285530471292538e-01 -8.9268352026236941e-01 -1.3033501740589809e-01 8.5861323141059909e-01 -9.8978318763844853e-01 -5.1999820675337505e-01 -1.7177062307748134e+00 
        </Neuron>
        <Neuron NSynapses="18">
          -1.8484288085817102e-01 1.6026483103630432e-01 1.6082103320073724e+00 -2.6014670649378289e+00 -7.9514693464417052e-01 9.0273152108011845e-01 -1.5611944673311680e+00 -6.1690626229863842e-02 -1.7353784260498925e-01 1.0669176518263721e+00 -7.5874270288371515e-01 -5.5022808723164063e-01 4.1477915281086819e+00 2.3238096013152543e+00 -4.0074253693784928e-01 4.0022474192293505e+00 3.8256434716810943e-02 -1.8454810347349653e-03 
        </Neuron>
        <Neuron NSynapses="18">
          5.4904711291117160e-02 1.2231274090852546e+00 9.9876901306636928e-02 -3.7691769177296736e-01 6.2619029821238426e-01 -5.9046330027826957e-02 -1.9833421771524280e+00 2.3543791885110420e-02 -7.7173517757393367e-02 -2.7139340642851968e-03 5.0161386616281972e-02 3.7476595501722408e-02 7.9788284334624315e-02 1.1958692325827922e-01 -2.8252655562695211e-01 -9.4226352402034211e-02 -1.8226201191565869e-01 1.1521619486116261e+00 
        </Neuron>
        <Neuron NSynapses="18">
          -3.1947469504919015e-02 7.6887419684298394e-02 3.9000807922328754e-03 3.5092926579253048e-01 8.6082126249902902e-01 -8.6900817883812063e-03 -1.8309591388625243e-01 -3.1891006324126510e-02 1.3790154036120841e-01 -4.3498519953945200e-02 -1.3117709590341023e-01 -1.0234876673977742e-02 -6.5667443443798074e-02 -1.3282752507515178e-01 5.6284311167595014e-01 1.6590401434952784e-01 4.7357298356719944e-02 3.6565680229151343e-01 
        </Neuron>
        <Neuron NSynapses="18">
          -1.0169762065714806e-01 1.5572453217107738e+00 7.4688350393250647e-01 -8.1978774510766861e-01 -7.4512046791521425e-01 -1.4329951621214065e-01 -1.9531060392194430e+00 -1.0538616284347643e-01 6.6965618988020725e-01 -4.0534565986236759e-01 -2.5263090839156850e-02 -1.7901685300239542e-01 -1.1126970504218875e-01 3.1361981793292670e-01 5.2510089879767563e-01 1.0211890926429000e-01 2.6661299270085476e-01 1.9034438234209576e+00 
        </Neuron>
        <Neuron NSynapses="18">
          3.5319794233617630e-01 2.6569131663625251e-01 6.9862812736730184e-01 -1.1157457810297053e+00 4.1300137119556635e-01 9.8912416653227209e-01 -9.6850278292172498e-01 -6.5309403113354356e-02 1.5703314050965576e+00 8.8860469105554896e-01 1.7838593954375324e+00 7.4934213889673218e-01 1.5191886015397735e-01 -2.8944617973261955e+00 4.3513904116180940e-01 5.2755924271347698e-01 -6.6751159845166486e-01 -9.3801873496909605e-01 
        </Neuron>
        <Neuron NSynapses="18">
          -4.7549438277785586e-03 7.3490465289176121e-01 2.2871978155814884e-01 -1.8884376289729371e-01 -1.2156876132944222e-01 -4.1473239842590394e-03 -1.3629075691806206e-01 -2.9303432699245937e-03 7.0085306230392719e-02 2.0852374555537782e-02 -1.0788404037403981e-01 -3.9513453281193071e-03 -6.9200582950329950e-02 4.2332790886442602e-02 2.0616916792596141e-01 -4.8993561004027734e-02 -3.1411046050528399e-03 1.0903380249951611e+00 
        </Neuron>
        <Neuron NSynapses="18">
          -2.5618189299165496e-03 -3.4809763314047955e-02 1.3975738776176733e-01 1.5507544089067873e-01 -1.6455669818137919e-01 -7.3894371299528762e-03 4.6842035343020139e-01 4.0600574893460251e-04 1.2580851373150969e-02 4.7935357633303602e-02 3.2166319228285611e-01 1.1961532723968509e-02 1.4981559259787263e-02 -1.8545569378807889e-02 -3.8629875690374954e-01 6.0274511654776118e-02 6.4619521744684154e-03 1.0934809843617583e+00 
        </Neuron>
        <Neuron NSynapses="18">
          2.7975297882146129e-03 2.6450991519960182e-01 5.1511668615747219e-01 -5.7687028724788050e-03 -3.9411755891348577e-01 2.2312073677443298e-02 -7.8427792990796641e-01 3.3113434457714493e-03 -5.6533719201860066e-02 -4.9420257423585169e-02 -2.0094107945891648e-01 7.9974281034686980e-03 8.6688892311686458e-02 1.1594983633247868e-01 -2.1263776534709017e-01 -7.5252129180595319e-03 -1.6493005131322624e-02 8.9102916759443332e-02 
        </Neuron>
        <Neuron NSynapses="18">
          -1.0803073854109807e-02 -7.3809651937339749e-01 5.4190095915369374e-01 -2.2047143786142848e-01 -4.3743574766050103e-01 6.9292097661264544e-03 -9.0172720985737875e-01 9.9118068510538459e-03 -9.0619370515472072e-02 7.1643650739242226e-02 -1.3500622203047494e-01 6.1545585406882026e-03 -6.7412259558002660e-02 1.6075015832865305e-01 4.7161519574654936e-01 3.7941272270149456e-02 -3.3138416536920734e-02 -1.8750970716512350e-01 
        </Neuron>
        <Neuron NSynapses="18">
          8.4721024400829358e-03 5.9314110582497515e-01 3.0029078438505596e-01 7.6149801557670371e-02 -8.0870398783923758e-01 -3.5167857313617113e-03 -2.5285031467149349e-01 -8.1279350018448326e-03 1.2768877106787446e-01 2.7181947707988513e-02 -1.5376979965516527e-01 2.4601396978643750e-02 5.6828450525715724e-02 1.1786102523429703e-01 -7.6749187414286979e-01 6.1758395398828630e-02 2.5115413777501958e-02 2.1743803603939896e-01 
        </Neuron>
        <Neuron NSynapses="18">
          5.5158682256839803e-03 7.6918329338413149e-01 2.6042887378336566e-01 3.5209134235977824e-02 -5.3876641388584179e-01 -5.6028118939814946e-05 3.7167095549795287e-01 -1.1257863214967573e-02 1.1125034388852152e-01 8.0885849135656305e-03 -5.9917948678858364e-02 1.8026848763821341e-02 8.6145544381802941e-02 5.6762429749407151e-02 -8.0254077559008530e-01 -9.6593236205743380e-02 5.2156786269413294e-02 1.5022244917807293e+00 
        </Neuron>
        <Neuron NSynapses="18">
          -1.0767012559586331e+00 1.6434695478175769e+00 -1.5764035935103859e+00 1.2709161863146639e+00 -1.8450717524707047e-01 6.8566494988266913e-01 1.1380806085967978e+00 -8.9904440208295655e-01 1.2013972535824311e+00 1.5456731710199141e+00 -2.4763839628258970e+00 -3.1027232999217458e+00 -9.2289697626294775e-01 -1.1499581456479260e+00 3.1493917782060148e+00 -4.4162054480051038e+00 -2.5425301940978846e+00 -1.7781575438366004e-01 
        </Neuron>
        <Neuron NSynapses="18">
          -2.0983794874272923e+00 -2.7324898559984052e+00 -1.1215613778213407e+00 1.3357352635831680e-02 2.0064018328686175e+00 -2.9808871851353280e+00 1.7327828205210720e+00 1.0081621100312179e+00 1.2334124599062164e+00 3.4081431365906041e+00 1.9144519667649404e+00 -4.3292363040759660e+00 3.3630652275031316e+00 -4.4704713924519801e+00 7.2912888862303760e-01 -4.0140210440692664e-01 -2.8983421623079120e+00 -3.2382144206608414e+00 
        </Neuron>
      </Layer>
      <Layer Index="1" NNeurons="19">
        <Neuron NSynapses="21">
          3.2877794513320874e-01 1.6306235274365304e+00 1.2774651097468874e+00 2.0081925262399283e+00 -3.3866071929820589e+00 8.8936552794323920e-01 -2.4947478519378850e+00 9.0961612633875744e-01 -6.7060774640847165e-01 -3.2455415639487910e+00 3.9823498795727758e-01 3.1349989422443789e+00 1.1003719609006762e-01 -2.1451222961150367e+00 5.1716162287076528e-01 -1.4977725588494706e-01 -8.7300018414312963e-01 -6.1310355390837135e-01 1.6606098218135175e+00 -1.2441478157547505e+00 5.6196056137750072e-01 
        </Neuron>
        <Neuron NSynapses="21">
          -1.1612305725260832e+00 -5.0431206960533226e-01 1.6161817469862949e-01 -9.6418684786505945e-03 1.3997129414604756e-01 9.9529039897712801e-01 1.3988606526676182e+00 9.4413431173706663e-01 -5.9011443780233125e-02 -4.0271612960332054e-01 -1.5414502700732713e+00 -4.4427955968512661e-01 -1.5598445738003719e-01 -5.9917960083558354e-02 -1.1300638022652651e+00 4.3947653846346146e-01 -1.5240024272098291e+00 -1.0909309059842049e+00 -1.6885218501477330e+00 9.7769488050714271e-01 -1.3623022574165695e+00 
        </Neuron>
        <Neuron NSynapses="21">
          -1.2451020742239489e+00 -5.5593466908404165e-01 -4.3176323030902058e-01 1.9826943555613391e-01 6.8226632906267104e-01 -1.4748928789624913e+00 -7.6495278113823739e-01 1.0555619043918150e+00 1.1554153367189719e+00 -1.5558724513351724e-01 1.0172087452814073e-01 -9.4433177195199697e-02 7.4681922160312242e-01 -2.8586650259090352e-01 -4.2335617936015513e-01 -4.8774646288703766e-01 -1.2754530793160512e+00 -1.2118482976671059e+00 2.4198961005253197e-01 4.6503525159692971e-01 1.0460782538959583e+00 
        </Neuron>
        <Neuron NSynapses="21">
          5.8232941159649199e-01 8.7367413256479065e-01 -5.0320046670740215e-01 1.7518339584872116e+00 -4.1260876019128612e-01 -1.8547563371718074e+00 -6.7276439834205148e-01 -1.0700365998184829e+00 2.0051536236866255e-01 3.3620776412479736e-01 1.8866183003802348e+00 4.3685000852204524e-02 -2.4221093986406930e-01 -7.3349681500911659e-02 1.6172179185002997e+00 -2.2592025795828827e-01 -1.0295223356844230e+00 1.3734945915558450e+00 -1.9968966518254052e+00 3.2512304001353154e-01 1.8218837281134033e+00 
        </Neuron>
        <Neuron NSynapses="21">
          -4.5181115555700918e-01 -1.5418251542182084e+00 1.9074000841172675e-01 -3.9187186246887312e-01 -1.2987711387779480e-01 -1.9459252851307156e+00 1.3742389920895381e-01 6.1753137658031709e-01 1.1562111588935271e+00 1.1714746678039330e-01 1.5931267971126457e+00 6.0330723957349251e-02 -8.0416519680977350e-02 4.0224835143349100e-03 1.8859881088462751e+00 -2.1919814815293650e+00 -1.4128447240650912e+00 -3.8178689750109068e-01 -1.4393050617189280e+00 -1.5408750197478915e+00 -4.9556052191444894e-01 
        </Neuron>
        <Neuron NSynapses="21">
          1.4215550646256143e+00 -4.0329040527552640e-01 -2.0928846126678780e+00 -1.8224134446279081e+00 -1.3087836975254519e+00 1.7799420565813422e+00 1.9735681240163832e+00 1.6086805747415120e+00 -1.0471289314958743e+00 -7.1081276167925322e-01 -3.0365314223094925e-01 -5.7408412280936583e-01 -1.1851231844373065e+00 -4.8693512333020238e-02 8.3563454448980206e-03 -1.5184603543734554e+00 1.1937340913823324e+00 -8.0403838962470886e-02 1.1234524711326492e-01 -2.3620309774047196e-01 -8.5247991539410273e-01 
        </Neuron>
        <Neuron NSynapses="21">
          1.6223814063442268e+00 -1.2721786060159630e+00 7.5700187156210386e-01 2.0791560715273949e+00 3.5196298806559979e-02 -1.0327265210202270e+00 1.0244753795882127e+00 -1.4359848008918135e+00 1.2997490158215941e+00 5.4228296542439082e-02 4.6508205192283103e-01 4.3512368386116945e-01 -1.0984498895100830e-01 4.2850863073941547e-01 1.2926674491837356e+00 6.8071150403642144e-02 -6.5934070660239252e-01 -1.7524320128104909e+00 -6.9958478760392639e-01 1.6536670336793402e+00 1.1004809136838438e+00 
        </Neuron>
        <Neuron NSynapses="21">
          -1.3993438344983657e+00 -1.9958786132172734e+00 2.2268650274730382e+00 2.9568485419803203e-01 -3.2259727783034646e-02 -3.6533925007254398e-01 -1.1557207721263545e+00 1.0120007667118731e+00 2.2589738568308517e+00 -1.8134681643209789e+00 -6.4077906355768799e-01 1.8778213705237667e+00 1.8513592762731597e+00 -4.0680244898584356e-01 5.9711444944622538e-01 -1.3350772681066374e+00 -1.0859234118247088e+00 1.2951633681289283e+00 -4.2379317081033080e-01 3.5438428384481613e-01 -1.2399947326514171e+00 
        </Neuron>
        <Neuron NSynapses="21">
          -1.1427761603444724e+00 -2.0216235239360718e+00 -7.2642055262817773e-01 -1.0201531539377344e+00 4.5873250066356031e-01 -4.6879103574616182e-01 9.3171524382369453e-01 -1.5234520057984184e+00 -9.1628936896006252e-01 9.2986340382429300e-01 1.2548158695058644e+00 5.7813657568220300e-01 5.2794229355222377e-01 -3.7902848408327972e-01 2.0022260195337029e+00 -1.6416232409813309e+00 -1.8461468736364332e-02 -1.3929122525895163e+00 8.4115768911972610e-01 -9.9971775772947502e-01 7.1766260171991292e-01 
        </Neuron>
        <Neuron NSynapses="21">
          1.8984470007435394e-01 -2.8949650872225636e-02 -7.3924453119726286e-01 -2.1924833107073058e+00 1.1235780804517144e+00 2.8026749699851083e-01 8.4534697224570288e-01 3.3512673302216572e-01 -1.5307332951977766e+00 3.6302545120535518e-01 -1.5223498175571941e+00 -6.0354241682382426e-01 3.5001102061971414e+00 -8.1812146888708848e-01 1.8362224832836314e+00 1.2955039618357655e+00 -3.3713917415282375e+00 9.6857635938010101e-03 -1.0534110862655535e+00 1.2373808864212872e+00 4.9011892191717471e-01 
        </Neuron>
        <Neuron NSynapses="21">
          -3.5320228625814180e-02 -5.8777288748668277e-01 -4.6300171926596306e-01 -6.4745688684571390e-01 6.1950020763116864e-01 -2.0668047405637835e+00 -2.4933924888041362e-01 2.8812504766793390e-01 2.9099756604411314e-01 -4.9246976328035118e-02 2.2046796289368426e-01 -9.1869558896634264e-03 -2.4759172543497363e-01 -9.4277025835904887e-02 2.2871907064708688e+00 -3.7509143000056033e-01 3.1477000950281658e-01 5.0492687379403578e-01 -2.0099104004984962e+00 -1.0422698846744791e+00 2.9350694920405823e-01 
        </Neuron>
        <Neuron NSynapses="21">
          -2.2723613049407438e+00 -8.0023495298330161e-01 -1.2543773578066839e+00 2.6213081957554736e+00 -3.0668669738604208e+00 1.3668330694121298e+00 1.5998345699573380e+00 1.9126351192321838e+00 1.6422618575182539e+00 -6.7709835883704683e-01 6.4565006824173066e-01 5.7379532898399935e-02 -3.7660948133849401e+00 -4.2757207270755666e+00 -7.2141488809509347e-01 1.3769620780830671e+00 7.0518077368978149e-01 -5.1505106816769597e-01 1.4673110034992696e+00 9.2290603738135224e-01 -1.3049702933627922e+00 
        </Neuron>
        <Neuron NSynapses="21">
          5.1508192572696410e-01 -1.8402522266820702e+00 2.9907756094402638e-01 -1.9130037765506827e+00 1.0171739104925095e+00 -3.6249256035251887e-01 9.1479013453771352e-02 -1.8024081099200808e+00 1.5055535694356288e+00 1.5480399321129551e-01 4.3925677165880289e-01 -7.6115974210864057e-01 2.5992595405758556e-01 -7.0687374533619407e-01 -1.2495438039639168e+00 8.3957004659172474e-01 -1.8940530654474333e-01 4.2777663995874904e-01 -1.9863073664157738e+00 -4.1543004924126875e-01 2.5540425389482135e+00 
        </Neuron>
        <Neuron NSynapses="21">
          -2.8330046673526357e+00 -1.7454570224397343e+00 -1.2363612965824147e+00 1.8769315193853017e-01 1.1618455610242289e+00 1.4515490233045596e+00 -2.5505567181672251e+00 6.9759869520283735e-01 6.2542488652532324e-01 -4.4972853265207675e-02 -5.8201429633988333e-01 2.3278031553657184e+00 -1.1650463750126777e-01 1.4432353287564776e+00 1.6671074499278185e+00 -7.1754925673545888e-01 7.0620311710263256e-02 -8.7705317271743344e-01 1.2870506358917797e+00 9.3730938312934065e-01 1.4850680107678726e+00 
        </Neuron>
        <Neuron NSynapses="21">
          -2.9701221646245707e-01 -1.5777136506574949e+00 -6.5861644366545535e-01 3.3174765547064672e-01 1.9716073212919877e-01 -1.7551776108101666e-01 -6.6504720317243382e-01 -5.3654335730532776e-01 -1.0353782561871985e+00 -7.7532221163219686e-02 -1.5052459766877444e+00 -5.6002494507167164e-03 2.6735860972640563e-01 -1.0152893083324528e-01 1.0995160171207279e+00 -2.0047129008509623e+00 -7.6420835944288867e-01 -7.0823500873532161e-02 -8.8015586984264904e-01 8.4343085603009771e-01 1.1690201831863198e+00 
        </Neuron>
        <Neuron NSynapses="21">
          -1.7077488238319694e+00 -4.6236711187529422e-01 -1.8838758504796151e+00 -1.9035146357140031e+00 -1.9106873895133525e-01 -1.1201693797811501e+00 -1.0894027289947770e+00 3.1317513631068972e-01 1.8902133861785730e+00 3.3412607746077483e-01 1.5132148819487201e+00 -2.0660821631818116e-01 -1.1157337801815914e+00 -5.1574954786841287e-01 -7.3157944162544286e-01 3.5117964736319807e-01 5.9105164884856132e-01 1.3082914678396793e+00 -1.5167589316724821e+00 1.2531999086747783e+00 6.8291290691742790e-01 
        </Neuron>
        <Neuron NSynapses="21">
          -1.7831956428514695e+00 1.3373642843378115e+00 1.3043563715059192e+00 -4.6533669759166646e-01 -2.1086074399654803e-01 -1.7443032943053067e+00 1.4430583516777201e-01 1.8904236793044431e+00 6.4477126071440483e-01 2.8343007462373632e-01 -1.3812786277779057e+00 -7.0084127455595210e-02 -1.3917077742415003e+00 1.1226230512065987e+00 1.4760693199295725e+00 -1.8329558047093835e+00 8.1312097641565584e-01 -8.2083465460485394e-01 -9.2590673228751308e-02 -1.5386886864453631e+00 1.0329733227149718e+00 
        </Neuron>
        <Neuron NSynapses="21">
          9.0410786351146175e-02 1.6710205552216644e+00 -7.0849527935477818e-01 1.2005066781826486e+00 6.9388340303718099e-01 1.4385021017085498e+00 -9.6110781620704869e-02 -5.9880532857661251e-01 -1.5667563645358724e+00 -5.9314449768153743e-01 9.2867851710680005e-01 -2.8685888225457928e-01 6.8908139316187678e-01 -1.6317701637528698e-01 -2.6807103150320905e-01 1.0548997297801410e+00 3.0743343152363783e-01 -1.4615773102425498e+00 1.9860971516077441e-01 1.1352345664912618e+00 1.8411050446100097e+00 
        </Neuron>
        <Neuron NSynapses="21">
          7.4730722456707310e-01 -1.4796758206269292e+00 -4.0116694495408933e-01 -5.9287250781041734e-01 8.1088847805015820e-03 -1.1308836571995244e+00 6.7425014690553575e-01 1.2910747218400773e-01 -6.9326983677171150e-01 7.1012359647209378e-01 1.8619646462310466e+00 -7.9582710542327151e-01 1.9349619783019167e-01 1.8713366241026133e+00 1.5821006795648354e+00 -2.0348551897848077e+00 1.2107711749609731e+00 -3.1700961285125850e-01 -1.6075639663284933e+00 2.3543119368030099e+00 -8.9736066936078152e-01 
        </Neuron>
      </Layer>
      <Layer Index="2" NNeurons="22">
        <Neuron NSynapses="9">
          -9.8877466531796665e-01 2.1545708129334851e+00 6.5193679811510385e-01 3.9563592380439896e-02 2.2659852644505754e-01 1.8596715365840741e+00 2.1507553961214776e+00 5.9255334961006434e-01 -9.3679480303439833e-01 
        </Neuron>
        <Neuron NSynapses="9">
          1.7168565503630102e+00 1.6896464598440926e+00 -1.2490262899700680e-01 6.8104138661104607e-01 -2.8300570698862887e-01 1.2345312107648911e+00 -1.5133294884471975e+00 -3.1199992361411988e-01 -5.6633512773690575e-01 
        </Neuron>
        <Neuron NSynapses="9">
          2.0209772407969049e+00 -1.9183412683008674e+00 9.5261325681154607e-01 -1.4234509079355107e+00 -1.3767007328824957e-01 8.9459807586528250e-01 1.4331726421730300e+00 -8.3225500027413379e-01 -1.1687544930508014e+00 
        </Neuron>
        <Neuron NSynapses="9">
          -8.5606676228759937e-01 1.0440388313541892e-01 2.7758229508353378e+00 9.6452135553561091e-01 9.8737949932642788e-01 -2.1305303164497388e-01 5.7711689798347487e-01 -6.0904560780521877e-01 -5.1734172242613696e-01 
        </Neuron>
        <Neuron NSynapses="9">
          1.3229753168508716e+00 -3.0188967740178574e-01 -2.4909881546943913e+00 -1.5950075961993056e-02 -7.8750157316393066e-01 1.8587648050000170e+00 1.2177651481965249e-01 -7.2542001682190504e-01 -1.6745784049694352e+00 
        </Neuron>
        <Neuron NSynapses="9">
          -1.0090689415719829e+00 -1.1498002268997460e+00 -9.3627831299507047e-01 5.5790164674130116e-01 9.9558174027212820e-01 1.6771997538419361e+00 -1.5465847605674168e-01 -1.1593869907872520e+00 -1.7548136449311449e+00 
        </Neuron>
        <Neuron NSynapses="9">
          8.7116442848101072e-01 -2.2055347519365467e-01 5.9515724766395839e-01 -1.1059100240231463e+00 4.2399509284687226e-01 1.0928975656697237e+00 -1.0883809865422580e+00 -1.5797077415336347e-01 2.2352588889481759e-01 
        </Neuron>
        <Neuron NSynapses="9">
          -1.6145049615382809e+00 -1.1194674761004335e+00 2.2606806227742711e+00 -1.6855469050362626e+00 -1.1319861926934177e-01 -1.6639269559591205e+00 -4.9094517144132460e-01 -4.7544985489281344e-01 1.9044248786359272e+00 
        </Neuron>
        <Neuron NSynapses="9">
          -2.4293278956486392e-01 -4.3072090668190860e-01 8.2077502842871131e-01 -3.0964302545668586e-02 -5.8246541926023465e-01 1.5889652200807487e+00 1.3702153572716229e+00 -1.1393824825012290e-01 -3.5685859907690098e-01 
        </Neuron>
        <Neuron NSynapses="9">
          -1.7336195151394898e+00 8.0149610127893933e-01 3.0018814981282543e-01 -1.5242234964266139e+00 -1.4268257466909093e+00 -5.9545770094012340e-01 1.0683748571003413e+00 -1.7293460543999715e+00 -8.0181973761962910e-01 
        </Neuron>
        <Neuron NSynapses="9">
          -5.2890541608207020e-01 -1.2225645094223168e+00 5.3387098208224870e-01 -1.9639663262562717e+00 4.1442774893166173e-01 -4.9424646793855548e-01 -4.0997766738496799e-01 -9.2129982368141983e-01 1.3684955880743155e+00 
        </Neuron>
        <Neuron NSynapses="9">
          1.7492543439388464e+00 -2.8560208124701609e+00 1.6248976115353293e+00 -8.0753728710841588e-01 1.5757859881621077e+00 -4.9580549828119219e-01 9.5925471428511533e-01 1.3675363084140659e+00 8.8043924421658940e-02 
        </Neuron>
        <Neuron NSynapses="9">
          2.7121829517080549e+00 1.4702814820687582e+00 -3.5617316752821790e+00 -6.0992437818332124e-01 1.6413541557291296e+00 1.1907222187831410e+00 7.6322679162196561e-01 -1.0948481445106224e+00 -3.2967254787204743e+00 
        </Neuron>
        <Neuron NSynapses="9">
          -2.3186920549313439e+00 1.2854495853951806e+00 -2.4500840275550764e+00 1.9175313556297119e-01 -2.9253685412734272e+00 6.7548908425094101e-01 -2.1507521235309093e+00 -7.4712670417566673e-01 -4.7286848145256916e-01 
        </Neuron>
        <Neuron NSynapses="9">
          -7.2580304238333437e-01 -1.7186703977991038e+00 -1.0785261406487345e+00 -2.2953420724374256e+00 1.4371000988256561e+00 6.7109692192103676e-01 1.7618628020648950e+00 -6.6693865401842434e-01 -7.0583227053926056e-02 
        </Neuron>
        <Neuron NSynapses="9">
          1.0437973552897903e+00 1.2156580580984444e+00 -9.0479215695637147e-02 1.8437457796582115e+00 -4.5993783046554831e-01 3.0910495375022706e-01 -1.9768127855819252e-02 8.1647394255811878e-01 6.8300158124908777e-02 
        </Neuron>
        <Neuron NSynapses="9">
          -2.4897763939844593e+00 9.0312401451143343e-01 1.6272802156239319e+00 -3.2178323025316308e-01 4.0162376468553407e-01 1.6022524595862477e+00 1.8754142284278135e+00 -1.2299160286000486e+00 7.4101317789965926e-01 
        </Neuron>
        <Neuron NSynapses="9">
          8.4657720753257015e-01 -1.7893696809546324e+00 -1.8282227328426115e+00 7.0043803691481632e-01 9.5020367135006584e-02 5.6339595140658938e-01 -1.3445711182999400e+00 -2.5792685858490599e-01 5.4222317427447198e-01 
        </Neuron>
        <Neuron NSynapses="9">
          -1.4213787390139907e+00 -1.9315118481193327e+00 -7.6110072305132892e-01 1.8474017904669169e+00 7.9648941904759973e-01 1.5820825494616066e+00 1.5040352293439909e+00 9.0116791648219108e-01 1.0051347937168728e-01 
        </Neuron>
        <Neuron NSynapses="9">
          7.9150452035090058e-01 6.3012138591751854e-01 -1.2998587827713628e+00 -2.0191845994438626e+00 -9.6626920011206863e-01 1.3669627317648533e-01 -1.2060083284869596e+00 1.4171279059281936e+00 1.3303443099562411e+00 
        </Neuron>
        <Neuron NSynapses="9">
          -1.1227861134655485e-01 1.4096146306539059e+00 -3.6120849620207068e-01 1.5119650112011207e+00 4.7435499753237376e-01 4.7652175019677123e-01 4.4187772575740258e-01 9.1472053938221265e-01 -5.2865307800164008e-01 
        </Neuron>
        <Neuron NSynapses="9">
          6.3361714168780137e-01 1.6833649409970244e+00 -8.1921343198949303e-01 -1.1441015745898923e-01 -1.0982442641854953e+00 1.8893776646363372e-01 -1.3164949613583217e+00 2.1466265348282762e-01 -9.7247576290250981e-01 
        </Neuron>
      </Layer>
      <Layer Index="3" NNeurons="10">
        <Neuron NSynapses="1">
          2.1046295165233917e+00 
        </Neuron>
        <Neuron NSynapses="1">
          -4.4167217031886824e-01 
        </Neuron>
        <Neuron NSynapses="1">
          3.0023398210682237e+00 
        </Neuron>
        <Neuron NSynapses="1">
          -1.0442163268422524e+00 
        </Neuron>
        <Neuron NSynapses="1">
          8.4041511664272883e-01 
        </Neuron>
        <Neuron NSynapses="1">
          -1.7037378125426599e+00 
        </Neuron>
        <Neuron NSynapses="1">
          5.2314601841178665e-01 
        </Neuron>
        <Neuron NSynapses="1">
          9.4607058155970369e-01 
        </Neuron>
        <Neuron NSynapses="1">
          2.0356540612154048e+00 
        </Neuron>
        <Neuron NSynapses="1">
          -1.2488803372079322e+00 
        </Neuron>
      </Layer>
      <Layer Index="4" NNeurons="1">
        <Neuron NSynapses="0"/>
      </Layer>
    </Layout>
  </Weights>
</MethodSetup>
